<?xml version="1.0"?>
<opencv_storage>
<cascade>
  <stageType>BOOST</stageType>
  <featureType>HAAR</featureType>
  <height>24</height>
  <width>24</width>
  <stageParams>
    <boostType>GAB</boostType>
    <minHitRate>9.9500000476837158e-01</minHitRate>
    <maxFalseAlarm>2.0000000298023224e-01</maxFalseAlarm>
    <weightTrimRate>9.4999999999999996e-01</weightTrimRate>
    <maxDepth>1</maxDepth>
    <maxWeakCount>100</maxWeakCount></stageParams>
  <featureParams>
    <maxCatCount>0</maxCatCount>
    <featSize>1</featSize>
    <mode>BASIC</mode></featureParams>
  <stageNum>10</stageNum>
  <stages>
    <!-- stage 0 -->
    <_>
      <maxWeakCount>37</maxWeakCount>
      <stageThreshold>-7.5778090953826904e-01</stageThreshold>
      <weakClassifiers>
        <_>
          <internalNodes>
            0 -1 270 -1.6761633753776550e-01</internalNodes>
          <leafValues>
            -4.5788964629173279e-01 7.4821609258651733e-01</leafValues></_>
        <_>
          <internalNodes>
            0 -1 119 -3.5790957510471344e-02</internalNodes>
          <leafValues>
            6.5888434648513794e-01 -2.8108504414558411e-01</leafValues></_>
        <_>
          <internalNodes>
            0 -1 104 -1.8921698629856110e-01</internalNodes>
          <leafValues>
            -3.4575369954109192e-01 3.3882039785385132e-01</leafValues></_>
        <_>
          <internalNodes>
            0 -1 21 -1.4427792280912399e-02</internalNodes>
          <leafValues>
            -6.1222535371780396e-01 1.6504170000553131e-01</leafValues></_>
        <_>
          <internalNodes>
            0 -1 339 2.9027210548520088e-03</internalNodes>
          <leafValues>
            1.6109430789947510e-01 -6.1858069896697998e-01</leafValues></_>
        <_>
          <internalNodes>
            0 -1 504 2.7785093989223242e-03</internalNodes>
          <leafValues>
            1.9936390221118927e-01 -4.9306264519691467e-01</leafValues></_>
        <_>
          <internalNodes>
            0 -1 716 4.6907942742109299e-03</internalNodes>
          <leafValues>
            -2.2378163039684296e-01 3.7578049302101135e-01</leafValues></_>
        <_>
          <internalNodes>
            0 -1 68 -2.2324468591250479e-04</internalNodes>
          <leafValues>
            -4.0426847338676453e-01 1.3556824624538422e-01</leafValues></_>
        <_>
          <internalNodes>
            0 -1 24 -5.3822165727615356e-01</internalNodes>
          <leafValues>
            -7.0735430717468262e-01 5.7630062103271484e-02</leafValues></_>
        <_>
          <internalNodes>
            0 -1 313 2.0373656298033893e-04</internalNodes>
          <leafValues>
            1.5384772419929504e-01 -3.7802857160568237e-01</leafValues></_>
        <_>
          <internalNodes>
            0 -1 701 4.7877561883069575e-04</internalNodes>
          <leafValues>
            1.7053367197513580e-01 -3.6913099884986877e-01</leafValues></_>
        <_>
          <internalNodes>
            0 -1 28 6.3613009452819824e-01</internalNodes>
          <leafValues>
            6.2229909002780914e-02 -8.2388657331466675e-01</leafValues></_>
        <_>
          <internalNodes>
            0 -1 181 -2.6877257972955704e-02</internalNodes>
          <leafValues>
            -2.8941601514816284e-01 1.7217954993247986e-01</leafValues></_>
        <_>
          <internalNodes>
            0 -1 220 2.8810708317905664e-04</internalNodes>
          <leafValues>
            1.7677874863147736e-01 -3.1352722644805908e-01</leafValues></_>
        <_>
          <internalNodes>
            0 -1 601 3.7897506263107061e-04</internalNodes>
          <leafValues>
            1.1334283649921417e-01 -4.5649963617324829e-01</leafValues></_>
        <_>
          <internalNodes>
            0 -1 528 2.0248527289368212e-04</internalNodes>
          <leafValues>
            1.4583674073219299e-01 -3.3538377285003662e-01</leafValues></_>
        <_>
          <internalNodes>
            0 -1 401 6.3014263287186623e-03</internalNodes>
          <leafValues>
            -1.0726649314165115e-01 4.5317256450653076e-01</leafValues></_>
        <_>
          <internalNodes>
            0 -1 749 1.9717804389074445e-04</internalNodes>
          <leafValues>
            1.4591428637504578e-01 -3.3706039190292358e-01</leafValues></_>
        <_>
          <internalNodes>
            0 -1 17 -5.2736893296241760e-02</internalNodes>
          <leafValues>
            5.9694159030914307e-01 -8.4929764270782471e-02</leafValues></_>
        <_>
          <internalNodes>
            0 -1 357 -2.1758154616691172e-04</internalNodes>
          <leafValues>
            -3.3201870322227478e-01 1.4848722517490387e-01</leafValues></_>
        <_>
          <internalNodes>
            0 -1 613 2.6939015835523605e-02</internalNodes>
          <leafValues>
            -1.6617691516876221e-01 3.1963396072387695e-01</leafValues></_>
        <_>
          <internalNodes>
            0 -1 446 2.0019415766000748e-02</internalNodes>
          <leafValues>
            -9.7115084528923035e-02 4.8777097463607788e-01</leafValues></_>
        <_>
          <internalNodes>
            0 -1 147 -1.6507135704159737e-02</internalNodes>
          <leafValues>
            5.3234100341796875e-01 -8.3961620926856995e-02</leafValues></_>
        <_>
          <internalNodes>
            0 -1 253 -3.1611890881322324e-04</internalNodes>
          <leafValues>
            -3.8198840618133545e-01 1.3929887115955353e-01</leafValues></_>
        <_>
          <internalNodes>
            0 -1 135 3.5605110228061676e-02</internalNodes>
          <leafValues>
            -1.1580990999937057e-01 4.8028993606567383e-01</leafValues></_>
        <_>
          <internalNodes>
            0 -1 34 -5.7858326472342014e-03</internalNodes>
          <leafValues>
            3.7457799911499023e-01 -1.1627850681543350e-01</leafValues></_>
        <_>
          <internalNodes>
            0 -1 171 1.0259880218654871e-04</internalNodes>
          <leafValues>
            1.8145123124122620e-01 -2.8075435757637024e-01</leafValues></_>
        <_>
          <internalNodes>
            0 -1 155 5.8056339621543884e-02</internalNodes>
          <leafValues>
            -9.4128280878067017e-02 5.5534189939498901e-01</leafValues></_>
        <_>
          <internalNodes>
            0 -1 87 -7.6427828753367066e-04</internalNodes>
          <leafValues>
            -5.1464498043060303e-01 1.1403639614582062e-01</leafValues></_>
        <_>
          <internalNodes>
            0 -1 447 -1.6067441552877426e-02</internalNodes>
          <leafValues>
            -6.2847539782524109e-02 9.2505568265914917e-01</leafValues></_>
        <_>
          <internalNodes>
            0 -1 20 4.2752492427825928e-01</internalNodes>
          <leafValues>
            9.0373724699020386e-02 -6.7009013891220093e-01</leafValues></_>
        <_>
          <internalNodes>
            0 -1 65 -6.7484453320503235e-02</internalNodes>
          <leafValues>
            -1.4338047802448273e-01 3.8971129059791565e-01</leafValues></_>
        <_>
          <internalNodes>
            0 -1 395 -2.1632607094943523e-03</internalNodes>
          <leafValues>
            -4.4440039992332458e-01 1.2314212322235107e-01</leafValues></_>
        <_>
          <internalNodes>
            0 -1 397 -4.3278506398200989e-01</internalNodes>
          <leafValues>
            -9.3243217468261719e-01 4.6552516520023346e-02</leafValues></_>
        <_>
          <internalNodes>
            0 -1 122 -1.2805704027414322e-02</internalNodes>
          <leafValues>
            4.3850043416023254e-01 -1.2613639235496521e-01</leafValues></_>
        <_>
          <internalNodes>
            0 -1 505 1.4882664196193218e-02</internalNodes>
          <leafValues>
            -9.4582624733448029e-02 5.2753430604934692e-01</leafValues></_>
        <_>
          <internalNodes>
            0 -1 554 -3.1824398320168257e-04</internalNodes>
          <leafValues>
            -4.0688773989677429e-01 1.3923498988151550e-01</leafValues></_></weakClassifiers></_>
    <!-- stage 1 -->
    <_>
      <maxWeakCount>42</maxWeakCount>
      <stageThreshold>-7.0830971002578735e-01</stageThreshold>
      <weakClassifiers>
        <_>
          <internalNodes>
            0 -1 658 -1.1920180916786194e-01</internalNodes>
          <leafValues>
            -6.0052222013473511e-01 5.5363321304321289e-01</leafValues></_>
        <_>
          <internalNodes>
            0 -1 223 -2.4518139660358429e-02</internalNodes>
          <leafValues>
            6.3610208034515381e-01 -2.9697072505950928e-01</leafValues></_>
        <_>
          <internalNodes>
            0 -1 50 -1.2524925172328949e-01</internalNodes>
          <leafValues>
            -4.2848512530326843e-01 2.6518720388412476e-01</leafValues></_>
        <_>
          <internalNodes>
            0 -1 33 -3.6520664580166340e-03</internalNodes>
          <leafValues>
            3.4122058749198914e-01 -2.6256319880485535e-01</leafValues></_>
        <_>
          <internalNodes>
            0 -1 714 6.4662443473935127e-03</internalNodes>
          <leafValues>
            -1.5829327702522278e-01 5.2158141136169434e-01</leafValues></_>
        <_>
          <internalNodes>
            0 -1 476 1.3924163067713380e-03</internalNodes>
          <leafValues>
            -1.3000707328319550e-01 5.2213490009307861e-01</leafValues></_>
        <_>
          <internalNodes>
            0 -1 284 -4.3993711005896330e-04</internalNodes>
          <leafValues>
            -4.4324842095375061e-01 1.5179303288459778e-01</leafValues></_>
        <_>
          <internalNodes>
            0 -1 377 6.9137820973992348e-03</internalNodes>
          <leafValues>
            -1.5212884545326233e-01 4.5732790231704712e-01</leafValues></_>
        <_>
          <internalNodes>
            0 -1 343 4.6478174626827240e-02</internalNodes>
          <leafValues>
            -1.7130891978740692e-01 4.1722807288169861e-01</leafValues></_>
        <_>
          <internalNodes>
            0 -1 566 -9.8502822220325470e-03</internalNodes>
          <leafValues>
            -1.5058602392673492e-01 4.3160232901573181e-01</leafValues></_>
        <_>
          <internalNodes>
            0 -1 450 -2.1948562934994698e-03</internalNodes>
          <leafValues>
            5.4834979772567749e-01 -1.1520853638648987e-01</leafValues></_>
        <_>
          <internalNodes>
            0 -1 180 -3.1692821532487869e-02</internalNodes>
          <leafValues>
            -9.8256343603134155e-01 7.3324702680110931e-02</leafValues></_>
        <_>
          <internalNodes>
            0 -1 487 6.0713069979101419e-04</internalNodes>
          <leafValues>
            -1.3695061206817627e-01 5.0276577472686768e-01</leafValues></_>
        <_>
          <internalNodes>
            0 -1 56 6.0161594301462173e-03</internalNodes>
          <leafValues>
            -7.7327825129032135e-02 6.8567937612533569e-01</leafValues></_>
        <_>
          <internalNodes>
            0 -1 18 8.2032084465026855e-03</internalNodes>
          <leafValues>
            1.5288868546485901e-01 -4.3276482820510864e-01</leafValues></_>
        <_>
          <internalNodes>
            0 -1 259 -4.2622396722435951e-03</internalNodes>
          <leafValues>
            -4.8080459237098694e-01 1.4394010603427887e-01</leafValues></_>
        <_>
          <internalNodes>
            0 -1 28 5.5200827121734619e-01</internalNodes>
          <leafValues>
            8.3645284175872803e-02 -7.4732536077499390e-01</leafValues></_>
        <_>
          <internalNodes>
            0 -1 263 -1.5832383185625076e-02</internalNodes>
          <leafValues>
            5.9043729305267334e-01 -1.1726216226816177e-01</leafValues></_>
        <_>
          <internalNodes>
            0 -1 727 -7.8095174394547939e-03</internalNodes>
          <leafValues>
            6.0406124591827393e-01 -8.8230408728122711e-02</leafValues></_>
        <_>
          <internalNodes>
            0 -1 178 -5.7551932334899902e-01</internalNodes>
          <leafValues>
            -9.4177246093750000e-01 6.1812255531549454e-02</leafValues></_>
        <_>
          <internalNodes>
            0 -1 536 -1.2888671830296516e-02</internalNodes>
          <leafValues>
            2.9459801316261292e-01 -2.0183640718460083e-01</leafValues></_>
        <_>
          <internalNodes>
            0 -1 243 1.4946838840842247e-02</internalNodes>
          <leafValues>
            -1.6696150600910187e-01 3.0604210495948792e-01</leafValues></_>
        <_>
          <internalNodes>
            0 -1 579 -4.3565756641328335e-04</internalNodes>
          <leafValues>
            -3.0843031406402588e-01 1.6957902908325195e-01</leafValues></_>
        <_>
          <internalNodes>
            0 -1 19 2.0139145851135254e-01</internalNodes>
          <leafValues>
            9.0720675885677338e-02 -4.9569746851921082e-01</leafValues></_>
        <_>
          <internalNodes>
            0 -1 101 1.0040306369774044e-04</internalNodes>
          <leafValues>
            1.4937467873096466e-01 -2.9716938734054565e-01</leafValues></_>
        <_>
          <internalNodes>
            0 -1 489 2.4890606291592121e-03</internalNodes>
          <leafValues>
            -1.1433172225952148e-01 3.7174335122108459e-01</leafValues></_>
        <_>
          <internalNodes>
            0 -1 561 -1.2803398072719574e-02</internalNodes>
          <leafValues>
            3.4949457645416260e-01 -1.1413371562957764e-01</leafValues></_>
        <_>
          <internalNodes>
            0 -1 194 -1.4884646236896515e-01</internalNodes>
          <leafValues>
            -1.9418466091156006e-01 2.4841327965259552e-01</leafValues></_>
        <_>
          <internalNodes>
            0 -1 626 -1.9414259586483240e-03</internalNodes>
          <leafValues>
            2.7314338088035583e-01 -1.7098204791545868e-01</leafValues></_>
        <_>
          <internalNodes>
            0 -1 403 2.2915415465831757e-02</internalNodes>
          <leafValues>
            -8.4246255457401276e-02 5.7970720529556274e-01</leafValues></_>
        <_>
          <internalNodes>
            0 -1 555 3.2414938323199749e-04</internalNodes>
          <leafValues>
            1.5447120368480682e-01 -2.8160020709037781e-01</leafValues></_>
        <_>
          <internalNodes>
            0 -1 26 -4.1151016950607300e-01</internalNodes>
          <leafValues>
            -7.9401642084121704e-01 4.7343436628580093e-02</leafValues></_>
        <_>
          <internalNodes>
            0 -1 678 1.0624012065818533e-04</internalNodes>
          <leafValues>
            1.7983113229274750e-01 -2.5066143274307251e-01</leafValues></_>
        <_>
          <internalNodes>
            0 -1 710 8.0371163785457611e-03</internalNodes>
          <leafValues>
            -1.0247354209423065e-01 4.8285990953445435e-01</leafValues></_>
        <_>
          <internalNodes>
            0 -1 161 -2.2120211273431778e-02</internalNodes>
          <leafValues>
            -6.3009256124496460e-01 8.1100560724735260e-02</leafValues></_>
        <_>
          <internalNodes>
            0 -1 537 -4.2036008089780807e-03</internalNodes>
          <leafValues>
            3.9775303006172180e-01 -1.2025299668312073e-01</leafValues></_>
        <_>
          <internalNodes>
            0 -1 541 2.5560590438544750e-03</internalNodes>
          <leafValues>
            -1.4043092727661133e-01 3.3245092630386353e-01</leafValues></_>
        <_>
          <internalNodes>
            0 -1 151 5.0433769822120667e-02</internalNodes>
          <leafValues>
            -5.5785372853279114e-02 7.2748732566833496e-01</leafValues></_>
        <_>
          <internalNodes>
            0 -1 581 -5.6279045529663563e-03</internalNodes>
          <leafValues>
            2.4659462273120880e-01 -1.7129512131214142e-01</leafValues></_>
        <_>
          <internalNodes>
            0 -1 628 5.2410026546567678e-04</internalNodes>
          <leafValues>
            1.5747743844985962e-01 -2.9556280374526978e-01</leafValues></_>
        <_>
          <internalNodes>
            0 -1 408 3.3087865449488163e-03</internalNodes>
          <leafValues>
            -1.1142048984766006e-01 4.2482319474220276e-01</leafValues></_>
        <_>
          <internalNodes>
            0 -1 409 -2.6706387288868427e-03</internalNodes>
          <leafValues>
            3.3087202906608582e-01 -1.3267099857330322e-01</leafValues></_></weakClassifiers></_>
    <!-- stage 2 -->
    <_>
      <maxWeakCount>65</maxWeakCount>
      <stageThreshold>-7.2529309988021851e-01</stageThreshold>
      <weakClassifiers>
        <_>
          <internalNodes>
            0 -1 289 -2.3112313821911812e-02</internalNodes>
          <leafValues>
            5.1977401971817017e-01 -2.1771217882633209e-01</leafValues></_>
        <_>
          <internalNodes>
            0 -1 466 -8.5110049694776535e-03</internalNodes>
          <leafValues>
            5.1480543613433838e-01 -1.5154801309108734e-01</leafValues></_>
        <_>
          <internalNodes>
            0 -1 602 -7.7778305858373642e-03</internalNodes>
          <leafValues>
            -4.7735923528671265e-01 1.4422698318958282e-01</leafValues></_>
        <_>
          <internalNodes>
            0 -1 269 -4.5755626633763313e-03</internalNodes>
          <leafValues>
            4.6031233668327332e-01 -1.2239100039005280e-01</leafValues></_>
        <_>
          <internalNodes>
            0 -1 112 3.8762406911700964e-03</internalNodes>
          <leafValues>
            -1.8229937553405762e-01 2.7129632234573364e-01</leafValues></_>
        <_>
          <internalNodes>
            0 -1 121 3.0087649822235107e-02</internalNodes>
          <leafValues>
            -1.1641394346952438e-01 6.2695413827896118e-01</leafValues></_>
        <_>
          <internalNodes>
            0 -1 337 1.0230512270936742e-04</internalNodes>
          <leafValues>
            1.9321501255035400e-01 -3.0448037385940552e-01</leafValues></_>
        <_>
          <internalNodes>
            0 -1 337 -7.6636162702925503e-05</internalNodes>
          <leafValues>
            -3.9114579558372498e-01 1.2514995038509369e-01</leafValues></_>
        <_>
          <internalNodes>
            0 -1 322 6.7611234262585640e-03</internalNodes>
          <leafValues>
            -9.1979168355464935e-02 4.8483753204345703e-01</leafValues></_>
        <_>
          <internalNodes>
            0 -1 486 1.7624222673475742e-03</internalNodes>
          <leafValues>
            -6.3935928046703339e-02 6.9109767675399780e-01</leafValues></_>
        <_>
          <internalNodes>
            0 -1 49 -7.7211144380271435e-03</internalNodes>
          <leafValues>
            3.3549910783767700e-01 -1.1741968989372253e-01</leafValues></_>
        <_>
          <internalNodes>
            0 -1 495 -2.9755614697933197e-02</internalNodes>
          <leafValues>
            5.2042734622955322e-01 -7.2866857051849365e-02</leafValues></_>
        <_>
          <internalNodes>
            0 -1 575 -4.3474219273775816e-04</internalNodes>
          <leafValues>
            -4.5703411102294922e-01 7.7408038079738617e-02</leafValues></_>
        <_>
          <internalNodes>
            0 -1 177 3.6365699768066406e-01</internalNodes>
          <leafValues>
            5.3431924432516098e-02 -7.1967005729675293e-01</leafValues></_>
        <_>
          <internalNodes>
            0 -1 260 2.9334104619920254e-03</internalNodes>
          <leafValues>
            -1.3631191849708557e-01 3.2597136497497559e-01</leafValues></_>
        <_>
          <internalNodes>
            0 -1 232 9.9850177764892578e-02</internalNodes>
          <leafValues>
            -7.3740571737289429e-02 5.3158789873123169e-01</leafValues></_>
        <_>
          <internalNodes>
            0 -1 694 3.3076009713113308e-03</internalNodes>
          <leafValues>
            -9.1764047741889954e-02 4.2632433772087097e-01</leafValues></_>
        <_>
          <internalNodes>
            0 -1 479 -1.5516261337324977e-03</internalNodes>
          <leafValues>
            2.7236250042915344e-01 -1.5298876166343689e-01</leafValues></_>
        <_>
          <internalNodes>
            0 -1 102 -1.8405472859740257e-02</internalNodes>
          <leafValues>
            -5.8374238014221191e-01 6.8258330225944519e-02</leafValues></_>
        <_>
          <internalNodes>
            0 -1 543 -7.7741709537804127e-04</internalNodes>
          <leafValues>
            4.1883051395416260e-01 -9.6763551235198975e-02</leafValues></_>
        <_>
          <internalNodes>
            0 -1 462 -3.7528201937675476e-04</internalNodes>
          <leafValues>
            -2.8545394539833069e-01 1.1756290495395660e-01</leafValues></_>
        <_>
          <internalNodes>
            0 -1 724 -1.0407922789454460e-02</internalNodes>
          <leafValues>
            4.9542048573493958e-01 -6.8939588963985443e-02</leafValues></_>
        <_>
          <internalNodes>
            0 -1 234 -8.8028237223625183e-03</internalNodes>
          <leafValues>
            7.1039497852325439e-01 -4.1840795427560806e-02</leafValues></_>
        <_>
          <internalNodes>
            0 -1 235 -1.4819648861885071e-01</internalNodes>
          <leafValues>
            5.0904232263565063e-01 -5.7737909257411957e-02</leafValues></_>
        <_>
          <internalNodes>
            0 -1 145 1.2618716061115265e-01</internalNodes>
          <leafValues>
            -9.8460860550403595e-02 3.6379405856132507e-01</leafValues></_>
        <_>
          <internalNodes>
            0 -1 426 -6.5802247263491154e-04</internalNodes>
          <leafValues>
            -3.9127141237258911e-02 8.1552451848983765e-01</leafValues></_>
        <_>
          <internalNodes>
            0 -1 432 -1.5800194814801216e-03</internalNodes>
          <leafValues>
            3.7712061405181885e-01 -8.2107588648796082e-02</leafValues></_>
        <_>
          <internalNodes>
            0 -1 107 7.0016570389270782e-03</internalNodes>
          <leafValues>
            -7.3711827397346497e-02 4.3751418590545654e-01</leafValues></_>
        <_>
          <internalNodes>
            0 -1 379 -2.7325195260345936e-03</internalNodes>
          <leafValues>
            -3.6373265087604523e-02 7.9715007543563843e-01</leafValues></_>
        <_>
          <internalNodes>
            0 -1 508 -1.2388470582664013e-02</internalNodes>
          <leafValues>
            7.8702199459075928e-01 -3.2542198896408081e-02</leafValues></_>
        <_>
          <internalNodes>
            0 -1 659 7.5093084014952183e-03</internalNodes>
          <leafValues>
            -7.7419757843017578e-02 3.8862001895904541e-01</leafValues></_>
        <_>
          <internalNodes>
            0 -1 317 -2.1708901971578598e-02</internalNodes>
          <leafValues>
            3.3872264623641968e-01 -9.9663443863391876e-02</leafValues></_>
        <_>
          <internalNodes>
            0 -1 327 -1.0318644344806671e-03</internalNodes>
          <leafValues>
            2.3076161742210388e-01 -1.4674636721611023e-01</leafValues></_>
        <_>
          <internalNodes>
            0 -1 546 1.9919201731681824e-03</internalNodes>
          <leafValues>
            -4.0671229362487793e-02 7.2335737943649292e-01</leafValues></_>
        <_>
          <internalNodes>
            0 -1 89 -5.1424079574644566e-03</internalNodes>
          <leafValues>
            6.1939328908920288e-01 -4.3518219143152237e-02</leafValues></_>
        <_>
          <internalNodes>
            0 -1 314 -3.8069903850555420e-02</internalNodes>
          <leafValues>
            -8.1420975923538208e-01 4.6014536172151566e-02</leafValues></_>
        <_>
          <internalNodes>
            0 -1 316 -2.0598169416189194e-02</internalNodes>
          <leafValues>
            7.3046398162841797e-01 -5.1964633166790009e-02</leafValues></_>
        <_>
          <internalNodes>
            0 -1 449 -8.7817618623375893e-04</internalNodes>
          <leafValues>
            4.1578334569931030e-01 -7.0920452475547791e-02</leafValues></_>
        <_>
          <internalNodes>
            0 -1 583 1.6741775907576084e-03</internalNodes>
          <leafValues>
            -7.7358253300189972e-02 4.0178105235099792e-01</leafValues></_>
        <_>
          <internalNodes>
            0 -1 282 -2.7225736994296312e-04</internalNodes>
          <leafValues>
            -3.9274591207504272e-01 1.0104826092720032e-01</leafValues></_>
        <_>
          <internalNodes>
            0 -1 661 -5.2931540267309174e-05</internalNodes>
          <leafValues>
            -2.1239061653614044e-01 1.3563248515129089e-01</leafValues></_>
        <_>
          <internalNodes>
            0 -1 214 1.7375362222082913e-04</internalNodes>
          <leafValues>
            1.1434109508991241e-01 -2.5809991359710693e-01</leafValues></_>
        <_>
          <internalNodes>
            0 -1 682 6.0252910770941526e-05</internalNodes>
          <leafValues>
            1.3860611617565155e-01 -2.1346259117126465e-01</leafValues></_>
        <_>
          <internalNodes>
            0 -1 513 2.4929210543632507e-02</internalNodes>
          <leafValues>
            -1.5743058919906616e-01 1.8850111961364746e-01</leafValues></_>
        <_>
          <internalNodes>
            0 -1 477 -2.8090612031519413e-03</internalNodes>
          <leafValues>
            3.4818443655967712e-01 -1.0673595219850540e-01</leafValues></_>
        <_>
          <internalNodes>
            0 -1 383 -1.3073885347694159e-03</internalNodes>
          <leafValues>
            3.4095057845115662e-01 -1.0172952711582184e-01</leafValues></_>
        <_>
          <internalNodes>
            0 -1 750 1.9636933575384319e-04</internalNodes>
          <leafValues>
            1.1609545350074768e-01 -2.8947177529335022e-01</leafValues></_>
        <_>
          <internalNodes>
            0 -1 542 -2.5211435277014971e-03</internalNodes>
          <leafValues>
            4.6354016661643982e-01 -7.0174247026443481e-02</leafValues></_>
        <_>
          <internalNodes>
            0 -1 500 -6.0676991939544678e-02</internalNodes>
          <leafValues>
            -1.9485215842723846e-01 1.6028581559658051e-01</leafValues></_>
        <_>
          <internalNodes>
            0 -1 363 3.1857174634933472e-01</internalNodes>
          <leafValues>
            7.3063850402832031e-02 -4.3518140912055969e-01</leafValues></_>
        <_>
          <internalNodes>
            0 -1 52 -4.1930764913558960e-01</internalNodes>
          <leafValues>
            -7.9994690418243408e-01 3.8066715002059937e-02</leafValues></_>
        <_>
          <internalNodes>
            0 -1 563 2.3039209842681885e-01</internalNodes>
          <leafValues>
            2.5343667715787888e-02 -9.3909215927124023e-01</leafValues></_>
        <_>
          <internalNodes>
            0 -1 680 -5.6866665545385331e-05</internalNodes>
          <leafValues>
            -2.1967798471450806e-01 1.2362433969974518e-01</leafValues></_>
        <_>
          <internalNodes>
            0 -1 272 7.8157987445592880e-03</internalNodes>
          <leafValues>
            -6.8971469998359680e-02 4.1568368673324585e-01</leafValues></_>
        <_>
          <internalNodes>
            0 -1 717 5.1291147246956825e-03</internalNodes>
          <leafValues>
            -1.2554949522018433e-01 2.1133178472518921e-01</leafValues></_>
        <_>
          <internalNodes>
            0 -1 190 -3.7114065140485764e-02</internalNodes>
          <leafValues>
            3.5548055171966553e-01 -8.6536742746829987e-02</leafValues></_>
        <_>
          <internalNodes>
            0 -1 369 -1.8870458006858826e-03</internalNodes>
          <leafValues>
            3.0086553096771240e-01 -1.1863224953413010e-01</leafValues></_>
        <_>
          <internalNodes>
            0 -1 125 -5.4612553119659424e-01</internalNodes>
          <leafValues>
            -6.0259652137756348e-01 5.5584702640771866e-02</leafValues></_>
        <_>
          <internalNodes>
            0 -1 620 5.3260783897712827e-04</internalNodes>
          <leafValues>
            7.5706802308559418e-02 -4.1436380147933960e-01</leafValues></_>
        <_>
          <internalNodes>
            0 -1 431 -4.3673120671883225e-05</internalNodes>
          <leafValues>
            -2.0879144966602325e-01 1.4649063348770142e-01</leafValues></_>
        <_>
          <internalNodes>
            0 -1 526 -7.2678376454859972e-04</internalNodes>
          <leafValues>
            -4.3787963688373566e-02 7.5025916099548340e-01</leafValues></_>
        <_>
          <internalNodes>
            0 -1 156 2.7441416023066267e-05</internalNodes>
          <leafValues>
            1.5296235680580139e-01 -1.8489138782024384e-01</leafValues></_>
        <_>
          <internalNodes>
            0 -1 275 3.7249154411256313e-03</internalNodes>
          <leafValues>
            -5.6424871087074280e-02 5.8041298389434814e-01</leafValues></_>
        <_>
          <internalNodes>
            0 -1 550 1.9736682996153831e-02</internalNodes>
          <leafValues>
            -7.4090689420700073e-02 3.6957129836082458e-01</leafValues></_>
        <_>
          <internalNodes>
            0 -1 362 4.0070879459381104e-01</internalNodes>
          <leafValues>
            4.9341529607772827e-02 -7.2323900461196899e-01</leafValues></_></weakClassifiers></_>
    <!-- stage 3 -->
    <_>
      <maxWeakCount>77</maxWeakCount>
      <stageThreshold>-6.2608093023300171e-01</stageThreshold>
      <weakClassifiers>
        <_>
          <internalNodes>
            0 -1 341 -7.6540056616067886e-03</internalNodes>
          <leafValues>
            6.0243409872055054e-01 -6.2087185680866241e-02</leafValues></_>
        <_>
          <internalNodes>
            0 -1 723 9.0466775000095367e-03</internalNodes>
          <leafValues>
            -1.3920879364013672e-01 4.7368797659873962e-01</leafValues></_>
        <_>
          <internalNodes>
            0 -1 374 2.3876268416643143e-02</internalNodes>
          <leafValues>
            -1.6330644488334656e-01 3.5765206813812256e-01</leafValues></_>
        <_>
          <internalNodes>
            0 -1 48 -4.8118457198143005e-03</internalNodes>
          <leafValues>
            3.5703545808792114e-01 -1.6226869821548462e-01</leafValues></_>
        <_>
          <internalNodes>
            0 -1 636 -9.7311451099812984e-04</internalNodes>
          <leafValues>
            -4.3603485822677612e-01 1.2204059958457947e-01</leafValues></_>
        <_>
          <internalNodes>
            0 -1 499 -1.5002115629613400e-02</internalNodes>
          <leafValues>
            8.8703446090221405e-02 -6.6549867391586304e-01</leafValues></_>
        <_>
          <internalNodes>
            0 -1 653 2.4723337264731526e-04</internalNodes>
          <leafValues>
            9.8754703998565674e-02 -4.2872136831283569e-01</leafValues></_>
        <_>
          <internalNodes>
            0 -1 174 6.8905609659850597e-03</internalNodes>
          <leafValues>
            1.0965282469987869e-01 -4.2530900239944458e-01</leafValues></_>
        <_>
          <internalNodes>
            0 -1 287 -6.7333970218896866e-04</internalNodes>
          <leafValues>
            -2.9694953560829163e-01 1.6754138469696045e-01</leafValues></_>
        <_>
          <internalNodes>
            0 -1 352 3.5267353057861328e-02</internalNodes>
          <leafValues>
            -1.1476892232894897e-01 3.8119402527809143e-01</leafValues></_>
        <_>
          <internalNodes>
            0 -1 248 -1.6504449769854546e-02</internalNodes>
          <leafValues>
            2.8310841321945190e-01 -1.7168350517749786e-01</leafValues></_>
        <_>
          <internalNodes>
            0 -1 389 1.1913213529624045e-04</internalNodes>
          <leafValues>
            1.1863891035318375e-01 -3.1872585415840149e-01</leafValues></_>
        <_>
          <internalNodes>
            0 -1 589 4.7484664246439934e-03</internalNodes>
          <leafValues>
            -7.7909328043460846e-02 5.3898894786834717e-01</leafValues></_>
        <_>
          <internalNodes>
            0 -1 515 -6.1244529206305742e-04</internalNodes>
          <leafValues>
            3.9884677529335022e-01 -8.3714842796325684e-02</leafValues></_>
        <_>
          <internalNodes>
            0 -1 478 1.2932387180626392e-03</internalNodes>
          <leafValues>
            -8.8685341179370880e-02 3.8359373807907104e-01</leafValues></_>
        <_>
          <internalNodes>
            0 -1 498 4.9999591283267364e-05</internalNodes>
          <leafValues>
            1.4841811358928680e-01 -2.3862756788730621e-01</leafValues></_>
        <_>
          <internalNodes>
            0 -1 208 -2.9945763945579529e-01</internalNodes>
          <leafValues>
            -3.0154696106910706e-01 1.0102796554565430e-01</leafValues></_>
        <_>
          <internalNodes>
            0 -1 556 -4.4956244528293610e-02</internalNodes>
          <leafValues>
            4.2617671191692352e-02 -8.4304261207580566e-01</leafValues></_>
        <_>
          <internalNodes>
            0 -1 588 -1.1185915023088455e-01</internalNodes>
          <leafValues>
            7.6718461513519287e-01 -4.4869940727949142e-02</leafValues></_>
        <_>
          <internalNodes>
            0 -1 454 2.8134044259786606e-03</internalNodes>
          <leafValues>
            -4.8475403338670731e-02 5.9844934940338135e-01</leafValues></_>
        <_>
          <internalNodes>
            0 -1 87 5.5348813475575298e-05</internalNodes>
          <leafValues>
            1.4708368480205536e-01 -2.1298260986804962e-01</leafValues></_>
        <_>
          <internalNodes>
            0 -1 449 1.0701315477490425e-03</internalNodes>
          <leafValues>
            -8.4600068628787994e-02 4.7757774591445923e-01</leafValues></_>
        <_>
          <internalNodes>
            0 -1 429 -1.2857771478593349e-02</internalNodes>
          <leafValues>
            2.9063639044761658e-01 -9.5731109380722046e-02</leafValues></_>
        <_>
          <internalNodes>
            0 -1 182 4.8976829275488853e-03</internalNodes>
          <leafValues>
            -1.1397241055965424e-01 3.6922907829284668e-01</leafValues></_>
        <_>
          <internalNodes>
            0 -1 530 7.0410571061074734e-04</internalNodes>
          <leafValues>
            1.5891444683074951e-01 -2.2275094687938690e-01</leafValues></_>
        <_>
          <internalNodes>
            0 -1 635 2.0363461226224899e-03</internalNodes>
          <leafValues>
            -9.1197445988655090e-02 3.1297364830970764e-01</leafValues></_>
        <_>
          <internalNodes>
            0 -1 198 -3.5617877729237080e-03</internalNodes>
          <leafValues>
            3.9575287699699402e-01 -7.5949534773826599e-02</leafValues></_>
        <_>
          <internalNodes>
            0 -1 32 -3.2412516884505749e-03</internalNodes>
          <leafValues>
            2.2040531039237976e-01 -1.4251591265201569e-01</leafValues></_>
        <_>
          <internalNodes>
            0 -1 5 -4.6897284686565399e-02</internalNodes>
          <leafValues>
            -8.6947798728942871e-01 3.5040985792875290e-02</leafValues></_>
        <_>
          <internalNodes>
            0 -1 319 -1.0047536343336105e-02</internalNodes>
          <leafValues>
            7.1337270736694336e-01 -4.9994397908449173e-02</leafValues></_>
        <_>
          <internalNodes>
            0 -1 407 2.9848860576748848e-03</internalNodes>
          <leafValues>
            -7.9522550106048584e-02 3.4583246707916260e-01</leafValues></_>
        <_>
          <internalNodes>
            0 -1 95 4.0696850046515465e-03</internalNodes>
          <leafValues>
            -5.9188343584537506e-02 4.3559864163398743e-01</leafValues></_>
        <_>
          <internalNodes>
            0 -1 416 -4.2029516771435738e-03</internalNodes>
          <leafValues>
            4.6989893913269043e-01 -5.5554375052452087e-02</leafValues></_>
        <_>
          <internalNodes>
            0 -1 40 -3.0649191467091441e-04</internalNodes>
          <leafValues>
            -2.2545562684535980e-01 1.2857449054718018e-01</leafValues></_>
        <_>
          <internalNodes>
            0 -1 4 1.7509183089714497e-04</internalNodes>
          <leafValues>
            1.4807586371898651e-01 -2.2432264685630798e-01</leafValues></_>
        <_>
          <internalNodes>
            0 -1 694 5.0306087359786034e-03</internalNodes>
          <leafValues>
            -5.5212277919054031e-02 4.9661126732826233e-01</leafValues></_>
        <_>
          <internalNodes>
            0 -1 697 4.8891066398937255e-05</internalNodes>
          <leafValues>
            1.4100489020347595e-01 -2.0085120201110840e-01</leafValues></_>
        <_>
          <internalNodes>
            0 -1 523 4.2921835556626320e-03</internalNodes>
          <leafValues>
            -6.0782238841056824e-02 5.4952371120452881e-01</leafValues></_>
        <_>
          <internalNodes>
            0 -1 498 -3.6674676812253892e-04</internalNodes>
          <leafValues>
            -3.3478674292564392e-01 9.6760816872119904e-02</leafValues></_>
        <_>
          <internalNodes>
            0 -1 326 2.4148054420948029e-02</internalNodes>
          <leafValues>
            -7.5480252504348755e-02 4.6477413177490234e-01</leafValues></_>
        <_>
          <internalNodes>
            0 -1 404 -2.4934520479291677e-03</internalNodes>
          <leafValues>
            3.0943465232849121e-01 -9.6841618418693542e-02</leafValues></_>
        <_>
          <internalNodes>
            0 -1 713 1.2223659723531455e-04</internalNodes>
          <leafValues>
            1.2766654789447784e-01 -2.4426898360252380e-01</leafValues></_>
        <_>
          <internalNodes>
            0 -1 406 4.7599445097148418e-03</internalNodes>
          <leafValues>
            -7.5756482779979706e-02 4.5889082551002502e-01</leafValues></_>
        <_>
          <internalNodes>
            0 -1 509 2.9265510383993387e-03</internalNodes>
          <leafValues>
            -1.4503371715545654e-01 2.1005989611148834e-01</leafValues></_>
        <_>
          <internalNodes>
            0 -1 465 -1.4764916151762009e-02</internalNodes>
          <leafValues>
            5.7854038476943970e-01 -4.1086573153734207e-02</leafValues></_>
        <_>
          <internalNodes>
            0 -1 159 1.5209168195724487e-02</internalNodes>
          <leafValues>
            -7.2013057768344879e-02 3.7308940291404724e-01</leafValues></_>
        <_>
          <internalNodes>
            0 -1 279 -5.6344410404562950e-03</internalNodes>
          <leafValues>
            3.8338047266006470e-01 -7.5372472405433655e-02</leafValues></_>
        <_>
          <internalNodes>
            0 -1 300 -3.3716212958097458e-02</internalNodes>
          <leafValues>
            2.2715872526168823e-01 -1.4622440934181213e-01</leafValues></_>
        <_>
          <internalNodes>
            0 -1 59 -3.2429677248001099e-01</internalNodes>
          <leafValues>
            -6.1025512218475342e-01 4.6822018921375275e-02</leafValues></_>
        <_>
          <internalNodes>
            0 -1 619 -2.2216711658984423e-04</internalNodes>
          <leafValues>
            -2.3377811908721924e-01 1.2335271388292313e-01</leafValues></_>
        <_>
          <internalNodes>
            0 -1 568 3.5277404822409153e-03</internalNodes>
          <leafValues>
            -8.1764854490756989e-02 3.7974271178245544e-01</leafValues></_>
        <_>
          <internalNodes>
            0 -1 328 -8.4050565958023071e-02</internalNodes>
          <leafValues>
            4.7521088272333145e-02 -6.2035596370697021e-01</leafValues></_>
        <_>
          <internalNodes>
            0 -1 517 -4.4808741658926010e-03</internalNodes>
          <leafValues>
            -1.2018247693777084e-01 2.4435712397098541e-01</leafValues></_>
        <_>
          <internalNodes>
            0 -1 315 2.9266658239066601e-03</internalNodes>
          <leafValues>
            -1.1447980999946594e-01 2.4219238758087158e-01</leafValues></_>
        <_>
          <internalNodes>
            0 -1 621 7.9939712304621935e-04</internalNodes>
          <leafValues>
            5.4770868271589279e-02 -5.2988088130950928e-01</leafValues></_>
        <_>
          <internalNodes>
            0 -1 2 -1.0958102939184755e-04</internalNodes>
          <leafValues>
            -1.8022961914539337e-01 1.5203404426574707e-01</leafValues></_>
        <_>
          <internalNodes>
            0 -1 516 2.7805971913039684e-03</internalNodes>
          <leafValues>
            -5.7632111012935638e-02 4.7384724020957947e-01</leafValues></_>
        <_>
          <internalNodes>
            0 -1 501 -5.2052140235900879e-03</internalNodes>
          <leafValues>
            -4.2704594135284424e-01 6.7593574523925781e-02</leafValues></_>
        <_>
          <internalNodes>
            0 -1 555 3.2447226112708449e-04</internalNodes>
          <leafValues>
            1.0815302282571793e-01 -2.4679218232631683e-01</leafValues></_>
        <_>
          <internalNodes>
            0 -1 216 -5.2185417152941227e-03</internalNodes>
          <leafValues>
            5.7026845216751099e-01 -5.0923243165016174e-02</leafValues></_>
        <_>
          <internalNodes>
            0 -1 146 -2.3370403796434402e-03</internalNodes>
          <leafValues>
            1.9422245025634766e-01 -1.4588122069835663e-01</leafValues></_>
        <_>
          <internalNodes>
            0 -1 78 -1.3693691289518028e-04</internalNodes>
          <leafValues>
            -2.1008393168449402e-01 1.7846596240997314e-01</leafValues></_>
        <_>
          <internalNodes>
            0 -1 733 8.0471467226743698e-03</internalNodes>
          <leafValues>
            -4.5794647186994553e-02 6.9563072919845581e-01</leafValues></_>
        <_>
          <internalNodes>
            0 -1 428 2.5266449665650725e-04</internalNodes>
          <leafValues>
            1.1931581050157547e-01 -2.8663620352745056e-01</leafValues></_>
        <_>
          <internalNodes>
            0 -1 565 1.9862013868987560e-03</internalNodes>
          <leafValues>
            -8.0638371407985687e-02 3.4944257140159607e-01</leafValues></_>
        <_>
          <internalNodes>
            0 -1 618 6.3702771440148354e-03</internalNodes>
          <leafValues>
            -2.7923949062824249e-02 8.4934270381927490e-01</leafValues></_>
        <_>
          <internalNodes>
            0 -1 569 -1.1657505529001355e-03</internalNodes>
          <leafValues>
            4.9466598033905029e-01 -4.6112984418869019e-02</leafValues></_>
        <_>
          <internalNodes>
            0 -1 461 -2.6634271489456296e-04</internalNodes>
          <leafValues>
            -3.3632615208625793e-01 8.6068078875541687e-02</leafValues></_>
        <_>
          <internalNodes>
            0 -1 255 -3.9112307131290436e-03</internalNodes>
          <leafValues>
            -5.4182386398315430e-01 4.4572673738002777e-02</leafValues></_>
        <_>
          <internalNodes>
            0 -1 668 -5.5199200287461281e-03</internalNodes>
          <leafValues>
            4.0737897157669067e-01 -6.7552298307418823e-02</leafValues></_>
        <_>
          <internalNodes>
            0 -1 123 2.2927126288414001e-01</internalNodes>
          <leafValues>
            3.5657450556755066e-02 -8.0771744251251221e-01</leafValues></_>
        <_>
          <internalNodes>
            0 -1 755 1.4482875121757388e-04</internalNodes>
          <leafValues>
            1.0525259375572205e-01 -2.3806200921535492e-01</leafValues></_>
        <_>
          <internalNodes>
            0 -1 753 -3.3748301211744547e-04</internalNodes>
          <leafValues>
            -2.8271755576133728e-01 8.9547559618949890e-02</leafValues></_>
        <_>
          <internalNodes>
            0 -1 687 -1.1237168684601784e-02</internalNodes>
          <leafValues>
            2.8116015717387199e-02 -7.5780683755874634e-01</leafValues></_>
        <_>
          <internalNodes>
            0 -1 188 -9.1550424695014954e-03</internalNodes>
          <leafValues>
            5.3382325172424316e-01 -4.8743277788162231e-02</leafValues></_>
        <_>
          <internalNodes>
            0 -1 282 -7.7239144593477249e-04</internalNodes>
          <leafValues>
            -5.5377793312072754e-01 5.1617253571748734e-02</leafValues></_>
        <_>
          <internalNodes>
            0 -1 728 4.6869544312357903e-03</internalNodes>
          <leafValues>
            -1.2792380154132843e-01 2.2903361916542053e-01</leafValues></_></weakClassifiers></_>
    <!-- stage 4 -->
    <_>
      <maxWeakCount>89</maxWeakCount>
      <stageThreshold>-5.1096606254577637e-01</stageThreshold>
      <weakClassifiers>
        <_>
          <internalNodes>
            0 -1 510 2.7841888368129730e-02</internalNodes>
          <leafValues>
            -1.1127596348524094e-01 5.6423610448837280e-01</leafValues></_>
        <_>
          <internalNodes>
            0 -1 118 -1.2223590165376663e-02</internalNodes>
          <leafValues>
            6.2176239490509033e-01 -9.2468991875648499e-02</leafValues></_>
        <_>
          <internalNodes>
            0 -1 395 1.0160644305869937e-03</internalNodes>
          <leafValues>
            1.3303354382514954e-01 -3.6060774326324463e-01</leafValues></_>
        <_>
          <internalNodes>
            0 -1 175 -6.7953523248434067e-03</internalNodes>
          <leafValues>
            -4.2857757210731506e-01 6.5646782517433167e-02</leafValues></_>
        <_>
          <internalNodes>
            0 -1 125 5.4825818538665771e-01</internalNodes>
          <leafValues>
            5.4220929741859436e-02 -7.7804690599441528e-01</leafValues></_>
        <_>
          <internalNodes>
            0 -1 43 -1.3775369152426720e-02</internalNodes>
          <leafValues>
            3.9220252633094788e-01 -1.0120016336441040e-01</leafValues></_>
        <_>
          <internalNodes>
            0 -1 553 -2.7444245642982423e-04</internalNodes>
          <leafValues>
            -3.4608829021453857e-01 1.0007100552320480e-01</leafValues></_>
        <_>
          <internalNodes>
            0 -1 143 1.4530165120959282e-02</internalNodes>
          <leafValues>
            -5.8474343270063400e-02 4.8733201622962952e-01</leafValues></_>
        <_>
          <internalNodes>
            0 -1 88 -8.9184409007430077e-03</internalNodes>
          <leafValues>
            -5.5692315101623535e-01 3.9797518402338028e-02</leafValues></_>
        <_>
          <internalNodes>
            0 -1 176 7.8963145613670349e-02</internalNodes>
          <leafValues>
            4.0199756622314453e-02 -6.5566396713256836e-01</leafValues></_>
        <_>
          <internalNodes>
            0 -1 340 -3.9354002475738525e-01</internalNodes>
          <leafValues>
            -7.1281731128692627e-01 3.3409398049116135e-02</leafValues></_>
        <_>
          <internalNodes>
            0 -1 599 -1.3844103086739779e-03</internalNodes>
          <leafValues>
            -3.7667688727378845e-01 6.0900934040546417e-02</leafValues></_>
        <_>
          <internalNodes>
            0 -1 413 -9.6315023256465793e-04</internalNodes>
          <leafValues>
            4.2690864205360413e-01 -5.5393218994140625e-02</leafValues></_>
        <_>
          <internalNodes>
            0 -1 77 -1.4128311886452138e-04</internalNodes>
          <leafValues>
            -2.4511404335498810e-01 1.0117298364639282e-01</leafValues></_>
        <_>
          <internalNodes>
            0 -1 77 1.2738080113194883e-04</internalNodes>
          <leafValues>
            1.3402117788791656e-01 -2.5551831722259521e-01</leafValues></_>
        <_>
          <internalNodes>
            0 -1 614 -7.5180986896157265e-03</internalNodes>
          <leafValues>
            1.9172640144824982e-01 -1.4169500768184662e-01</leafValues></_>
        <_>
          <internalNodes>
            0 -1 623 -8.2722306251525879e-03</internalNodes>
          <leafValues>
            2.8279238939285278e-01 -8.4224425256252289e-02</leafValues></_>
        <_>
          <internalNodes>
            0 -1 534 1.2506080791354179e-02</internalNodes>
          <leafValues>
            -8.6429283022880554e-02 3.8276666402816772e-01</leafValues></_>
        <_>
          <internalNodes>
            0 -1 593 -5.8515686541795731e-03</internalNodes>
          <leafValues>
            5.6724691390991211e-01 -3.4750740975141525e-02</leafValues></_>
        <_>
          <internalNodes>
            0 -1 150 6.2115512788295746e-02</internalNodes>
          <leafValues>
            -4.5798353850841522e-02 4.8278149962425232e-01</leafValues></_>
        <_>
          <internalNodes>
            0 -1 442 -1.1381434742361307e-03</internalNodes>
          <leafValues>
            2.6509782671928406e-01 -7.8388437628746033e-02</leafValues></_>
        <_>
          <internalNodes>
            0 -1 85 -8.4924623370170593e-03</internalNodes>
          <leafValues>
            2.8342738747596741e-01 -7.8582048416137695e-02</leafValues></_>
        <_>
          <internalNodes>
            0 -1 584 -7.2926260530948639e-02</internalNodes>
          <leafValues>
            5.6405514478683472e-01 -4.2683850973844528e-02</leafValues></_>
        <_>
          <internalNodes>
            0 -1 337 -9.7177911084145308e-04</internalNodes>
          <leafValues>
            -5.7131648063659668e-01 4.0156770497560501e-02</leafValues></_>
        <_>
          <internalNodes>
            0 -1 290 5.3988634608685970e-03</internalNodes>
          <leafValues>
            -7.6422721147537231e-02 3.3520919084548950e-01</leafValues></_>
        <_>
          <internalNodes>
            0 -1 184 -7.9866629093885422e-03</internalNodes>
          <leafValues>
            1.8985375761985779e-01 -1.1523079127073288e-01</leafValues></_>
        <_>
          <internalNodes>
            0 -1 67 -1.4479793608188629e-02</internalNodes>
          <leafValues>
            6.0490548610687256e-01 -3.6891754716634750e-02</leafValues></_>
        <_>
          <internalNodes>
            0 -1 736 -1.0653145000105724e-04</internalNodes>
          <leafValues>
            -2.2126059234142303e-01 1.1395370960235596e-01</leafValues></_>
        <_>
          <internalNodes>
            0 -1 585 -1.6595118213444948e-03</internalNodes>
          <leafValues>
            1.8773007392883301e-01 -1.3182893395423889e-01</leafValues></_>
        <_>
          <internalNodes>
            0 -1 736 3.4874008269980550e-04</internalNodes>
          <leafValues>
            8.0489233136177063e-02 -3.2974058389663696e-01</leafValues></_>
        <_>
          <internalNodes>
            0 -1 567 -9.3492236919701099e-04</internalNodes>
          <leafValues>
            3.4625455737113953e-01 -6.8470187485218048e-02</leafValues></_>
        <_>
          <internalNodes>
            0 -1 227 -2.9781948775053024e-02</internalNodes>
          <leafValues>
            6.8825060129165649e-01 -2.9436346143484116e-02</leafValues></_>
        <_>
          <internalNodes>
            0 -1 364 -2.3803520202636719e-01</internalNodes>
          <leafValues>
            -6.2665827572345734e-02 3.7522262334823608e-01</leafValues></_>
        <_>
          <internalNodes>
            0 -1 110 7.3282243683934212e-03</internalNodes>
          <leafValues>
            -8.5708416998386383e-02 2.5099062919616699e-01</leafValues></_>
        <_>
          <internalNodes>
            0 -1 31 -1.7763935029506683e-02</internalNodes>
          <leafValues>
            -5.7908141613006592e-01 4.2082894593477249e-02</leafValues></_>
        <_>
          <internalNodes>
            0 -1 522 -1.1957417009398341e-03</internalNodes>
          <leafValues>
            4.2666861414909363e-01 -5.7616148144006729e-02</leafValues></_>
        <_>
          <internalNodes>
            0 -1 218 -3.6486722528934479e-02</internalNodes>
          <leafValues>
            -5.4514789581298828e-01 4.7228775918483734e-02</leafValues></_>
        <_>
          <internalNodes>
            0 -1 285 -2.9502562247216702e-03</internalNodes>
          <leafValues>
            4.6913474798202515e-02 -4.4794040918350220e-01</leafValues></_>
        <_>
          <internalNodes>
            0 -1 679 2.8495863080024719e-04</internalNodes>
          <leafValues>
            1.0200423747301102e-01 -2.2093400359153748e-01</leafValues></_>
        <_>
          <internalNodes>
            0 -1 522 9.6984219271689653e-04</internalNodes>
          <leafValues>
            -6.3363686203956604e-02 3.4437012672424316e-01</leafValues></_>
        <_>
          <internalNodes>
            0 -1 14 2.9158908873796463e-03</internalNodes>
          <leafValues>
            9.1354101896286011e-02 -2.3856922984123230e-01</leafValues></_>
        <_>
          <internalNodes>
            0 -1 64 -2.1109917724970728e-04</internalNodes>
          <leafValues>
            -1.7605549097061157e-01 1.2855646014213562e-01</leafValues></_>
        <_>
          <internalNodes>
            0 -1 700 -1.3689700514078140e-02</internalNodes>
          <leafValues>
            6.9251298904418945e-01 -3.0460976064205170e-02</leafValues></_>
        <_>
          <internalNodes>
            0 -1 720 -1.0712981747929007e-04</internalNodes>
          <leafValues>
            -1.8391960859298706e-01 1.2152058631181717e-01</leafValues></_>
        <_>
          <internalNodes>
            0 -1 42 -2.9911850579082966e-03</internalNodes>
          <leafValues>
            2.1004074811935425e-01 -1.0031910985708237e-01</leafValues></_>
        <_>
          <internalNodes>
            0 -1 302 1.7673145979642868e-02</internalNodes>
          <leafValues>
            -8.5053615272045135e-02 2.6741161942481995e-01</leafValues></_>
        <_>
          <internalNodes>
            0 -1 237 -7.9109854996204376e-03</internalNodes>
          <leafValues>
            4.1956150531768799e-01 -5.4878234863281250e-02</leafValues></_>
        <_>
          <internalNodes>
            0 -1 752 1.3776024570688605e-03</internalNodes>
          <leafValues>
            3.8809083402156830e-02 -6.0606992244720459e-01</leafValues></_>
        <_>
          <internalNodes>
            0 -1 370 -4.3067403021268547e-04</internalNodes>
          <leafValues>
            1.9680340588092804e-01 -1.1225554347038269e-01</leafValues></_>
        <_>
          <internalNodes>
            0 -1 611 -1.7643256578594446e-03</internalNodes>
          <leafValues>
            2.8298696875572205e-01 -7.5067572295665741e-02</leafValues></_>
        <_>
          <internalNodes>
            0 -1 278 -5.7145219761878252e-04</internalNodes>
          <leafValues>
            -2.8144763782620430e-02 7.6879853010177612e-01</leafValues></_>
        <_>
          <internalNodes>
            0 -1 348 -1.5361143741756678e-03</internalNodes>
          <leafValues>
            2.6536026597023010e-01 -8.3484083414077759e-02</leafValues></_>
        <_>
          <internalNodes>
            0 -1 224 -1.1709470301866531e-02</internalNodes>
          <leafValues>
            1.7363268136978149e-01 -1.3643380999565125e-01</leafValues></_>
        <_>
          <internalNodes>
            0 -1 116 1.2326195836067200e-02</internalNodes>
          <leafValues>
            -7.0670254528522491e-02 3.9401927590370178e-01</leafValues></_>
        <_>
          <internalNodes>
            0 -1 462 1.7920657992362976e-03</internalNodes>
          <leafValues>
            5.9431362897157669e-02 -4.5934468507766724e-01</leafValues></_>
        <_>
          <internalNodes>
            0 -1 719 5.7705086655914783e-03</internalNodes>
          <leafValues>
            -9.5846198499202728e-02 2.6446112990379333e-01</leafValues></_>
        <_>
          <internalNodes>
            0 -1 586 1.4834446832537651e-02</internalNodes>
          <leafValues>
            -1.0459635406732559e-01 2.4212995171546936e-01</leafValues></_>
        <_>
          <internalNodes>
            0 -1 68 4.1113951010629535e-04</internalNodes>
          <leafValues>
            7.9932697117328644e-02 -2.7432164549827576e-01</leafValues></_>
        <_>
          <internalNodes>
            0 -1 644 3.6884678993374109e-03</internalNodes>
          <leafValues>
            -5.9439614415168762e-02 4.1076323390007019e-01</leafValues></_>
        <_>
          <internalNodes>
            0 -1 266 7.9349502921104431e-03</internalNodes>
          <leafValues>
            -7.7986828982830048e-02 2.7007022500038147e-01</leafValues></_>
        <_>
          <internalNodes>
            0 -1 192 -4.5655313879251480e-03</internalNodes>
          <leafValues>
            5.8466440439224243e-01 -3.7759698927402496e-02</leafValues></_>
        <_>
          <internalNodes>
            0 -1 525 2.3390697315335274e-03</internalNodes>
          <leafValues>
            -5.8835860341787338e-02 3.5151377320289612e-01</leafValues></_>
        <_>
          <internalNodes>
            0 -1 439 -1.4303185744211078e-03</internalNodes>
          <leafValues>
            4.5796507596969604e-01 -4.8472937196493149e-02</leafValues></_>
        <_>
          <internalNodes>
            0 -1 84 1.2784730643033981e-04</internalNodes>
          <leafValues>
            1.2354351580142975e-01 -1.7792750895023346e-01</leafValues></_>
        <_>
          <internalNodes>
            0 -1 240 -6.6840603947639465e-02</internalNodes>
          <leafValues>
            -1.7613612115383148e-01 1.3612589240074158e-01</leafValues></_>
        <_>
          <internalNodes>
            0 -1 61 -2.1147584542632103e-02</internalNodes>
          <leafValues>
            3.1049352884292603e-01 -7.6156638562679291e-02</leafValues></_>
        <_>
          <internalNodes>
            0 -1 92 5.9029739350080490e-04</internalNodes>
          <leafValues>
            6.7907959222793579e-02 -3.2250401377677917e-01</leafValues></_>
        <_>
          <internalNodes>
            0 -1 670 -2.5469923857599497e-03</internalNodes>
          <leafValues>
            2.4658244848251343e-01 -8.6787499487400055e-02</leafValues></_>
        <_>
          <internalNodes>
            0 -1 473 -2.1761533617973328e-01</internalNodes>
          <leafValues>
            -7.4244123697280884e-01 2.9741151258349419e-02</leafValues></_>
        <_>
          <internalNodes>
            0 -1 390 -1.2456202239263803e-04</internalNodes>
          <leafValues>
            -2.4803782999515533e-01 8.4810875356197357e-02</leafValues></_>
        <_>
          <internalNodes>
            0 -1 421 -7.6974392868578434e-04</internalNodes>
          <leafValues>
            2.8426510095596313e-01 -7.5040310621261597e-02</leafValues></_>
        <_>
          <internalNodes>
            0 -1 460 -2.8708161786198616e-02</internalNodes>
          <leafValues>
            -6.9129467010498047e-01 3.2303083688020706e-02</leafValues></_>
        <_>
          <internalNodes>
            0 -1 307 -2.2539919242262840e-02</internalNodes>
          <leafValues>
            -7.9359370470046997e-01 2.1675346419215202e-02</leafValues></_>
        <_>
          <internalNodes>
            0 -1 595 -1.8799098208546638e-02</internalNodes>
          <leafValues>
            8.5115420818328857e-01 -2.6464398950338364e-02</leafValues></_>
        <_>
          <internalNodes>
            0 -1 238 -5.3453668951988220e-02</internalNodes>
          <leafValues>
            1.7739669978618622e-01 -1.1128861457109451e-01</leafValues></_>
        <_>
          <internalNodes>
            0 -1 7 2.3626789450645447e-02</internalNodes>
          <leafValues>
            3.1106926500797272e-02 -7.3061072826385498e-01</leafValues></_>
        <_>
          <internalNodes>
            0 -1 69 -6.5185790881514549e-03</internalNodes>
          <leafValues>
            2.8796705603599548e-01 -8.7177112698554993e-02</leafValues></_>
        <_>
          <internalNodes>
            0 -1 624 3.2260203734040260e-03</internalNodes>
          <leafValues>
            -6.5302044153213501e-02 3.5641697049140930e-01</leafValues></_>
        <_>
          <internalNodes>
            0 -1 226 -7.5735412538051605e-03</internalNodes>
          <leafValues>
            3.3233326673507690e-01 -6.5669305622577667e-02</leafValues></_>
        <_>
          <internalNodes>
            0 -1 545 4.5139077119529247e-03</internalNodes>
          <leafValues>
            -3.7905428558588028e-02 5.9823846817016602e-01</leafValues></_>
        <_>
          <internalNodes>
            0 -1 253 -7.4655254138633609e-04</internalNodes>
          <leafValues>
            -4.3002158403396606e-01 5.5775865912437439e-02</leafValues></_>
        <_>
          <internalNodes>
            0 -1 79 5.1767413970082998e-04</internalNodes>
          <leafValues>
            8.4363348782062531e-02 -2.6582202315330505e-01</leafValues></_>
        <_>
          <internalNodes>
            0 -1 246 1.1122073978185654e-02</internalNodes>
          <leafValues>
            -1.1972987651824951e-01 1.8681678175926208e-01</leafValues></_>
        <_>
          <internalNodes>
            0 -1 722 1.1286685912637040e-04</internalNodes>
          <leafValues>
            1.4678514003753662e-01 -1.4653310179710388e-01</leafValues></_>
        <_>
          <internalNodes>
            0 -1 578 -1.1892225593328476e-03</internalNodes>
          <leafValues>
            1.8482837080955505e-01 -1.1752072721719742e-01</leafValues></_>
        <_>
          <internalNodes>
            0 -1 503 -2.0241301506757736e-02</internalNodes>
          <leafValues>
            -2.0276328921318054e-01 1.0859433561563492e-01</leafValues></_>
        <_>
          <internalNodes>
            0 -1 230 -2.3448103666305542e-01</internalNodes>
          <leafValues>
            -1.7509584128856659e-01 1.2729254364967346e-01</leafValues></_>
        <_>
          <internalNodes>
            0 -1 144 -2.1071860194206238e-01</internalNodes>
          <leafValues>
            7.0149734616279602e-02 -3.7942710518836975e-01</leafValues></_>
        <_>
          <internalNodes>
            0 -1 529 -9.1417618095874786e-03</internalNodes>
          <leafValues>
            3.9052227139472961e-01 -5.8393437415361404e-02</leafValues></_></weakClassifiers></_>
    <!-- stage 5 -->
    <_>
      <maxWeakCount>95</maxWeakCount>
      <stageThreshold>-4.5274081826210022e-01</stageThreshold>
      <weakClassifiers>
        <_>
          <internalNodes>
            0 -1 27 -1.5194704756140709e-02</internalNodes>
          <leafValues>
            4.5479834079742432e-01 -1.4500941336154938e-01</leafValues></_>
        <_>
          <internalNodes>
            0 -1 468 -1.7885023355484009e-01</internalNodes>
          <leafValues>
            6.5642297267913818e-01 -8.4349803626537323e-02</leafValues></_>
        <_>
          <internalNodes>
            0 -1 389 -1.1120214912807569e-04</internalNodes>
          <leafValues>
            -3.9055722951889038e-01 1.0574302822351456e-01</leafValues></_>
        <_>
          <internalNodes>
            0 -1 654 1.7274910584092140e-02</internalNodes>
          <leafValues>
            -1.4509066939353943e-01 2.8134158253669739e-01</leafValues></_>
        <_>
          <internalNodes>
            0 -1 389 1.2929024524055421e-04</internalNodes>
          <leafValues>
            1.2667812407016754e-01 -3.4154716134071350e-01</leafValues></_>
        <_>
          <internalNodes>
            0 -1 752 1.3939938799012452e-04</internalNodes>
          <leafValues>
            1.2877836823463440e-01 -2.8486409783363342e-01</leafValues></_>
        <_>
          <internalNodes>
            0 -1 10 -3.8148164749145508e-03</internalNodes>
          <leafValues>
            1.8663318455219269e-01 -1.6326032578945160e-01</leafValues></_>
        <_>
          <internalNodes>
            0 -1 573 1.4970407937653363e-04</internalNodes>
          <leafValues>
            1.3170832395553589e-01 -2.3828537762165070e-01</leafValues></_>
        <_>
          <internalNodes>
            0 -1 435 -1.3563971035182476e-02</internalNodes>
          <leafValues>
            1.7741763591766357e-01 -2.1499358117580414e-01</leafValues></_>
        <_>
          <internalNodes>
            0 -1 286 -2.8532527387142181e-02</internalNodes>
          <leafValues>
            -3.4417885541915894e-01 1.2954358756542206e-01</leafValues></_>
        <_>
          <internalNodes>
            0 -1 303 -1.3527065515518188e-01</internalNodes>
          <leafValues>
            4.5447644591331482e-01 -9.9066495895385742e-02</leafValues></_>
        <_>
          <internalNodes>
            0 -1 75 8.8319465517997742e-02</internalNodes>
          <leafValues>
            -4.9820188432931900e-02 5.3158211708068848e-01</leafValues></_>
        <_>
          <internalNodes>
            0 -1 294 8.7718740105628967e-03</internalNodes>
          <leafValues>
            -5.8180689811706543e-02 5.1072484254837036e-01</leafValues></_>
        <_>
          <internalNodes>
            0 -1 92 -2.7581845642998815e-04</internalNodes>
          <leafValues>
            -2.5681892037391663e-01 1.0192450135946274e-01</leafValues></_>
        <_>
          <internalNodes>
            0 -1 539 -2.0570536144077778e-03</internalNodes>
          <leafValues>
            3.3678263425827026e-01 -6.9829769432544708e-02</leafValues></_>
        <_>
          <internalNodes>
            0 -1 453 1.3936197319708299e-05</internalNodes>
          <leafValues>
            -1.6719765961170197e-01 1.3874223828315735e-01</leafValues></_>
        <_>
          <internalNodes>
            0 -1 387 8.6780376732349396e-03</internalNodes>
          <leafValues>
            1.0692762583494186e-01 -2.4169673025608063e-01</leafValues></_>
        <_>
          <internalNodes>
            0 -1 356 5.0374018028378487e-03</internalNodes>
          <leafValues>
            -1.4166267216205597e-01 1.7403559386730194e-01</leafValues></_>
        <_>
          <internalNodes>
            0 -1 695 -8.4046658594161272e-04</internalNodes>
          <leafValues>
            -2.9588496685028076e-01 8.0378942191600800e-02</leafValues></_>
        <_>
          <internalNodes>
            0 -1 277 3.6295130848884583e-04</internalNodes>
          <leafValues>
            9.0772777795791626e-02 -2.4911604821681976e-01</leafValues></_>
        <_>
          <internalNodes>
            0 -1 729 8.1705953925848007e-03</internalNodes>
          <leafValues>
            -8.5548110306262970e-02 2.6726371049880981e-01</leafValues></_>
        <_>
          <internalNodes>
            0 -1 165 -1.4709109440445900e-02</internalNodes>
          <leafValues>
            5.8701020479202271e-01 -4.2627315968275070e-02</leafValues></_>
        <_>
          <internalNodes>
            0 -1 411 -8.0923531204462051e-03</internalNodes>
          <leafValues>
            3.3875676989555359e-01 -5.8630462735891342e-02</leafValues></_>
        <_>
          <internalNodes>
            0 -1 189 -1.3096569478511810e-01</internalNodes>
          <leafValues>
            4.0235143899917603e-01 -4.8557445406913757e-02</leafValues></_>
        <_>
          <internalNodes>
            0 -1 185 2.1542189642786980e-03</internalNodes>
          <leafValues>
            -1.1811944842338562e-01 1.8520522117614746e-01</leafValues></_>
        <_>
          <internalNodes>
            0 -1 162 3.2038234174251556e-02</internalNodes>
          <leafValues>
            -9.5013462007045746e-02 2.6908063888549805e-01</leafValues></_>
        <_>
          <internalNodes>
            0 -1 456 4.4261282891966403e-04</internalNodes>
          <leafValues>
            9.7092099487781525e-02 -2.4988868832588196e-01</leafValues></_>
        <_>
          <internalNodes>
            0 -1 0 -5.0081009248970076e-05</internalNodes>
          <leafValues>
            -2.0172210037708282e-01 1.1271103471517563e-01</leafValues></_>
        <_>
          <internalNodes>
            0 -1 336 9.0569083113223314e-04</internalNodes>
          <leafValues>
            6.3166774809360504e-02 -3.7878432869911194e-01</leafValues></_>
        <_>
          <internalNodes>
            0 -1 524 -8.9920368045568466e-03</internalNodes>
          <leafValues>
            2.9139092564582825e-01 -7.6881490647792816e-02</leafValues></_>
        <_>
          <internalNodes>
            0 -1 63 -2.5893975049257278e-02</internalNodes>
          <leafValues>
            1.9155837595462799e-02 -9.6775245666503906e-01</leafValues></_>
        <_>
          <internalNodes>
            0 -1 576 -3.2505713403224945e-02</internalNodes>
          <leafValues>
            -9.8159813880920410e-01 1.3260653242468834e-02</leafValues></_>
        <_>
          <internalNodes>
            0 -1 488 -1.8648222088813782e-01</internalNodes>
          <leafValues>
            -1.2863427400588989e-01 1.5652911365032196e-01</leafValues></_>
        <_>
          <internalNodes>
            0 -1 250 9.6939101815223694e-02</internalNodes>
          <leafValues>
            -4.1268866509199142e-02 5.4658389091491699e-01</leafValues></_>
        <_>
          <internalNodes>
            0 -1 332 -9.7195431590080261e-03</internalNodes>
          <leafValues>
            1.7762173712253571e-01 -1.1812781542539597e-01</leafValues></_>
        <_>
          <internalNodes>
            0 -1 57 -2.9610479250550270e-03</internalNodes>
          <leafValues>
            1.6794520616531372e-01 -1.4091689884662628e-01</leafValues></_>
        <_>
          <internalNodes>
            0 -1 291 3.1729787588119507e-02</internalNodes>
          <leafValues>
            -3.4272104501724243e-02 6.7931842803955078e-01</leafValues></_>
        <_>
          <internalNodes>
            0 -1 630 1.0455180890858173e-02</internalNodes>
          <leafValues>
            -8.8241785764694214e-02 2.3142419755458832e-01</leafValues></_>
        <_>
          <internalNodes>
            0 -1 292 3.9324015378952026e-02</internalNodes>
          <leafValues>
            -3.0012510716915131e-02 8.6822617053985596e-01</leafValues></_>
        <_>
          <internalNodes>
            0 -1 520 -1.2222758959978819e-03</internalNodes>
          <leafValues>
            2.1497669816017151e-01 -9.5086559653282166e-02</leafValues></_>
        <_>
          <internalNodes>
            0 -1 420 5.8920914307236671e-03</internalNodes>
          <leafValues>
            -6.0793902724981308e-02 3.6503458023071289e-01</leafValues></_>
        <_>
          <internalNodes>
            0 -1 665 1.6625472926534712e-04</internalNodes>
          <leafValues>
            1.1009908467531204e-01 -1.9240534305572510e-01</leafValues></_>
        <_>
          <internalNodes>
            0 -1 267 -3.7422578781843185e-02</internalNodes>
          <leafValues>
            4.4325727224349976e-01 -4.9701374024152756e-02</leafValues></_>
        <_>
          <internalNodes>
            0 -1 8 6.3498998060822487e-03</internalNodes>
          <leafValues>
            -6.8039052188396454e-02 2.9517060518264771e-01</leafValues></_>
        <_>
          <internalNodes>
            0 -1 173 4.1535915806889534e-03</internalNodes>
          <leafValues>
            5.1191952079534531e-02 -4.2711651325225830e-01</leafValues></_>
        <_>
          <internalNodes>
            0 -1 46 -1.9166265847161412e-03</internalNodes>
          <leafValues>
            2.8636920452117920e-01 -7.2915486991405487e-02</leafValues></_>
        <_>
          <internalNodes>
            0 -1 72 -1.8362098489888012e-04</internalNodes>
          <leafValues>
            -2.3796755075454712e-01 1.0610873997211456e-01</leafValues></_>
        <_>
          <internalNodes>
            0 -1 531 -5.6947530247271061e-03</internalNodes>
          <leafValues>
            3.9362743496894836e-01 -5.3030248731374741e-02</leafValues></_>
        <_>
          <internalNodes>
            0 -1 574 -9.1922946739941835e-04</internalNodes>
          <leafValues>
            -4.3037495017051697e-01 5.6372936815023422e-02</leafValues></_>
        <_>
          <internalNodes>
            0 -1 533 -7.7988188713788986e-03</internalNodes>
          <leafValues>
            1.5016251802444458e-01 -1.3331393897533417e-01</leafValues></_>
        <_>
          <internalNodes>
            0 -1 365 2.8497964376583695e-04</internalNodes>
          <leafValues>
            -1.1677501350641251e-01 1.8478314578533173e-01</leafValues></_>
        <_>
          <internalNodes>
            0 -1 199 4.2854078114032745e-02</internalNodes>
          <leafValues>
            -4.7375716269016266e-02 3.9656901359558105e-01</leafValues></_>
        <_>
          <internalNodes>
            0 -1 310 1.0746212501544505e-04</internalNodes>
          <leafValues>
            -1.4317466318607330e-01 1.2698315083980560e-01</leafValues></_>
        <_>
          <internalNodes>
            0 -1 309 1.4311392442323267e-04</internalNodes>
          <leafValues>
            9.9676281213760376e-02 -1.9949175417423248e-01</leafValues></_>
        <_>
          <internalNodes>
            0 -1 474 -7.1959691122174263e-03</internalNodes>
          <leafValues>
            4.4461098313331604e-01 -4.3167367577552795e-02</leafValues></_>
        <_>
          <internalNodes>
            0 -1 483 5.1037158118560910e-04</internalNodes>
          <leafValues>
            -1.3146671652793884e-01 1.8769364058971405e-01</leafValues></_>
        <_>
          <internalNodes>
            0 -1 676 1.4627705968450755e-04</internalNodes>
          <leafValues>
            9.1175839304924011e-02 -2.0722649991512299e-01</leafValues></_>
        <_>
          <internalNodes>
            0 -1 83 1.4517202973365784e-01</internalNodes>
          <leafValues>
            3.0250996351242065e-02 -6.1193209886550903e-01</leafValues></_>
        <_>
          <internalNodes>
            0 -1 693 -3.2275999546982348e-04</internalNodes>
          <leafValues>
            -2.2766335308551788e-01 8.1004217267036438e-02</leafValues></_>
        <_>
          <internalNodes>
            0 -1 241 -8.1017777323722839e-02</internalNodes>
          <leafValues>
            -6.5135496854782104e-01 2.7091508731245995e-02</leafValues></_>
        <_>
          <internalNodes>
            0 -1 128 1.0087082628160715e-03</internalNodes>
          <leafValues>
            -1.0943920910358429e-01 1.6654194891452789e-01</leafValues></_>
        <_>
          <internalNodes>
            0 -1 485 1.1749882251024246e-03</internalNodes>
          <leafValues>
            -4.8786647617816925e-02 3.5206153988838196e-01</leafValues></_>
        <_>
          <internalNodes>
            0 -1 597 -3.0801573302596807e-04</internalNodes>
          <leafValues>
            -2.1687123179435730e-01 8.2283347845077515e-02</leafValues></_>
        <_>
          <internalNodes>
            0 -1 252 3.4509119577705860e-03</internalNodes>
          <leafValues>
            -9.3973465263843536e-02 2.2639600932598114e-01</leafValues></_>
        <_>
          <internalNodes>
            0 -1 458 1.7445800767745823e-04</internalNodes>
          <leafValues>
            1.1811570823192596e-01 -1.8524102866649628e-01</leafValues></_>
        <_>
          <internalNodes>
            0 -1 197 2.6990007609128952e-02</internalNodes>
          <leafValues>
            -5.2131749689579010e-02 3.7787613272666931e-01</leafValues></_>
        <_>
          <internalNodes>
            0 -1 82 -1.2071366421878338e-02</internalNodes>
          <leafValues>
            -2.2079294919967651e-01 1.2456086277961731e-01</leafValues></_>
        <_>
          <internalNodes>
            0 -1 634 -6.5140225924551487e-03</internalNodes>
          <leafValues>
            2.4107545614242554e-01 -1.0680796951055527e-01</leafValues></_>
        <_>
          <internalNodes>
            0 -1 570 5.3045833483338356e-03</internalNodes>
          <leafValues>
            -8.5442721843719482e-02 2.5307887792587280e-01</leafValues></_>
        <_>
          <internalNodes>
            0 -1 133 -2.4865703657269478e-02</internalNodes>
          <leafValues>
            2.9285401105880737e-01 -6.8252801895141602e-02</leafValues></_>
        <_>
          <internalNodes>
            0 -1 590 -3.2020495273172855e-03</internalNodes>
          <leafValues>
            4.6918952465057373e-01 -4.8498772084712982e-02</leafValues></_>
        <_>
          <internalNodes>
            0 -1 673 4.3840694706887007e-04</internalNodes>
          <leafValues>
            7.5971469283103943e-02 -2.7002996206283569e-01</leafValues></_>
        <_>
          <internalNodes>
            0 -1 163 2.5275032967329025e-02</internalNodes>
          <leafValues>
            -3.0744144693017006e-02 6.6982889175415039e-01</leafValues></_>
        <_>
          <internalNodes>
            0 -1 548 1.1746613308787346e-02</internalNodes>
          <leafValues>
            -1.0439206659793854e-01 1.8585450947284698e-01</leafValues></_>
        <_>
          <internalNodes>
            0 -1 393 -9.9896817118860781e-05</internalNodes>
          <leafValues>
            -1.8499372899532318e-01 1.1217296868562698e-01</leafValues></_>
        <_>
          <internalNodes>
            0 -1 571 -1.5601697377860546e-03</internalNodes>
          <leafValues>
            -5.0357508659362793e-01 3.9544600993394852e-02</leafValues></_>
        <_>
          <internalNodes>
            0 -1 164 -4.0393057279288769e-03</internalNodes>
          <leafValues>
            1.9332107901573181e-01 -1.0078895837068558e-01</leafValues></_>
        <_>
          <internalNodes>
            0 -1 100 -5.6294806301593781e-02</internalNodes>
          <leafValues>
            -6.2643003463745117e-01 3.7483699619770050e-02</leafValues></_>
        <_>
          <internalNodes>
            0 -1 718 4.9643013626337051e-03</internalNodes>
          <leafValues>
            -6.6391289234161377e-02 3.0185672640800476e-01</leafValues></_>
        <_>
          <internalNodes>
            0 -1 721 3.1727243913337588e-04</internalNodes>
          <leafValues>
            1.1862874031066895e-01 -1.9738455116748810e-01</leafValues></_>
        <_>
          <internalNodes>
            0 -1 734 5.1061250269412994e-02</internalNodes>
          <leafValues>
            2.1456187590956688e-02 -9.8170733451843262e-01</leafValues></_>
        <_>
          <internalNodes>
            0 -1 347 7.8657761216163635e-02</internalNodes>
          <leafValues>
            2.1137380972504616e-02 -6.7079639434814453e-01</leafValues></_>
        <_>
          <internalNodes>
            0 -1 251 -3.9471980184316635e-02</internalNodes>
          <leafValues>
            4.7056013345718384e-01 -4.5827761292457581e-02</leafValues></_>
        <_>
          <internalNodes>
            0 -1 231 -4.5078445691615343e-04</internalNodes>
          <leafValues>
            -2.7029487490653992e-01 7.3130935430526733e-02</leafValues></_>
        <_>
          <internalNodes>
            0 -1 196 -1.5233480371534824e-04</internalNodes>
          <leafValues>
            1.1441361159086227e-01 -1.6884121298789978e-01</leafValues></_>
        <_>
          <internalNodes>
            0 -1 53 1.1274876073002815e-02</internalNodes>
          <leafValues>
            -4.8280742019414902e-02 4.3439444899559021e-01</leafValues></_>
        <_>
          <internalNodes>
            0 -1 685 1.5142442658543587e-02</internalNodes>
          <leafValues>
            -1.0882268846035004e-01 1.7677594721317291e-01</leafValues></_>
        <_>
          <internalNodes>
            0 -1 646 -3.2828196883201599e-02</internalNodes>
          <leafValues>
            5.2850365638732910e-01 -5.1246181130409241e-02</leafValues></_>
        <_>
          <internalNodes>
            0 -1 276 5.3841935005038977e-04</internalNodes>
          <leafValues>
            9.0243011713027954e-02 -2.0782899856567383e-01</leafValues></_>
        <_>
          <internalNodes>
            0 -1 580 -1.1678451299667358e-01</internalNodes>
          <leafValues>
            -7.6603162288665771e-01 2.4782441556453705e-02</leafValues></_>
        <_>
          <internalNodes>
            0 -1 410 -1.6075304150581360e-01</internalNodes>
          <leafValues>
            3.7786912918090820e-01 -6.6416881978511810e-02</leafValues></_>
        <_>
          <internalNodes>
            0 -1 705 1.0593218728899956e-02</internalNodes>
          <leafValues>
            -9.6093580126762390e-02 2.2298148274421692e-01</leafValues></_>
        <_>
          <internalNodes>
            0 -1 502 -3.2228611409664154e-02</internalNodes>
          <leafValues>
            2.3819291591644287e-01 -1.0180648416280746e-01</leafValues></_>
        <_>
          <internalNodes>
            0 -1 308 9.4765499234199524e-03</internalNodes>
          <leafValues>
            -3.9598692208528519e-02 5.4677933454513550e-01</leafValues></_>
        <_>
          <internalNodes>
            0 -1 60 -5.3313383832573891e-03</internalNodes>
          <leafValues>
            2.8372400999069214e-01 -7.3055334389209747e-02</leafValues></_></weakClassifiers></_>
    <!-- stage 6 -->
    <_>
      <maxWeakCount>100</maxWeakCount>
      <stageThreshold>-5.7533681392669678e-01</stageThreshold>
      <weakClassifiers>
        <_>
          <internalNodes>
            0 -1 345 9.5682442188262939e-02</internalNodes>
          <leafValues>
            -1.1236863583326340e-01 5.0593823194503784e-01</leafValues></_>
        <_>
          <internalNodes>
            0 -1 92 1.7447219579480588e-04</internalNodes>
          <leafValues>
            1.6660661995410919e-01 -3.5615122318267822e-01</leafValues></_>
        <_>
          <internalNodes>
            0 -1 92 -1.6982712259050459e-04</internalNodes>
          <leafValues>
            -3.5500839352607727e-01 1.3666416704654694e-01</leafValues></_>
        <_>
          <internalNodes>
            0 -1 691 4.2864635586738586e-02</internalNodes>
          <leafValues>
            -7.0554114878177643e-02 5.4499226808547974e-01</leafValues></_>
        <_>
          <internalNodes>
            0 -1 153 1.7843845486640930e-01</internalNodes>
          <leafValues>
            -1.1352629214525223e-01 5.2511292695999146e-01</leafValues></_>
        <_>
          <internalNodes>
            0 -1 139 4.0874853730201721e-02</internalNodes>
          <leafValues>
            -4.6740788966417313e-02 4.6987429261207581e-01</leafValues></_>
        <_>
          <internalNodes>
            0 -1 219 -1.0044293594546616e-04</internalNodes>
          <leafValues>
            -2.6376959681510925e-01 9.9788054823875427e-02</leafValues></_>
        <_>
          <internalNodes>
            0 -1 592 -7.4226816650480032e-05</internalNodes>
          <leafValues>
            -1.9189535081386566e-01 1.2267542630434036e-01</leafValues></_>
        <_>
          <internalNodes>
            0 -1 225 7.6747724961023778e-05</internalNodes>
          <leafValues>
            1.2101204693317413e-01 -1.9485379755496979e-01</leafValues></_>
        <_>
          <internalNodes>
            0 -1 293 -1.4084834605455399e-02</internalNodes>
          <leafValues>
            2.9459697008132935e-01 -9.4529889523983002e-02</leafValues></_>
        <_>
          <internalNodes>
            0 -1 696 1.6938918270170689e-03</internalNodes>
          <leafValues>
            7.8847028315067291e-02 -3.2662209868431091e-01</leafValues></_>
        <_>
          <internalNodes>
            0 -1 131 -3.9269708096981049e-02</internalNodes>
          <leafValues>
            1.7940221726894379e-01 -1.1687445640563965e-01</leafValues></_>
        <_>
          <internalNodes>
            0 -1 213 -4.3138138949871063e-02</internalNodes>
          <leafValues>
            2.7012714743614197e-01 -1.0055903345346451e-01</leafValues></_>
        <_>
          <internalNodes>
            0 -1 311 2.9836136847734451e-02</internalNodes>
          <leafValues>
            -1.1802399903535843e-01 2.2869405150413513e-01</leafValues></_>
        <_>
          <internalNodes>
            0 -1 77 -3.4305805456824601e-05</internalNodes>
          <leafValues>
            -1.6979138553142548e-01 1.3686586916446686e-01</leafValues></_>
        <_>
          <internalNodes>
            0 -1 482 -2.2083055227994919e-03</internalNodes>
          <leafValues>
            6.1594307422637939e-01 -3.9260305464267731e-02</leafValues></_>
        <_>
          <internalNodes>
            0 -1 741 -2.6413891464471817e-04</internalNodes>
          <leafValues>
            -2.1983221173286438e-01 9.6706062555313110e-02</leafValues></_>
        <_>
          <internalNodes>
            0 -1 10 -4.9062585458159447e-03</internalNodes>
          <leafValues>
            1.6977857053279877e-01 -1.2627464532852173e-01</leafValues></_>
        <_>
          <internalNodes>
            0 -1 120 9.6900807693600655e-03</internalNodes>
          <leafValues>
            -5.7645015418529510e-02 4.2779579758644104e-01</leafValues></_>
        <_>
          <internalNodes>
            0 -1 430 -5.9098768979310989e-03</internalNodes>
          <leafValues>
            2.3307079076766968e-01 -9.0972058475017548e-02</leafValues></_>
        <_>
          <internalNodes>
            0 -1 648 -4.6721440739929676e-03</internalNodes>
          <leafValues>
            2.2465094923973083e-01 -9.5706574618816376e-02</leafValues></_>
        <_>
          <internalNodes>
            0 -1 698 -1.2615229934453964e-03</internalNodes>
          <leafValues>
            -3.0473774671554565e-01 7.6112262904644012e-02</leafValues></_>
        <_>
          <internalNodes>
            0 -1 268 -8.9606810361146927e-03</internalNodes>
          <leafValues>
            -5.9494689106941223e-02 3.5792604088783264e-01</leafValues></_>
        <_>
          <internalNodes>
            0 -1 471 2.7572698891162872e-02</internalNodes>
          <leafValues>
            4.6841718256473541e-02 -4.7740033268928528e-01</leafValues></_>
        <_>
          <internalNodes>
            0 -1 172 -3.3097011037170887e-03</internalNodes>
          <leafValues>
            1.7752468585968018e-01 -1.0785620659589767e-01</leafValues></_>
        <_>
          <internalNodes>
            0 -1 93 -1.1126707307994366e-02</internalNodes>
          <leafValues>
            -3.9129355549812317e-01 5.2644629031419754e-02</leafValues></_>
        <_>
          <internalNodes>
            0 -1 532 7.8802841017022729e-05</internalNodes>
          <leafValues>
            8.7511636316776276e-02 -2.0287951827049255e-01</leafValues></_>
        <_>
          <internalNodes>
            0 -1 540 -7.4158268980681896e-03</internalNodes>
          <leafValues>
            3.4762555360794067e-01 -5.5628247559070587e-02</leafValues></_>
        <_>
          <internalNodes>
            0 -1 81 -8.1184483133256435e-04</internalNodes>
          <leafValues>
            -3.6018919944763184e-01 5.3671080619096756e-02</leafValues></_>
        <_>
          <internalNodes>
            0 -1 324 3.1513669528067112e-03</internalNodes>
          <leafValues>
            -9.5441393554210663e-02 1.9750946760177612e-01</leafValues></_>
        <_>
          <internalNodes>
            0 -1 445 -1.0224039433524013e-03</internalNodes>
          <leafValues>
            2.3266059160232544e-01 -8.1977404654026031e-02</leafValues></_>
        <_>
          <internalNodes>
            0 -1 636 -3.1318424735218287e-03</internalNodes>
          <leafValues>
            -5.2179586887359619e-01 3.7484299391508102e-02</leafValues></_>
        <_>
          <internalNodes>
            0 -1 596 -8.0752186477184296e-05</internalNodes>
          <leafValues>
            -1.9461682438850403e-01 9.4400718808174133e-02</leafValues></_>
        <_>
          <internalNodes>
            0 -1 461 -5.7562754955142736e-04</internalNodes>
          <leafValues>
            -3.9387667179107666e-01 4.0485441684722900e-02</leafValues></_>
        <_>
          <internalNodes>
            0 -1 111 4.3313582427799702e-03</internalNodes>
          <leafValues>
            -1.0752107948064804e-01 1.6902598738670349e-01</leafValues></_>
        <_>
          <internalNodes>
            0 -1 170 -7.0311985909938812e-03</internalNodes>
          <leafValues>
            3.5555952787399292e-01 -5.8675568550825119e-02</leafValues></_>
        <_>
          <internalNodes>
            0 -1 210 8.7945474660955369e-05</internalNodes>
          <leafValues>
            1.1708313226699829e-01 -1.6503885388374329e-01</leafValues></_>
        <_>
          <internalNodes>
            0 -1 507 5.1975362002849579e-03</internalNodes>
          <leafValues>
            -7.0985868573188782e-02 2.4869738519191742e-01</leafValues></_>
        <_>
          <internalNodes>
            0 -1 396 -2.6496924459934235e-02</internalNodes>
          <leafValues>
            4.4981557130813599e-01 -4.3146520853042603e-02</leafValues></_>
        <_>
          <internalNodes>
            0 -1 493 2.7356725186109543e-03</internalNodes>
          <leafValues>
            -1.0698653012514114e-01 1.5964634716510773e-01</leafValues></_>
        <_>
          <internalNodes>
            0 -1 428 2.1016628015786409e-03</internalNodes>
          <leafValues>
            2.6011217385530472e-02 -7.3803400993347168e-01</leafValues></_>
        <_>
          <internalNodes>
            0 -1 47 5.9192809276282787e-03</internalNodes>
          <leafValues>
            -5.5599220097064972e-02 3.4489345550537109e-01</leafValues></_>
        <_>
          <internalNodes>
            0 -1 706 2.1472450345754623e-02</internalNodes>
          <leafValues>
            -3.6447610706090927e-02 4.6214026212692261e-01</leafValues></_>
        <_>
          <internalNodes>
            0 -1 209 -7.7530955895781517e-03</internalNodes>
          <leafValues>
            -5.6239581108093262e-01 3.1187847256660461e-02</leafValues></_>
        <_>
          <internalNodes>
            0 -1 384 3.4029106609523296e-03</internalNodes>
          <leafValues>
            -1.0547626018524170e-01 1.8384082615375519e-01</leafValues></_>
        <_>
          <internalNodes>
            0 -1 494 5.0444150110706687e-04</internalNodes>
          <leafValues>
            9.3908846378326416e-02 -1.9932791590690613e-01</leafValues></_>
        <_>
          <internalNodes>
            0 -1 212 1.6905946540646255e-04</internalNodes>
          <leafValues>
            1.2058727443218231e-01 -1.4928072690963745e-01</leafValues></_>
        <_>
          <internalNodes>
            0 -1 36 -1.1949676088988781e-02</internalNodes>
          <leafValues>
            2.7374950051307678e-01 -6.7683994770050049e-02</leafValues></_>
        <_>
          <internalNodes>
            0 -1 22 3.6670067347586155e-03</internalNodes>
          <leafValues>
            -8.2830578088760376e-02 2.2550313174724579e-01</leafValues></_>
        <_>
          <internalNodes>
            0 -1 641 8.2867130637168884e-02</internalNodes>
          <leafValues>
            -5.7158779352903366e-02 3.2414966821670532e-01</leafValues></_>
        <_>
          <internalNodes>
            0 -1 667 7.4384202889632434e-05</internalNodes>
          <leafValues>
            1.1939815431833267e-01 -1.7275407910346985e-01</leafValues></_>
        <_>
          <internalNodes>
            0 -1 2 -6.8207336589694023e-03</internalNodes>
          <leafValues>
            -6.7917543649673462e-01 2.6470297947525978e-02</leafValues></_>
        <_>
          <internalNodes>
            0 -1 304 1.3941675424575806e-03</internalNodes>
          <leafValues>
            -4.4600151479244232e-02 4.4339057803153992e-01</leafValues></_>
        <_>
          <internalNodes>
            0 -1 2 5.3212104830890894e-04</internalNodes>
          <leafValues>
            8.4930166602134705e-02 -2.2482806444168091e-01</leafValues></_>
        <_>
          <internalNodes>
            0 -1 631 -8.0704846186563373e-04</internalNodes>
          <leafValues>
            1.9752849638462067e-01 -9.4088017940521240e-02</leafValues></_>
        <_>
          <internalNodes>
            0 -1 608 -4.4941931962966919e-02</internalNodes>
          <leafValues>
            4.3976855278015137e-01 -3.9061527699232101e-02</leafValues></_>
        <_>
          <internalNodes>
            0 -1 612 -6.8866205401718616e-03</internalNodes>
          <leafValues>
            1.6377921402454376e-01 -1.1734361201524734e-01</leafValues></_>
        <_>
          <internalNodes>
            0 -1 740 -2.0941145718097687e-02</internalNodes>
          <leafValues>
            -3.0781808495521545e-01 7.0372968912124634e-02</leafValues></_>
        <_>
          <internalNodes>
            0 -1 433 -1.5944115817546844e-02</internalNodes>
          <leafValues>
            -3.1456455588340759e-01 6.1570674180984497e-02</leafValues></_>
        <_>
          <internalNodes>
            0 -1 739 1.6611874103546143e-02</internalNodes>
          <leafValues>
            5.9347666800022125e-02 -3.1846526265144348e-01</leafValues></_>
        <_>
          <internalNodes>
            0 -1 672 9.4079598784446716e-04</internalNodes>
          <leafValues>
            1.2453551590442657e-01 -1.5185476839542389e-01</leafValues></_>
        <_>
          <internalNodes>
            0 -1 108 -3.3179987221956253e-03</internalNodes>
          <leafValues>
            2.1361477673053741e-01 -9.9293738603591919e-02</leafValues></_>
        <_>
          <internalNodes>
            0 -1 633 -3.1709237955510616e-03</internalNodes>
          <leafValues>
            -6.2638424336910248e-02 3.0775693058967590e-01</leafValues></_>
        <_>
          <internalNodes>
            0 -1 480 -4.9011550843715668e-02</internalNodes>
          <leafValues>
            3.9780084043741226e-02 -5.4091143608093262e-01</leafValues></_>
        <_>
          <internalNodes>
            0 -1 424 -9.4013297930359840e-03</internalNodes>
          <leafValues>
            -4.1736719012260437e-01 3.8687415421009064e-02</leafValues></_>
        <_>
          <internalNodes>
            0 -1 452 -1.3886976521462202e-03</internalNodes>
          <leafValues>
            1.6136130690574646e-01 -1.1353230476379395e-01</leafValues></_>
        <_>
          <internalNodes>
            0 -1 735 -2.1279554348438978e-03</internalNodes>
          <leafValues>
            -4.3747368454933167e-01 4.6499345451593399e-02</leafValues></_>
        <_>
          <internalNodes>
            0 -1 649 -5.2065119147300720e-02</internalNodes>
          <leafValues>
            8.2070916891098022e-01 -2.3847527801990509e-02</leafValues></_>
        <_>
          <internalNodes>
            0 -1 615 1.8766976892948151e-02</internalNodes>
          <leafValues>
            5.6612078100442886e-02 -3.9708074927330017e-01</leafValues></_>
        <_>
          <internalNodes>
            0 -1 617 -1.6023647040128708e-02</internalNodes>
          <leafValues>
            4.3721514940261841e-01 -4.8389133065938950e-02</leafValues></_>
        <_>
          <internalNodes>
            0 -1 415 1.0532991960644722e-02</internalNodes>
          <leafValues>
            5.3602688014507294e-02 -3.7121608853340149e-01</leafValues></_>
        <_>
          <internalNodes>
            0 -1 295 -1.1254827678203583e-01</internalNodes>
          <leafValues>
            3.1539770960807800e-01 -6.0706183314323425e-02</leafValues></_>
        <_>
          <internalNodes>
            0 -1 663 -2.4958234280347824e-03</internalNodes>
          <leafValues>
            -3.4653708338737488e-01 6.2334902584552765e-02</leafValues></_>
        <_>
          <internalNodes>
            0 -1 440 2.2860463708639145e-02</internalNodes>
          <leafValues>
            -2.2209273651242256e-02 8.8967591524124146e-01</leafValues></_>
        <_>
          <internalNodes>
            0 -1 281 7.9980585724115372e-04</internalNodes>
          <leafValues>
            5.8499746024608612e-02 -3.1970724463462830e-01</leafValues></_>
        <_>
          <internalNodes>
            0 -1 45 2.4734678864479065e-01</internalNodes>
          <leafValues>
            -3.0055334791541100e-02 6.3310939073562622e-01</leafValues></_>
        <_>
          <internalNodes>
            0 -1 74 1.3359520817175508e-03</internalNodes>
          <leafValues>
            -8.7414450943470001e-02 2.0721414685249329e-01</leafValues></_>
        <_>
          <internalNodes>
            0 -1 603 4.2408816516399384e-03</internalNodes>
          <leafValues>
            -4.2096011340618134e-02 4.5021396875381470e-01</leafValues></_>
        <_>
          <internalNodes>
            0 -1 136 -6.1729758977890015e-02</internalNodes>
          <leafValues>
            3.6678054928779602e-01 -4.8455037176609039e-02</leafValues></_>
        <_>
          <internalNodes>
            0 -1 158 -1.9996194168925285e-03</internalNodes>
          <leafValues>
            1.8464915454387665e-01 -9.5850013196468353e-02</leafValues></_>
        <_>
          <internalNodes>
            0 -1 645 3.1710661947727203e-02</internalNodes>
          <leafValues>
            -2.7354713529348373e-02 6.4621454477310181e-01</leafValues></_>
        <_>
          <internalNodes>
            0 -1 325 -6.4607754349708557e-02</internalNodes>
          <leafValues>
            -8.2441961765289307e-01 2.5657741352915764e-02</leafValues></_>
        <_>
          <internalNodes>
            0 -1 282 8.8768400019034743e-05</internalNodes>
          <leafValues>
            8.7785385549068451e-02 -1.9487200677394867e-01</leafValues></_>
        <_>
          <internalNodes>
            0 -1 221 1.0280108544975519e-03</internalNodes>
          <leafValues>
            -8.8946260511875153e-02 2.1628756821155548e-01</leafValues></_>
        <_>
          <internalNodes>
            0 -1 582 1.9654890056699514e-03</internalNodes>
          <leafValues>
            4.3624877929687500e-02 -4.3008989095687866e-01</leafValues></_>
        <_>
          <internalNodes>
            0 -1 652 -3.7130331620573997e-03</internalNodes>
          <leafValues>
            6.0722190886735916e-02 -2.8937339782714844e-01</leafValues></_>
        <_>
          <internalNodes>
            0 -1 187 -1.7481917142868042e-01</internalNodes>
          <leafValues>
            -5.0393838435411453e-02 4.1488692164421082e-01</leafValues></_>
        <_>
          <internalNodes>
            0 -1 330 7.3679562774486840e-05</internalNodes>
          <leafValues>
            1.1230106651782990e-01 -1.5146671235561371e-01</leafValues></_>
        <_>
          <internalNodes>
            0 -1 539 -3.4546114038676023e-03</internalNodes>
          <leafValues>
            3.8233178853988647e-01 -4.7396905720233917e-02</leafValues></_>
        <_>
          <internalNodes>
            0 -1 157 -3.3317736815661192e-03</internalNodes>
          <leafValues>
            2.3403906822204590e-01 -6.5128058195114136e-02</leafValues></_>
        <_>
          <internalNodes>
            0 -1 464 -4.5315595343708992e-03</internalNodes>
          <leafValues>
            1.2309076637029648e-01 -1.4286953210830688e-01</leafValues></_>
        <_>
          <internalNodes>
            0 -1 604 1.4202838065102696e-04</internalNodes>
          <leafValues>
            -1.0379576683044434e-01 1.7958134412765503e-01</leafValues></_>
        <_>
          <internalNodes>
