<?xml version="1.0"?>
<opencv_storage>
<stage6>
  <maxWeakCount>100</maxWeakCount>
  <stageThreshold>-5.7533681392669678e-01</stageThreshold>
  <weakClassifiers>
    <_>
      <internalNodes>
        0 -1 85164 9.5682442188262939e-02</internalNodes>
      <leafValues>
        -1.1236863583326340e-01 5.0593823194503784e-01</leafValues></_>
    <_>
      <internalNodes>
        0 -1 11033 1.7447219579480588e-04</internalNodes>
      <leafValues>
        1.6660661995410919e-01 -3.5615122318267822e-01</leafValues></_>
    <_>
      <internalNodes>
        0 -1 11033 -1.6982712259050459e-04</internalNodes>
      <leafValues>
        -3.5500839352607727e-01 1.3666416704654694e-01</leafValues></_>
    <_>
      <internalNodes>
        0 -1 158973 4.2864635586738586e-02</internalNodes>
      <leafValues>
        -7.0554114878177643e-02 5.4499226808547974e-01</leafValues></_>
    <_>
      <internalNodes>
        0 -1 21406 1.7843845486640930e-01</internalNodes>
      <leafValues>
        -1.1352629214525223e-01 5.2511292695999146e-01</leafValues></_>
    <_>
      <internalNodes>
        0 -1 17455 4.0874853730201721e-02</internalNodes>
      <leafValues>
        -4.6740788966417313e-02 4.6987429261207581e-01</leafValues></_>
    <_>
      <internalNodes>
        0 -1 37980 -1.0044293594546616e-04</internalNodes>
      <leafValues>
        -2.6376959681510925e-01 9.9788054823875427e-02</leafValues></_>
    <_>
      <internalNodes>
        0 -1 143142 -7.4226816650480032e-05</internalNodes>
      <leafValues>
        -1.9189535081386566e-01 1.2267542630434036e-01</leafValues></_>
    <_>
      <internalNodes>
        0 -1 38928 7.6747724961023778e-05</internalNodes>
      <leafValues>
        1.2101204693317413e-01 -1.9485379755496979e-01</leafValues></_>
    <_>
      <internalNodes>
        0 -1 63680 -1.4084834605455399e-02</internalNodes>
      <leafValues>
        2.9459697008132935e-01 -9.4529889523983002e-02</leafValues></_>
    <_>
      <internalNodes>
        0 -1 159536 1.6938918270170689e-03</internalNodes>
      <leafValues>
        7.8847028315067291e-02 -3.2662209868431091e-01</leafValues></_>
    <_>
      <internalNodes>
        0 -1 15701 -3.9269708096981049e-02</internalNodes>
      <leafValues>
        1.7940221726894379e-01 -1.1687445640563965e-01</leafValues></_>
    <_>
      <internalNodes>
        0 -1 37385 -4.3138138949871063e-02</internalNodes>
      <leafValues>
        2.7012714743614197e-01 -1.0055903345346451e-01</leafValues></_>
    <_>
      <internalNodes>
        0 -1 70214 2.9836136847734451e-02</internalNodes>
      <leafValues>
        -1.1802399903535843e-01 2.2869405150413513e-01</leafValues></_>
    <_>
      <internalNodes>
        0 -1 8809 -3.4305805456824601e-05</internalNodes>
      <leafValues>
        -1.6979138553142548e-01 1.3686586916446686e-01</leafValues></_>
    <_>
      <internalNodes>
        0 -1 118977 -2.2083055227994919e-03</internalNodes>
      <leafValues>
        6.1594307422637939e-01 -3.9260305464267731e-02</leafValues></_>
    <_>
      <internalNodes>
        0 -1 162120 -2.6413891464471817e-04</internalNodes>
      <leafValues>
        -2.1983221173286438e-01 9.6706062555313110e-02</leafValues></_>
    <_>
      <internalNodes>
        0 -1 76 -4.9062585458159447e-03</internalNodes>
      <leafValues>
        1.6977857053279877e-01 -1.2627464532852173e-01</leafValues></_>
    <_>
      <internalNodes>
        0 -1 14356 9.6900807693600655e-03</internalNodes>
      <leafValues>
        -5.7645015418529510e-02 4.2779579758644104e-01</leafValues></_>
    <_>
      <internalNodes>
        0 -1 107368 -5.9098768979310989e-03</internalNodes>
      <leafValues>
        2.3307079076766968e-01 -9.0972058475017548e-02</leafValues></_>
    <_>
      <internalNodes>
        0 -1 154317 -4.6721440739929676e-03</internalNodes>
      <leafValues>
        2.2465094923973083e-01 -9.5706574618816376e-02</leafValues></_>
    <_>
      <internalNodes>
        0 -1 159609 -1.2615229934453964e-03</internalNodes>
      <leafValues>
        -3.0473774671554565e-01 7.6112262904644012e-02</leafValues></_>
    <_>
      <internalNodes>
        0 -1 53584 -8.9606810361146927e-03</internalNodes>
      <leafValues>
        -5.9494689106941223e-02 3.5792604088783264e-01</leafValues></_>
    <_>
      <internalNodes>
        0 -1 117540 2.7572698891162872e-02</internalNodes>
      <leafValues>
        4.6841718256473541e-02 -4.7740033268928528e-01</leafValues></_>
    <_>
      <internalNodes>
        0 -1 25908 -3.3097011037170887e-03</internalNodes>
      <leafValues>
        1.7752468585968018e-01 -1.0785620659589767e-01</leafValues></_>
    <_>
      <internalNodes>
        0 -1 11052 -1.1126707307994366e-02</internalNodes>
      <leafValues>
        -3.9129355549812317e-01 5.2644629031419754e-02</leafValues></_>
    <_>
      <internalNodes>
        0 -1 128040 7.8802841017022729e-05</internalNodes>
      <leafValues>
        8.7511636316776276e-02 -2.0287951827049255e-01</leafValues></_>
    <_>
      <internalNodes>
        0 -1 131240 -7.4158268980681896e-03</internalNodes>
      <leafValues>
        3.4762555360794067e-01 -5.5628247559070587e-02</leafValues></_>
    <_>
      <internalNodes>
        0 -1 9437 -8.1184483133256435e-04</internalNodes>
      <leafValues>
        -3.6018919944763184e-01 5.3671080619096756e-02</leafValues></_>
    <_>
      <internalNodes>
        0 -1 76387 3.1513669528067112e-03</internalNodes>
      <leafValues>
        -9.5441393554210663e-02 1.9750946760177612e-01</leafValues></_>
    <_>
      <internalNodes>
        0 -1 111525 -1.0224039433524013e-03</internalNodes>
      <leafValues>
        2.3266059160232544e-01 -8.1977404654026031e-02</leafValues></_>
    <_>
      <internalNodes>
        0 -1 151964 -3.1318424735218287e-03</internalNodes>
      <leafValues>
        -5.2179586887359619e-01 3.7484299391508102e-02</leafValues></_>
    <_>
      <internalNodes>
        0 -1 143900 -8.0752186477184296e-05</internalNodes>
      <leafValues>
        -1.9461682438850403e-01 9.4400718808174133e-02</leafValues></_>
    <_>
      <internalNodes>
        0 -1 114412 -5.7562754955142736e-04</internalNodes>
      <leafValues>
        -3.9387667179107666e-01 4.0485441684722900e-02</leafValues></_>
    <_>
      <internalNodes>
        0 -1 13370 4.3313582427799702e-03</internalNodes>
      <leafValues>
        -1.0752107948064804e-01 1.6902598738670349e-01</leafValues></_>
    <_>
      <internalNodes>
        0 -1 25784 -7.0311985909938812e-03</internalNodes>
      <leafValues>
        3.5555952787399292e-01 -5.8675568550825119e-02</leafValues></_>
    <_>
      <internalNodes>
        0 -1 36971 8.7945474660955369e-05</internalNodes>
      <leafValues>
        1.1708313226699829e-01 -1.6503885388374329e-01</leafValues></_>
    <_>
      <internalNodes>
        0 -1 122471 5.1975362002849579e-03</internalNodes>
      <leafValues>
        -7.0985868573188782e-02 2.4869738519191742e-01</leafValues></_>
    <_>
      <internalNodes>
        0 -1 99115 -2.6496924459934235e-02</internalNodes>
      <leafValues>
        4.4981557130813599e-01 -4.3146520853042603e-02</leafValues></_>
    <_>
      <internalNodes>
        0 -1 120885 2.7356725186109543e-03</internalNodes>
      <leafValues>
        -1.0698653012514114e-01 1.5964634716510773e-01</leafValues></_>
    <_>
      <internalNodes>
        0 -1 106788 2.1016628015786409e-03</internalNodes>
      <leafValues>
        2.6011217385530472e-02 -7.3803400993347168e-01</leafValues></_>
    <_>
      <internalNodes>
        0 -1 4104 5.9192809276282787e-03</internalNodes>
      <leafValues>
        -5.5599220097064972e-02 3.4489345550537109e-01</leafValues></_>
    <_>
      <internalNodes>
        0 -1 160042 2.1472450345754623e-02</internalNodes>
      <leafValues>
        -3.6447610706090927e-02 4.6214026212692261e-01</leafValues></_>
    <_>
      <internalNodes>
        0 -1 36789 -7.7530955895781517e-03</internalNodes>
      <leafValues>
        -5.6239581108093262e-01 3.1187847256660461e-02</leafValues></_>
    <_>
      <internalNodes>
        0 -1 97269 3.4029106609523296e-03</internalNodes>
      <leafValues>
        -1.0547626018524170e-01 1.8384082615375519e-01</leafValues></_>
    <_>
      <internalNodes>
        0 -1 121240 5.0444150110706687e-04</internalNodes>
      <leafValues>
        9.3908846378326416e-02 -1.9932791590690613e-01</leafValues></_>
    <_>
      <internalNodes>
        0 -1 37226 1.6905946540646255e-04</internalNodes>
      <leafValues>
        1.2058727443218231e-01 -1.4928072690963745e-01</leafValues></_>
    <_>
      <internalNodes>
        0 -1 2230 -1.1949676088988781e-02</internalNodes>
      <leafValues>
        2.7374950051307678e-01 -6.7683994770050049e-02</leafValues></_>
    <_>
      <internalNodes>
        0 -1 811 3.6670067347586155e-03</internalNodes>
      <leafValues>
        -8.2830578088760376e-02 2.2550313174724579e-01</leafValues></_>
    <_>
      <internalNodes>
        0 -1 153111 8.2867130637168884e-02</internalNodes>
      <leafValues>
        -5.7158779352903366e-02 3.2414966821670532e-01</leafValues></_>
    <_>
      <internalNodes>
        0 -1 156674 7.4384202889632434e-05</internalNodes>
      <leafValues>
        1.1939815431833267e-01 -1.7275407910346985e-01</leafValues></_>
    <_>
      <internalNodes>
        0 -1 6 -6.8207336589694023e-03</internalNodes>
      <leafValues>
        -6.7917543649673462e-01 2.6470297947525978e-02</leafValues></_>
    <_>
      <internalNodes>
        0 -1 67203 1.3941675424575806e-03</internalNodes>
      <leafValues>
        -4.4600151479244232e-02 4.4339057803153992e-01</leafValues></_>
    <_>
      <internalNodes>
        0 -1 6 5.3212104830890894e-04</internalNodes>
      <leafValues>
        8.4930166602134705e-02 -2.2482806444168091e-01</leafValues></_>
    <_>
      <internalNodes>
        0 -1 150580 -8.0704846186563373e-04</internalNodes>
      <leafValues>
        1.9752849638462067e-01 -9.4088017940521240e-02</leafValues></_>
    <_>
      <internalNodes>
        0 -1 145541 -4.4941931962966919e-02</internalNodes>
      <leafValues>
        4.3976855278015137e-01 -3.9061527699232101e-02</leafValues></_>
    <_>
      <internalNodes>
        0 -1 146558 -6.8866205401718616e-03</internalNodes>
      <leafValues>
        1.6377921402454376e-01 -1.1734361201524734e-01</leafValues></_>
    <_>
      <internalNodes>
        0 -1 162119 -2.0941145718097687e-02</internalNodes>
      <leafValues>
        -3.0781808495521545e-01 7.0372968912124634e-02</leafValues></_>
    <_>
      <internalNodes>
        0 -1 108243 -1.5944115817546844e-02</internalNodes>
      <leafValues>
        -3.1456455588340759e-01 6.1570674180984497e-02</leafValues></_>
    <_>
      <internalNodes>
        0 -1 162114 1.6611874103546143e-02</internalNodes>
      <leafValues>
        5.9347666800022125e-02 -3.1846526265144348e-01</leafValues></_>
    <_>
      <internalNodes>
        0 -1 157100 9.4079598784446716e-04</internalNodes>
      <leafValues>
        1.2453551590442657e-01 -1.5185476839542389e-01</leafValues></_>
    <_>
      <internalNodes>
        0 -1 13358 -3.3179987221956253e-03</internalNodes>
      <leafValues>
        2.1361477673053741e-01 -9.9293738603591919e-02</leafValues></_>
    <_>
      <internalNodes>
        0 -1 150666 -3.1709237955510616e-03</internalNodes>
      <leafValues>
        -6.2638424336910248e-02 3.0775693058967590e-01</leafValues></_>
    <_>
      <internalNodes>
        0 -1 118808 -4.9011550843715668e-02</internalNodes>
      <leafValues>
        3.9780084043741226e-02 -5.4091143608093262e-01</leafValues></_>
    <_>
      <internalNodes>
        0 -1 106306 -9.4013297930359840e-03</internalNodes>
      <leafValues>
        -4.1736719012260437e-01 3.8687415421009064e-02</leafValues></_>
    <_>
      <internalNodes>
        0 -1 112480 -1.3886976521462202e-03</internalNodes>
      <leafValues>
        1.6136130690574646e-01 -1.1353230476379395e-01</leafValues></_>
    <_>
      <internalNodes>
        0 -1 161898 -2.1279554348438978e-03</internalNodes>
      <leafValues>
        -4.3747368454933167e-01 4.6499345451593399e-02</leafValues></_>
    <_>
      <internalNodes>
        0 -1 154610 -5.2065119147300720e-02</internalNodes>
      <leafValues>
        8.2070916891098022e-01 -2.3847527801990509e-02</leafValues></_>
    <_>
      <internalNodes>
        0 -1 147292 1.8766976892948151e-02</internalNodes>
      <leafValues>
        5.6612078100442886e-02 -3.9708074927330017e-01</leafValues></_>
    <_>
      <internalNodes>
        0 -1 147863 -1.6023647040128708e-02</internalNodes>
      <leafValues>
        4.3721514940261841e-01 -4.8389133065938950e-02</leafValues></_>
    <_>
      <internalNodes>
        0 -1 103271 1.0532991960644722e-02</internalNodes>
      <leafValues>
        5.3602688014507294e-02 -3.7121608853340149e-01</leafValues></_>
    <_>
      <internalNodes>
        0 -1 64664 -1.1254827678203583e-01</internalNodes>
      <leafValues>
        3.1539770960807800e-01 -6.0706183314323425e-02</leafValues></_>
    <_>
      <internalNodes>
        0 -1 156135 -2.4958234280347824e-03</internalNodes>
      <leafValues>
        -3.4653708338737488e-01 6.2334902584552765e-02</leafValues></_>
    <_>
      <internalNodes>
        0 -1 110999 2.2860463708639145e-02</internalNodes>
      <leafValues>
        -2.2209273651242256e-02 8.8967591524124146e-01</leafValues></_>
    <_>
      <internalNodes>
        0 -1 60420 7.9980585724115372e-04</internalNodes>
      <leafValues>
        5.8499746024608612e-02 -3.1970724463462830e-01</leafValues></_>
    <_>
      <internalNodes>
        0 -1 3592 2.4734678864479065e-01</internalNodes>
      <leafValues>
        -3.0055334791541100e-02 6.3310939073562622e-01</leafValues></_>
    <_>
      <internalNodes>
        0 -1 8160 1.3359520817175508e-03</internalNodes>
      <leafValues>
        -8.7414450943470001e-02 2.0721414685249329e-01</leafValues></_>
    <_>
      <internalNodes>
        0 -1 144199 4.2408816516399384e-03</internalNodes>
      <leafValues>
        -4.2096011340618134e-02 4.5021396875381470e-01</leafValues></_>
    <_>
      <internalNodes>
        0 -1 16934 -6.1729758977890015e-02</internalNodes>
      <leafValues>
        3.6678054928779602e-01 -4.8455037176609039e-02</leafValues></_>
    <_>
      <internalNodes>
        0 -1 23691 -1.9996194168925285e-03</internalNodes>
      <leafValues>
        1.8464915454387665e-01 -9.5850013196468353e-02</leafValues></_>
    <_>
      <internalNodes>
        0 -1 153821 3.1710661947727203e-02</internalNodes>
      <leafValues>
        -2.7354713529348373e-02 6.4621454477310181e-01</leafValues></_>
    <_>
      <internalNodes>
        0 -1 76404 -6.4607754349708557e-02</internalNodes>
      <leafValues>
        -8.2441961765289307e-01 2.5657741352915764e-02</leafValues></_>
    <_>
      <internalNodes>
        0 -1 60436 8.8768400019034743e-05</internalNodes>
      <leafValues>
        8.7785385549068451e-02 -1.9487200677394867e-01</leafValues></_>
    <_>
      <internalNodes>
        0 -1 38146 1.0280108544975519e-03</internalNodes>
      <leafValues>
        -8.8946260511875153e-02 2.1628756821155548e-01</leafValues></_>
    <_>
      <internalNodes>
        0 -1 139637 1.9654890056699514e-03</internalNodes>
      <leafValues>
        4.3624877929687500e-02 -4.3008989095687866e-01</leafValues></_>
    <_>
      <internalNodes>
        0 -1 155230 -3.7130331620573997e-03</internalNodes>
      <leafValues>
        6.0722190886735916e-02 -2.8937339782714844e-01</leafValues></_>
    <_>
      <internalNodes>
        0 -1 29051 -1.7481917142868042e-01</internalNodes>
      <leafValues>
        -5.0393838435411453e-02 4.1488692164421082e-01</leafValues></_>
    <_>
      <internalNodes>
        0 -1 78637 7.3679562774486840e-05</internalNodes>
      <leafValues>
        1.1230106651782990e-01 -1.5146671235561371e-01</leafValues></_>
    <_>
      <internalNodes>
        0 -1 131213 -3.4546114038676023e-03</internalNodes>
      <leafValues>
        3.8233178853988647e-01 -4.7396905720233917e-02</leafValues></_>
    <_>
      <internalNodes>
        0 -1 23666 -3.3317736815661192e-03</internalNodes>
      <leafValues>
        2.3403906822204590e-01 -6.5128058195114136e-02</leafValues></_>
    <_>
      <internalNodes>
        0 -1 114797 -4.5315595343708992e-03</internalNodes>
      <leafValues>
        1.2309076637029648e-01 -1.4286953210830688e-01</leafValues></_>
    <_>
      <internalNodes>
        0 -1 144469 1.4202838065102696e-04</internalNodes>
      <leafValues>
        -1.0379576683044434e-01 1.7958134412765503e-01</leafValues></_>
    <_>
      <internalNodes>
        0 -1 162268 7.5052848842460662e-05</internalNodes>
      <leafValues>
        1.1100087314844131e-01 -1.6753283143043518e-01</leafValues></_>
    <_>
      <internalNodes>
        0 -1 119061 5.3431347012519836e-02</internalNodes>
      <leafValues>
        1.4291478320956230e-02 -1.</leafValues></_>
    <_>
      <internalNodes>
        0 -1 80034 9.2319354414939880e-02</internalNodes>
      <leafValues>
        -4.5370627194643021e-02 4.1981449723243713e-01</leafValues></_>
    <_>
      <internalNodes>
        0 -1 118900 1.5412187576293945e-01</internalNodes>
      <leafValues>
        3.1030222773551941e-02 -6.1667573451995850e-01</leafValues></_>
    <_>
      <internalNodes>
        0 -1 96661 -3.4610528964549303e-03</internalNodes>
      <leafValues>
        1.3419508934020996e-01 -1.3839723169803619e-01</leafValues></_>
    <_>
      <internalNodes>
        0 -1 161764 -7.6307915151119232e-03</internalNodes>
      <leafValues>
        4.1095319390296936e-01 -4.4640783220529556e-02</leafValues></_>
    <_>
      <internalNodes>
        0 -1 50135 7.7110208570957184e-02</internalNodes>
      <leafValues>
        3.6928046494722366e-02 -5.5576485395431519e-01</leafValues></_>
    <_>
      <internalNodes>
        0 -1 161803 2.2501519415527582e-03</internalNodes>
      <leafValues>
        -8.1284180283546448e-02 2.3557369410991669e-01</leafValues></_></weakClassifiers></stage6>
</opencv_storage>
