<?xml version="1.0"?>
<opencv_storage>
<stage4>
  <maxWeakCount>24</maxWeakCount>
  <stageThreshold>-2.0415115356445312e+00</stageThreshold>
  <weakClassifiers>
    <_>
      <internalNodes>
        0 -1 14296 -2.6686880737543106e-02</internalNodes>
      <leafValues>
        -2.1551723778247833e-01 -8.6726802587509155e-01</leafValues></_>
    <_>
      <internalNodes>
        0 -1 54820 1.0533924400806427e-01</internalNodes>
      <leafValues>
        -5.6100219488143921e-01 1.0166571475565434e-02</leafValues></_>
    <_>
      <internalNodes>
        0 -1 161376 6.5964348614215851e-03</internalNodes>
      <leafValues>
        -2.2893850505352020e-01 3.5376471281051636e-01</leafValues></_>
    <_>
      <internalNodes>
        0 -1 50124 9.4956895336508751e-03</internalNodes>
      <leafValues>
        1.3417087495326996e-01 -4.9093666672706604e-01</leafValues></_>
    <_>
      <internalNodes>
        0 -1 90064 -2.4646497331559658e-03</internalNodes>
      <leafValues>
        -4.9543154239654541e-01 1.5088431537151337e-01</leafValues></_>
    <_>
      <internalNodes>
        0 -1 90064 6.9645501207560301e-04</internalNodes>
      <leafValues>
        1.6369776427745819e-01 -3.2160744071006775e-01</leafValues></_>
    <_>
      <internalNodes>
        0 -1 42488 -1.7763775587081909e-01</internalNodes>
      <leafValues>
        -3.0950340628623962e-01 1.5856692194938660e-01</leafValues></_>
    <_>
      <internalNodes>
        0 -1 4 9.6183910500258207e-05</internalNodes>
      <leafValues>
        1.4350666105747223e-01 -3.6134934425354004e-01</leafValues></_>
    <_>
      <internalNodes>
        0 -1 1103 4.7479289770126343e-01</internalNodes>
      <leafValues>
        8.2621641457080841e-02 -5.9814554452896118e-01</leafValues></_>
    <_>
      <internalNodes>
        0 -1 7254 2.8806015849113464e-02</internalNodes>
      <leafValues>
        -1.0636981576681137e-01 5.5406969785690308e-01</leafValues></_>
    <_>
      <internalNodes>
        0 -1 46995 2.7338502928614616e-02</internalNodes>
      <leafValues>
        -2.3620736598968506e-01 2.3602536320686340e-01</leafValues></_>
    <_>
      <internalNodes>
        0 -1 137365 8.0105650704354048e-04</internalNodes>
      <leafValues>
        -1.2400154769420624e-01 4.4937476515769958e-01</leafValues></_>
    <_>
      <internalNodes>
        0 -1 107731 -6.1919102445244789e-03</internalNodes>
      <leafValues>
        5.6146234273910522e-01 -8.4156669676303864e-02</leafValues></_>
    <_>
      <internalNodes>
        0 -1 80760 -4.9614463932812214e-05</internalNodes>
      <leafValues>
        -3.2294726371765137e-01 1.6187837719917297e-01</leafValues></_>
    <_>
      <internalNodes>
        0 -1 59201 8.7814070866443217e-05</internalNodes>
      <leafValues>
        1.5360881388187408e-01 -3.1252166628837585e-01</leafValues></_>
    <_>
      <internalNodes>
        0 -1 55976 2.6465736329555511e-02</internalNodes>
      <leafValues>
        -9.8079159855842590e-02 5.2506744861602783e-01</leafValues></_>
    <_>
      <internalNodes>
        0 -1 103803 -4.6462113969027996e-03</internalNodes>
      <leafValues>
        4.3660455942153931e-01 -1.0073930770158768e-01</leafValues></_>
    <_>
      <internalNodes>
        0 -1 80760 1.6295944806188345e-04</internalNodes>
      <leafValues>
        1.5416459739208221e-01 -3.2085829973220825e-01</leafValues></_>
    <_>
      <internalNodes>
        0 -1 21009 -1.5580447390675545e-02</internalNodes>
      <leafValues>
        4.4790115952491760e-01 -1.0901577025651932e-01</leafValues></_>
    <_>
      <internalNodes>
        0 -1 40321 -6.6164163872599602e-03</internalNodes>
      <leafValues>
        4.0490335226058960e-01 -1.0689791291952133e-01</leafValues></_>
    <_>
      <internalNodes>
        0 -1 159739 -2.1808965131640434e-02</internalNodes>
      <leafValues>
        -8.6564344167709351e-01 5.1622550934553146e-02</leafValues></_>
    <_>
      <internalNodes>
        0 -1 26608 1.1753913946449757e-02</internalNodes>
      <leafValues>
        -7.0561528205871582e-02 6.8478864431381226e-01</leafValues></_>
    <_>
      <internalNodes>
        0 -1 61086 -2.8688728809356689e-02</internalNodes>
      <leafValues>
        4.3900245428085327e-01 -9.1697022318840027e-02</leafValues></_>
    <_>
      <internalNodes>
        0 -1 143075 -1.1164772324264050e-02</internalNodes>
      <leafValues>
        4.3393522500991821e-01 -9.4581864774227142e-02</leafValues></_></weakClassifiers></stage4>
</opencv_storage>
