<?xml version="1.0"?>
<opencv_storage>
<stage8>
  <maxWeakCount>21</maxWeakCount>
  <stageThreshold>-1.0080468654632568e+00</stageThreshold>
  <weakClassifiers>
    <_>
      <internalNodes>
        0 -1 65342 2.0754814147949219e-01</internalNodes>
      <leafValues>
        -4.5752608776092529e-01 8.0000001192092896e-01</leafValues></_>
    <_>
      <internalNodes>
        0 -1 148037 1.0053992271423340e-02</internalNodes>
      <leafValues>
        -1.1252576857805252e-01 6.6632246971130371e-01</leafValues></_>
    <_>
      <internalNodes>
        0 -1 80841 4.5059435069561005e-04</internalNodes>
      <leafValues>
        1.2614174187183380e-01 -4.6039712429046631e-01</leafValues></_>
    <_>
      <internalNodes>
        0 -1 13451 -8.1769049167633057e-02</internalNodes>
      <leafValues>
        -3.2971194386482239e-01 1.5253469347953796e-01</leafValues></_>
    <_>
      <internalNodes>
        0 -1 121337 -1.1633462272584438e-03</internalNodes>
      <leafValues>
        7.5916513800621033e-02 -9.2218637466430664e-01</leafValues></_>
    <_>
      <internalNodes>
        0 -1 102931 -1.2858389876782894e-02</internalNodes>
      <leafValues>
        5.6228357553482056e-01 -7.5789675116539001e-02</leafValues></_>
    <_>
      <internalNodes>
        0 -1 110653 -3.0357772484421730e-03</internalNodes>
      <leafValues>
        -3.6027771234512329e-01 1.2859846651554108e-01</leafValues></_>
    <_>
      <internalNodes>
        0 -1 49796 -1.7215181142091751e-03</internalNodes>
      <leafValues>
        -3.7842029333114624e-01 1.2554383277893066e-01</leafValues></_>
    <_>
      <internalNodes>
        0 -1 71056 2.9178144410252571e-02</internalNodes>
      <leafValues>
        1.0926713794469833e-01 -5.0933647155761719e-01</leafValues></_>
    <_>
      <internalNodes>
        0 -1 51714 -6.8095428869128227e-03</internalNodes>
      <leafValues>
        2.9915788769721985e-01 -1.5796563029289246e-01</leafValues></_>
    <_>
      <internalNodes>
        0 -1 31994 7.5037130154669285e-03</internalNodes>
      <leafValues>
        -1.8571415543556213e-01 3.1319546699523926e-01</leafValues></_>
    <_>
      <internalNodes>
        0 -1 76 -3.0243530636653304e-04</internalNodes>
      <leafValues>
        1.9925236701965332e-01 -2.5411713123321533e-01</leafValues></_>
    <_>
      <internalNodes>
        0 -1 115704 6.9525264203548431e-02</internalNodes>
      <leafValues>
        1.0038811713457108e-01 -5.6825286149978638e-01</leafValues></_>
    <_>
      <internalNodes>
        0 -1 152613 -4.3202919187024236e-04</internalNodes>
      <leafValues>
        -3.0666729807853699e-01 1.5163339674472809e-01</leafValues></_>
    <_>
      <internalNodes>
        0 -1 56400 9.1959610581398010e-03</internalNodes>
      <leafValues>
        -2.0120079815387726e-01 2.8950056433677673e-01</leafValues></_>
    <_>
      <internalNodes>
        0 -1 154524 1.3496226165443659e-04</internalNodes>
      <leafValues>
        1.6722500324249268e-01 -3.2864171266555786e-01</leafValues></_>
    <_>
      <internalNodes>
        0 -1 103666 -9.9393189884722233e-04</internalNodes>
      <leafValues>
        2.3003986477851868e-01 -2.4286806583404541e-01</leafValues></_>
    <_>
      <internalNodes>
        0 -1 89236 -9.0331993997097015e-03</internalNodes>
      <leafValues>
        -7.1011394262313843e-01 7.7981293201446533e-02</leafValues></_>
    <_>
      <internalNodes>
        0 -1 159456 6.1068520881235600e-04</internalNodes>
      <leafValues>
        -2.2418290376663208e-01 2.4819605052471161e-01</leafValues></_>
    <_>
      <internalNodes>
        0 -1 70424 2.7046874165534973e-03</internalNodes>
      <leafValues>
        5.8665808290243149e-02 -8.8210064172744751e-01</leafValues></_>
    <_>
      <internalNodes>
        0 -1 146858 1.1337747855577618e-04</internalNodes>
      <leafValues>
        -2.4921223521232605e-01 2.1766337752342224e-01</leafValues></_></weakClassifiers></stage8>
</opencv_storage>
