<?xml version="1.0"?>
<opencv_storage>
<stage7>
  <maxWeakCount>18</maxWeakCount>
  <stageThreshold>-1.2542804479598999e+00</stageThreshold>
  <weakClassifiers>
    <_>
      <internalNodes>
        0 -1 148675 1.9543177913874388e-03</internalNodes>
      <leafValues>
        -5.0720000267028809e-01 3.9393940567970276e-01</leafValues></_>
    <_>
      <internalNodes>
        0 -1 4206 -4.8256902955472469e-03</internalNodes>
      <leafValues>
        2.3110695183277130e-01 -2.6565158367156982e-01</leafValues></_>
    <_>
      <internalNodes>
        0 -1 38767 -2.9842525720596313e-01</internalNodes>
      <leafValues>
        -7.0899826288223267e-01 9.1385923326015472e-02</leafValues></_>
    <_>
      <internalNodes>
        0 -1 63019 -5.8746986091136932e-02</internalNodes>
      <leafValues>
        7.2971135377883911e-01 -6.8843886256217957e-02</leafValues></_>
    <_>
      <internalNodes>
        0 -1 79232 -8.2698792219161987e-02</internalNodes>
      <leafValues>
        3.7132257223129272e-01 -2.3395045101642609e-01</leafValues></_>
    <_>
      <internalNodes>
        0 -1 11488 5.0618724344531074e-05</internalNodes>
      <leafValues>
        2.2525763511657715e-01 -2.9823875427246094e-01</leafValues></_>
    <_>
      <internalNodes>
        0 -1 145589 7.8441947698593140e-02</internalNodes>
      <leafValues>
        -1.6156950592994690e-01 4.6711173653602600e-01</leafValues></_>
    <_>
      <internalNodes>
        0 -1 161812 3.3127265051007271e-03</internalNodes>
      <leafValues>
        -1.3542054593563080e-01 5.4412060976028442e-01</leafValues></_>
    <_>
      <internalNodes>
        0 -1 102819 -1.9175917841494083e-03</internalNodes>
      <leafValues>
        4.4123509526252747e-01 -1.4683765172958374e-01</leafValues></_>
    <_>
      <internalNodes>
        0 -1 31574 1.4233754016458988e-02</internalNodes>
      <leafValues>
        1.1515843868255615e-01 -5.3429651260375977e-01</leafValues></_>
    <_>
      <internalNodes>
        0 -1 27745 -3.2290446688421071e-04</internalNodes>
      <leafValues>
        -3.0629190802574158e-01 1.8903635442256927e-01</leafValues></_>
    <_>
      <internalNodes>
        0 -1 59776 1.0664077708497643e-03</internalNodes>
      <leafValues>
        1.6236011683940887e-01 -3.7363466620445251e-01</leafValues></_>
    <_>
      <internalNodes>
        0 -1 152337 1.8181736231781542e-04</internalNodes>
      <leafValues>
        -2.9596519470214844e-01 2.0477968454360962e-01</leafValues></_>
    <_>
      <internalNodes>
        0 -1 140439 1.7007495043799281e-03</internalNodes>
      <leafValues>
        -1.6093173623085022e-01 4.6475219726562500e-01</leafValues></_>
    <_>
      <internalNodes>
        0 -1 50362 -1.1241240426898003e-02</internalNodes>
      <leafValues>
        3.1124553084373474e-01 -2.2080205380916595e-01</leafValues></_>
    <_>
      <internalNodes>
        0 -1 23186 1.5024149324744940e-03</internalNodes>
      <leafValues>
        6.5455004572868347e-02 -9.7587609291076660e-01</leafValues></_>
    <_>
      <internalNodes>
        0 -1 104031 -1.7945598810911179e-03</internalNodes>
      <leafValues>
        3.6938673257827759e-01 -1.8794374167919159e-01</leafValues></_>
    <_>
      <internalNodes>
        0 -1 13303 2.7480744392960332e-05</internalNodes>
      <leafValues>
        2.0040579140186310e-01 -3.2816690206527710e-01</leafValues></_></weakClassifiers></stage7>
</opencv_storage>
