<?xml version="1.0"?>
<opencv_storage>
<stage3>
  <maxWeakCount>44</maxWeakCount>
  <stageThreshold>-6.1068862676620483e-01</stageThreshold>
  <weakClassifiers>
    <_>
      <internalNodes>
        0 -1 90293 -2.2482322528958321e-02</internalNodes>
      <leafValues>
        5.2466368675231934e-01 -2.0656634867191315e-01</leafValues></_>
    <_>
      <internalNodes>
        0 -1 80772 -2.4827947840094566e-02</internalNodes>
      <leafValues>
        -6.3495993614196777e-01 1.3453824818134308e-01</leafValues></_>
    <_>
      <internalNodes>
        0 -1 114449 -1.3908885419368744e-02</internalNodes>
      <leafValues>
        1.6526190936565399e-01 -6.2140882015228271e-01</leafValues></_>
    <_>
      <internalNodes>
        0 -1 114884 -1.2805652804672718e-02</internalNodes>
      <leafValues>
        6.6650944948196411e-01 -1.3142360746860504e-01</leafValues></_>
    <_>
      <internalNodes>
        0 -1 89824 7.8553806815762073e-05</internalNodes>
      <leafValues>
        1.5529841184616089e-01 -3.7689894437789917e-01</leafValues></_>
    <_>
      <internalNodes>
        0 -1 89824 -5.1003993576159701e-05</internalNodes>
      <leafValues>
        -2.8799432516098022e-01 2.1564845740795135e-01</leafValues></_>
    <_>
      <internalNodes>
        0 -1 66337 -2.8157224878668785e-03</internalNodes>
      <leafValues>
        5.5178904533386230e-01 -1.3513736426830292e-01</leafValues></_>
    <_>
      <internalNodes>
        0 -1 96689 -8.6533520370721817e-03</internalNodes>
      <leafValues>
        2.8863117098808289e-01 -1.6920526325702667e-01</leafValues></_>
    <_>
      <internalNodes>
        0 -1 107312 3.9584398269653320e-02</internalNodes>
      <leafValues>
        -7.9424485564231873e-02 7.4748957157135010e-01</leafValues></_>
    <_>
      <internalNodes>
        0 -1 161812 -5.2811126224696636e-03</internalNodes>
      <leafValues>
        5.4073107242584229e-01 -7.8348621726036072e-02</leafValues></_>
    <_>
      <internalNodes>
        0 -1 15602 -2.5284208357334137e-02</internalNodes>
      <leafValues>
        1.0973917692899704e-01 -5.0065380334854126e-01</leafValues></_>
    <_>
      <internalNodes>
        0 -1 128200 -1.0767332278192043e-03</internalNodes>
      <leafValues>
        -3.9782378077507019e-01 1.2065574526786804e-01</leafValues></_>
    <_>
      <internalNodes>
        0 -1 77515 -1.9890986382961273e-02</internalNodes>
      <leafValues>
        7.3214221000671387e-01 -8.6452491581439972e-02</leafValues></_>
    <_>
      <internalNodes>
        0 -1 59957 1.7373792070429772e-04</internalNodes>
      <leafValues>
        1.5839593112468719e-01 -3.1816944479942322e-01</leafValues></_>
    <_>
      <internalNodes>
        0 -1 162093 -1.9708190113306046e-02</internalNodes>
      <leafValues>
        -6.8444681167602539e-01 7.0087328553199768e-02</leafValues></_>
    <_>
      <internalNodes>
        0 -1 105117 1.1861568782478571e-03</internalNodes>
      <leafValues>
        -1.2063204497098923e-01 4.5092737674713135e-01</leafValues></_>
    <_>
      <internalNodes>
        0 -1 111817 1.7546955496072769e-03</internalNodes>
      <leafValues>
        -1.0156656801700592e-01 4.9732437729835510e-01</leafValues></_>
    <_>
      <internalNodes>
        0 -1 127996 -1.3348512584343553e-04</internalNodes>
      <leafValues>
        -2.8028777241706848e-01 1.7254875600337982e-01</leafValues></_>
    <_>
      <internalNodes>
        0 -1 7265 1.1115171015262604e-02</internalNodes>
      <leafValues>
        -7.5976736843585968e-02 6.8007546663284302e-01</leafValues></_>
    <_>
      <internalNodes>
        0 -1 7451 -6.1833113431930542e-03</internalNodes>
      <leafValues>
        4.5032438635826111e-01 -1.0704782605171204e-01</leafValues></_>
    <_>
      <internalNodes>
        0 -1 9436 -4.7399417962878942e-04</internalNodes>
      <leafValues>
        -4.0237638354301453e-01 1.2741950154304504e-01</leafValues></_>
    <_>
      <internalNodes>
        0 -1 138460 4.8148349742405117e-04</internalNodes>
      <leafValues>
        -1.2079317122697830e-01 3.9466890692710876e-01</leafValues></_>
    <_>
      <internalNodes>
        0 -1 161158 3.8703077007085085e-04</internalNodes>
      <leafValues>
        1.4286030828952789e-01 -3.2539856433868408e-01</leafValues></_>
    <_>
      <internalNodes>
        0 -1 133756 2.3392151342704892e-04</internalNodes>
      <leafValues>
        1.2241499871015549e-01 -3.5218366980552673e-01</leafValues></_>
    <_>
      <internalNodes>
        0 -1 97457 1.0976836783811450e-03</internalNodes>
      <leafValues>
        -1.4409610629081726e-01 3.4049391746520996e-01</leafValues></_>
    <_>
      <internalNodes>
        0 -1 71645 -2.2722240537405014e-03</internalNodes>
      <leafValues>
        2.3515453934669495e-01 -1.9640395045280457e-01</leafValues></_>
    <_>
      <internalNodes>
        0 -1 159317 5.4841428063809872e-03</internalNodes>
      <leafValues>
        -7.3943711817264557e-02 6.2434214353561401e-01</leafValues></_>
    <_>
      <internalNodes>
        0 -1 97789 -2.0621069706976414e-03</internalNodes>
      <leafValues>
        3.1489351391792297e-01 -1.3637745380401611e-01</leafValues></_>
    <_>
      <internalNodes>
        0 -1 25884 2.6729595847427845e-03</internalNodes>
      <leafValues>
        8.3888992667198181e-02 -6.2965399026870728e-01</leafValues></_>
    <_>
      <internalNodes>
        0 -1 50970 -1.9895964860916138e-01</internalNodes>
      <leafValues>
        5.3033459186553955e-01 -9.7592271864414215e-02</leafValues></_>
    <_>
      <internalNodes>
        0 -1 18920 3.8659612182527781e-03</internalNodes>
      <leafValues>
        -5.6402850896120071e-02 7.2462135553359985e-01</leafValues></_>
    <_>
      <internalNodes>
        0 -1 109634 9.8940683528780937e-05</internalNodes>
      <leafValues>
        1.8924391269683838e-01 -2.6317846775054932e-01</leafValues></_>
    <_>
      <internalNodes>
        0 -1 107235 -5.4275747388601303e-03</internalNodes>
      <leafValues>
        5.2445805072784424e-01 -9.5087923109531403e-02</leafValues></_>
    <_>
      <internalNodes>
        0 -1 124836 -6.8339265882968903e-02</internalNodes>
      <leafValues>
        7.0913203060626984e-02 -7.1466749906539917e-01</leafValues></_>
    <_>
      <internalNodes>
        0 -1 13179 -7.7508036047220230e-03</internalNodes>
      <leafValues>
        -5.1074713468551636e-01 8.5597433149814606e-02</leafValues></_>
    <_>
      <internalNodes>
        0 -1 32141 -7.9899802803993225e-03</internalNodes>
      <leafValues>
        4.6805146336555481e-01 -9.7723565995693207e-02</leafValues></_>
    <_>
      <internalNodes>
        0 -1 14350 -3.7134689092636108e-01</internalNodes>
      <leafValues>
        -7.7315449714660645e-01 6.6393211483955383e-02</leafValues></_>
    <_>
      <internalNodes>
        0 -1 65277 9.5006525516510010e-03</internalNodes>
      <leafValues>
        -6.7745000123977661e-02 7.3081570863723755e-01</leafValues></_>
    <_>
      <internalNodes>
        0 -1 50993 2.1331563591957092e-02</internalNodes>
      <leafValues>
        -8.1294238567352295e-02 4.7353601455688477e-01</leafValues></_>
    <_>
      <internalNodes>
        0 -1 127871 1.8226527026854455e-04</internalNodes>
      <leafValues>
        1.9795422255992889e-01 -2.2767366468906403e-01</leafValues></_>
    <_>
      <internalNodes>
        0 -1 13370 3.9664516225457191e-03</internalNodes>
      <leafValues>
        -1.6820380091667175e-01 2.7875807881355286e-01</leafValues></_>
    <_>
      <internalNodes>
        0 -1 98652 -3.1299487454816699e-04</internalNodes>
      <leafValues>
        -3.9989286661148071e-01 1.0851558297872543e-01</leafValues></_>
    <_>
      <internalNodes>
        0 -1 38248 -3.6387108266353607e-02</internalNodes>
      <leafValues>
        7.6033480465412140e-02 -6.0073715448379517e-01</leafValues></_>
    <_>
      <internalNodes>
        0 -1 161590 -8.2537188427522779e-04</internalNodes>
      <leafValues>
        -6.0765437781810760e-02 8.8516819477081299e-01</leafValues></_></weakClassifiers></stage3>
</opencv_storage>
