<?xml version="1.0"?>
<opencv_storage>
<stage9>
  <maxWeakCount>73</maxWeakCount>
  <stageThreshold>-4.5689186453819275e-01</stageThreshold>
  <weakClassifiers>
    <_>
      <internalNodes>
        0 -1 18719 9.9826529622077942e-02</internalNodes>
      <leafValues>
        -5.0058208405971527e-02 4.4916820526123047e-01</leafValues></_>
    <_>
      <internalNodes>
        0 -1 162258 -4.8395926132798195e-03</internalNodes>
      <leafValues>
        2.2505879402160645e-01 -2.1377208828926086e-01</leafValues></_>
    <_>
      <internalNodes>
        0 -1 160887 -2.3736788425594568e-03</internalNodes>
      <leafValues>
        4.9567261338233948e-01 -6.5026730298995972e-02</leafValues></_>
    <_>
      <internalNodes>
        0 -1 14454 -1.0272922227159142e-03</internalNodes>
      <leafValues>
        1.7847909033298492e-01 -1.8369479477405548e-01</leafValues></_>
    <_>
      <internalNodes>
        0 -1 159548 8.8877575763035566e-05</internalNodes>
      <leafValues>
        1.6266830265522003e-01 -1.9693985581398010e-01</leafValues></_>
    <_>
      <internalNodes>
        0 -1 14067 4.5360508374869823e-03</internalNodes>
      <leafValues>
        -1.0499083250761032e-01 3.2966214418411255e-01</leafValues></_>
    <_>
      <internalNodes>
        0 -1 8137 4.1056273039430380e-04</internalNodes>
      <leafValues>
        9.8512463271617889e-02 -3.4089392423629761e-01</leafValues></_>
    <_>
      <internalNodes>
        0 -1 92031 2.1735383197665215e-03</internalNodes>
      <leafValues>
        -7.5510203838348389e-02 3.6375555396080017e-01</leafValues></_>
    <_>
      <internalNodes>
        0 -1 162 -2.6188764721155167e-02</internalNodes>
      <leafValues>
        -5.1141732931137085e-01 4.9531765282154083e-02</leafValues></_>
    <_>
      <internalNodes>
        0 -1 69252 -6.8116620182991028e-02</internalNodes>
      <leafValues>
        -3.9795404672622681e-01 6.8926319479942322e-02</leafValues></_>
    <_>
      <internalNodes>
        0 -1 155025 -1.0509804997127503e-04</internalNodes>
      <leafValues>
        -1.7266602814197540e-01 1.5195782482624054e-01</leafValues></_>
    <_>
      <internalNodes>
        0 -1 94708 -1.0119578801095486e-03</internalNodes>
      <leafValues>
        4.2684298753738403e-01 -6.9364950060844421e-02</leafValues></_>
    <_>
      <internalNodes>
        0 -1 85665 7.9509563744068146e-02</internalNodes>
      <leafValues>
        4.2073186486959457e-02 -5.8228766918182373e-01</leafValues></_>
    <_>
      <internalNodes>
        0 -1 18044 2.9892812017351389e-03</internalNodes>
      <leafValues>
        -1.2715965509414673e-01 2.1027970314025879e-01</leafValues></_>
    <_>
      <internalNodes>
        0 -1 41 2.3117180913686752e-02</internalNodes>
      <leafValues>
        5.9856753796339035e-02 -5.2809941768646240e-01</leafValues></_>
    <_>
      <internalNodes>
        0 -1 144029 -1.0574889165582135e-04</internalNodes>
      <leafValues>
        -2.2527669370174408e-01 1.3032659888267517e-01</leafValues></_>
    <_>
      <internalNodes>
        0 -1 37216 1.9095899187959731e-04</internalNodes>
      <leafValues>
        1.0081598162651062e-01 -2.6777395606040955e-01</leafValues></_>
    <_>
      <internalNodes>
        0 -1 13251 6.3878502696752548e-03</internalNodes>
      <leafValues>
        -6.0587089508771896e-02 4.2022541165351868e-01</leafValues></_>
    <_>
      <internalNodes>
        0 -1 44465 8.7258573621511459e-03</internalNodes>
      <leafValues>
        -1.1366059631109238e-01 2.5391915440559387e-01</leafValues></_>
    <_>
      <internalNodes>
        0 -1 126699 -7.5738001614809036e-03</internalNodes>
      <leafValues>
        3.9492723345756531e-01 -6.8125367164611816e-02</leafValues></_>
    <_>
      <internalNodes>
        0 -1 114401 3.6059261765331030e-04</internalNodes>
      <leafValues>
        8.5548192262649536e-02 -3.0559325218200684e-01</leafValues></_>
    <_>
      <internalNodes>
        0 -1 132607 -2.3106629960238934e-03</internalNodes>
      <leafValues>
        1.9652894139289856e-01 -1.3419102132320404e-01</leafValues></_>
    <_>
      <internalNodes>
        0 -1 39007 2.0708672236651182e-03</internalNodes>
      <leafValues>
        -4.6855784952640533e-02 5.6275272369384766e-01</leafValues></_>
    <_>
      <internalNodes>
        0 -1 49253 1.0083277709782124e-02</internalNodes>
      <leafValues>
        -1.2995673716068268e-01 2.1058289706707001e-01</leafValues></_>
    <_>
      <internalNodes>
        0 -1 91492 9.4610005617141724e-02</internalNodes>
      <leafValues>
        5.7554479688405991e-02 -5.4941076040267944e-01</leafValues></_>
    <_>
      <internalNodes>
        0 -1 81935 -1.0814180132001638e-03</internalNodes>
      <leafValues>
        1.7727963626384735e-01 -1.4784659445285797e-01</leafValues></_>
    <_>
      <internalNodes>
        0 -1 121304 1.6064605733845383e-04</internalNodes>
      <leafValues>
        1.1752424389123917e-01 -2.0326481759548187e-01</leafValues></_>
    <_>
      <internalNodes>
        0 -1 104459 -4.7559835948050022e-03</internalNodes>
      <leafValues>
        2.5206577777862549e-01 -1.0145568102598190e-01</leafValues></_>
    <_>
      <internalNodes>
        0 -1 13370 3.8432548753917217e-03</internalNodes>
      <leafValues>
        -1.3174271583557129e-01 1.8208818137645721e-01</leafValues></_>
    <_>
      <internalNodes>
        0 -1 80485 1.3472298451233655e-04</internalNodes>
      <leafValues>
        1.7652228474617004e-01 -1.8507389724254608e-01</leafValues></_>
    <_>
      <internalNodes>
        0 -1 158114 5.6977313943207264e-04</internalNodes>
      <leafValues>
        1.1084399372339249e-01 -2.4262307584285736e-01</leafValues></_>
    <_>
      <internalNodes>
        0 -1 153052 3.4513007849454880e-03</internalNodes>
      <leafValues>
        -1.7009200155735016e-01 2.1492163836956024e-01</leafValues></_>
    <_>
      <internalNodes>
        0 -1 158172 -3.4987365361303091e-03</internalNodes>
      <leafValues>
        4.7609922289848328e-01 -6.6639661788940430e-02</leafValues></_>
    <_>
      <internalNodes>
        0 -1 46816 -1.2032493948936462e-02</internalNodes>
      <leafValues>
        8.0449527502059937e-01 -2.8752915561199188e-02</leafValues></_>
    <_>
      <internalNodes>
        0 -1 162296 -1.0476149327587336e-04</internalNodes>
      <leafValues>
        -2.1272797882556915e-01 1.2644335627555847e-01</leafValues></_>
    <_>
      <internalNodes>
        0 -1 160670 -9.8513094708323479e-03</internalNodes>
      <leafValues>
        3.5702270269393921e-01 -8.4131501615047455e-02</leafValues></_>
    <_>
      <internalNodes>
        0 -1 158729 2.8420414775609970e-02</internalNodes>
      <leafValues>
        -3.1379390507936478e-02 8.4542459249496460e-01</leafValues></_>
    <_>
      <internalNodes>
        0 -1 81065 -9.5734566450119019e-02</internalNodes>
      <leafValues>
        4.2321383953094482e-02 -7.1837788820266724e-01</leafValues></_>
    <_>
      <internalNodes>
        0 -1 161610 -3.5433096345514059e-03</internalNodes>
      <leafValues>
        2.8026071190834045e-01 -1.0680645704269409e-01</leafValues></_>
    <_>
      <internalNodes>
        0 -1 113501 9.6592046320438385e-02</internalNodes>
      <leafValues>
        6.9700986146926880e-02 -4.6552154421806335e-01</leafValues></_>
    <_>
      <internalNodes>
        0 -1 155227 -1.2505210179369897e-04</internalNodes>
      <leafValues>
        -2.2114929556846619e-01 1.1391244828701019e-01</leafValues></_>
    <_>
      <internalNodes>
        0 -1 159732 1.5400032862089574e-04</internalNodes>
      <leafValues>
        9.3380182981491089e-02 -2.7624064683914185e-01</leafValues></_>
    <_>
      <internalNodes>
        0 -1 135562 -5.4687764495611191e-03</internalNodes>
      <leafValues>
        6.0812997817993164e-01 -4.6133134514093399e-02</leafValues></_>
    <_>
      <internalNodes>
        0 -1 129137 -5.2585292607545853e-02</internalNodes>
      <leafValues>
        5.1162838935852051e-01 -4.6083994209766388e-02</leafValues></_>
    <_>
      <internalNodes>
        0 -1 86801 2.8041826561093330e-02</internalNodes>
      <leafValues>
        -3.7027455866336823e-02 6.4746499061584473e-01</leafValues></_>
    <_>
      <internalNodes>
        0 -1 4985 6.6609296482056379e-04</internalNodes>
      <leafValues>
        7.3962442576885223e-02 -3.3579114079475403e-01</leafValues></_>
    <_>
      <internalNodes>
        0 -1 9215 -4.9248181283473969e-02</internalNodes>
      <leafValues>
        8.0405032634735107e-01 -3.0673453584313393e-02</leafValues></_>
    <_>
      <internalNodes>
        0 -1 24431 1.4755909796804190e-03</internalNodes>
      <leafValues>
        7.9910285770893097e-02 -3.4557583928108215e-01</leafValues></_>
    <_>
      <internalNodes>
        0 -1 35040 4.3091684579849243e-02</internalNodes>
      <leafValues>
        -3.9540901780128479e-02 7.1263873577117920e-01</leafValues></_>
    <_>
      <internalNodes>
        0 -1 128129 -5.3675659000873566e-04</internalNodes>
      <leafValues>
        2.0872412621974945e-01 -1.2267755717039108e-01</leafValues></_>
    <_>
      <internalNodes>
        0 -1 107582 4.7371824621222913e-04</internalNodes>
      <leafValues>
        -1.0009740293025970e-01 2.3674356937408447e-01</leafValues></_>
    <_>
      <internalNodes>
        0 -1 1185 1.0834780521690845e-02</internalNodes>
      <leafValues>
        3.3039953559637070e-02 -8.4454977512359619e-01</leafValues></_>
    <_>
      <internalNodes>
        0 -1 126357 1.6012599226087332e-03</internalNodes>
      <leafValues>
        -8.0242820084095001e-02 3.3447870612144470e-01</leafValues></_>
    <_>
      <internalNodes>
        0 -1 108822 -6.6408455371856689e-02</internalNodes>
      <leafValues>
        -5.4362761974334717e-01 5.0954855978488922e-02</leafValues></_>
    <_>
      <internalNodes>
        0 -1 25786 -2.0430434960871935e-04</internalNodes>
      <leafValues>
        -2.2334575653076172e-01 1.1081987619400024e-01</leafValues></_>
    <_>
      <internalNodes>
        0 -1 6604 6.1146706342697144e-02</internalNodes>
      <leafValues>
        -7.1168787777423859e-02 3.6771279573440552e-01</leafValues></_>
    <_>
      <internalNodes>
        0 -1 5906 -5.6113712489604950e-03</internalNodes>
      <leafValues>
        3.2870972156524658e-01 -8.4854654967784882e-02</leafValues></_>
    <_>
      <internalNodes>
        0 -1 147763 -5.8657201007008553e-03</internalNodes>
      <leafValues>
        2.6199781894683838e-01 -1.1147977411746979e-01</leafValues></_>
    <_>
      <internalNodes>
        0 -1 127632 2.5177444331347942e-03</internalNodes>
      <leafValues>
        5.9656530618667603e-02 -4.8230293393135071e-01</leafValues></_>
    <_>
      <internalNodes>
        0 -1 156656 -1.4210860431194305e-01</internalNodes>
      <leafValues>
        4.5732101798057556e-01 -6.1056699603796005e-02</leafValues></_>
    <_>
      <internalNodes>
        0 -1 13372 1.7425627447664738e-04</internalNodes>
      <leafValues>
        9.4156146049499512e-02 -2.9512813687324524e-01</leafValues></_>
    <_>
      <internalNodes>
        0 -1 3332 -2.5276005268096924e-01</internalNodes>
      <leafValues>
        -2.0850008726119995e-01 1.3270872831344604e-01</leafValues></_>
    <_>
      <internalNodes>
        0 -1 70224 -3.1825747340917587e-02</internalNodes>
      <leafValues>
        6.4627863466739655e-02 -5.0577837228775024e-01</leafValues></_>
    <_>
      <internalNodes>
        0 -1 130855 -5.1950814668089151e-04</internalNodes>
      <leafValues>
        1.7190457880496979e-01 -1.7729301750659943e-01</leafValues></_>
    <_>
      <internalNodes>
        0 -1 25377 5.3494740277528763e-03</internalNodes>
      <leafValues>
        6.2744304537773132e-02 -4.7403690218925476e-01</leafValues></_>
    <_>
      <internalNodes>
        0 -1 37478 -1.9173009786754847e-03</internalNodes>
      <leafValues>
        -4.5655641704797745e-02 6.5006113052368164e-01</leafValues></_>
    <_>
      <internalNodes>
        0 -1 112295 -4.3330956250429153e-03</internalNodes>
      <leafValues>
        3.7858986854553223e-01 -6.4520910382270813e-02</leafValues></_>
    <_>
      <internalNodes>
        0 -1 11565 -2.2977834567427635e-02</internalNodes>
      <leafValues>
        3.3177247643470764e-01 -7.7263869345188141e-02</leafValues></_>
    <_>
      <internalNodes>
        0 -1 137313 1.1931625194847584e-03</internalNodes>
      <leafValues>
        1.1320571601390839e-01 -2.2612445056438446e-01</leafValues></_>
    <_>
      <internalNodes>
        0 -1 155535 3.3884424716234207e-02</internalNodes>
      <leafValues>
        -8.6243458092212677e-02 3.9428377151489258e-01</leafValues></_>
    <_>
      <internalNodes>
        0 -1 13369 -1.0216882452368736e-02</internalNodes>
      <leafValues>
        5.7332706451416016e-01 -4.3965253978967667e-02</leafValues></_>
    <_>
      <internalNodes>
        0 -1 8166 6.5539125353097916e-04</internalNodes>
      <leafValues>
        1.3273920118808746e-01 -2.0908118784427643e-01</leafValues></_>
    <_>
      <internalNodes>
        0 -1 17284 8.5938218981027603e-03</internalNodes>
      <leafValues>
        -1.4582449197769165e-01 2.1763382852077484e-01</leafValues></_></weakClassifiers></stage9>
</opencv_storage>
