<?xml version="1.0"?>
<opencv_storage>
<stage0>
  <maxWeakCount>6</maxWeakCount>
  <stageThreshold>-2.4549667835235596e+00</stageThreshold>
  <weakClassifiers>
    <_>
      <internalNodes>
        0 -1 44291 -1.5599624812602997e-01</internalNodes>
      <leafValues>
        -9.3520420789718628e-01 1.8347106873989105e-01</leafValues></_>
    <_>
      <internalNodes>
        0 -1 14480 -1.2739855051040649e-01</internalNodes>
      <leafValues>
        -8.8699239492416382e-01 5.3499024361371994e-02</leafValues></_>
    <_>
      <internalNodes>
        0 -1 61208 -4.6977754682302475e-02</internalNodes>
      <leafValues>
        5.3820550441741943e-01 -4.8637899756431580e-01</leafValues></_>
    <_>
      <internalNodes>
        0 -1 161466 -9.7948759794235229e-03</internalNodes>
      <leafValues>
        -7.8404074907302856e-01 2.3473432660102844e-01</leafValues></_>
    <_>
      <internalNodes>
        0 -1 1173 -6.6435411572456360e-03</internalNodes>
      <leafValues>
        4.6480238437652588e-01 -2.5988698005676270e-01</leafValues></_>
    <_>
      <internalNodes>
        0 -1 75461 -2.7961406856775284e-02</internalNodes>
      <leafValues>
        6.1252337694168091e-01 -1.2123855948448181e-01</leafValues></_></weakClassifiers></stage0>
</opencv_storage>
