<?xml version="1.0"?>
<opencv_storage>
<stage1>
  <maxWeakCount>42</maxWeakCount>
  <stageThreshold>-7.0830971002578735e-01</stageThreshold>
  <weakClassifiers>
    <_>
      <internalNodes>
        0 -1 155492 -1.1920180916786194e-01</internalNodes>
      <leafValues>
        -6.0052222013473511e-01 5.5363321304321289e-01</leafValues></_>
    <_>
      <internalNodes>
        0 -1 38790 -2.4518139660358429e-02</internalNodes>
      <leafValues>
        6.3610208034515381e-01 -2.9697072505950928e-01</leafValues></_>
    <_>
      <internalNodes>
        0 -1 4240 -1.2524925172328949e-01</internalNodes>
      <leafValues>
        -4.2848512530326843e-01 2.6518720388412476e-01</leafValues></_>
    <_>
      <internalNodes>
        0 -1 1175 -3.6520664580166340e-03</internalNodes>
      <leafValues>
        3.4122058749198914e-01 -2.6256319880485535e-01</leafValues></_>
    <_>
      <internalNodes>
        0 -1 161227 6.4662443473935127e-03</internalNodes>
      <leafValues>
        -1.5829327702522278e-01 5.2158141136169434e-01</leafValues></_>
    <_>
      <internalNodes>
        0 -1 118305 1.3924163067713380e-03</internalNodes>
      <leafValues>
        -1.3000707328319550e-01 5.2213490009307861e-01</leafValues></_>
    <_>
      <internalNodes>
        0 -1 60516 -4.3993711005896330e-04</internalNodes>
      <leafValues>
        -4.4324842095375061e-01 1.5179303288459778e-01</leafValues></_>
    <_>
      <internalNodes>
        0 -1 94441 6.9137820973992348e-03</internalNodes>
      <leafValues>
        -1.5212884545326233e-01 4.5732790231704712e-01</leafValues></_>
    <_>
      <internalNodes>
        0 -1 83341 4.6478174626827240e-02</internalNodes>
      <leafValues>
        -1.7130891978740692e-01 4.1722807288169861e-01</leafValues></_>
    <_>
      <internalNodes>
        0 -1 136800 -9.8502822220325470e-03</internalNodes>
      <leafValues>
        -1.5058602392673492e-01 4.3160232901573181e-01</leafValues></_>
    <_>
      <internalNodes>
        0 -1 112211 -2.1948562934994698e-03</internalNodes>
      <leafValues>
        5.4834979772567749e-01 -1.1520853638648987e-01</leafValues></_>
    <_>
      <internalNodes>
        0 -1 26816 -3.1692821532487869e-02</internalNodes>
      <leafValues>
        -9.8256343603134155e-01 7.3324702680110931e-02</leafValues></_>
    <_>
      <internalNodes>
        0 -1 119302 6.0713069979101419e-04</internalNodes>
      <leafValues>
        -1.3695061206817627e-01 5.0276577472686768e-01</leafValues></_>
    <_>
      <internalNodes>
        0 -1 5034 6.0161594301462173e-03</internalNodes>
      <leafValues>
        -7.7327825129032135e-02 6.8567937612533569e-01</leafValues></_>
    <_>
      <internalNodes>
        0 -1 696 8.2032084465026855e-03</internalNodes>
      <leafValues>
        1.5288868546485901e-01 -4.3276482820510864e-01</leafValues></_>
    <_>
      <internalNodes>
        0 -1 49956 -4.2622396722435951e-03</internalNodes>
      <leafValues>
        -4.8080459237098694e-01 1.4394010603427887e-01</leafValues></_>
    <_>
      <internalNodes>
        0 -1 1103 5.5200827121734619e-01</internalNodes>
      <leafValues>
        8.3645284175872803e-02 -7.4732536077499390e-01</leafValues></_>
    <_>
      <internalNodes>
        0 -1 50340 -1.5832383185625076e-02</internalNodes>
      <leafValues>
        5.9043729305267334e-01 -1.1726216226816177e-01</leafValues></_>
    <_>
      <internalNodes>
        0 -1 161558 -7.8095174394547939e-03</internalNodes>
      <leafValues>
        6.0406124591827393e-01 -8.8230408728122711e-02</leafValues></_>
    <_>
      <internalNodes>
        0 -1 26747 -5.7551932334899902e-01</internalNodes>
      <leafValues>
        -9.4177246093750000e-01 6.1812255531549454e-02</leafValues></_>
    <_>
      <internalNodes>
        0 -1 130419 -1.2888671830296516e-02</internalNodes>
      <leafValues>
        2.9459801316261292e-01 -2.0183640718460083e-01</leafValues></_>
    <_>
      <internalNodes>
        0 -1 46486 1.4946838840842247e-02</internalNodes>
      <leafValues>
        -1.6696150600910187e-01 3.0604210495948792e-01</leafValues></_>
    <_>
      <internalNodes>
        0 -1 139316 -4.3565756641328335e-04</internalNodes>
      <leafValues>
        -3.0843031406402588e-01 1.6957902908325195e-01</leafValues></_>
    <_>
      <internalNodes>
        0 -1 797 2.0139145851135254e-01</internalNodes>
      <leafValues>
        9.0720675885677338e-02 -4.9569746851921082e-01</leafValues></_>
    <_>
      <internalNodes>
        0 -1 12233 1.0040306369774044e-04</internalNodes>
      <leafValues>
        1.4937467873096466e-01 -2.9716938734054565e-01</leafValues></_>
    <_>
      <internalNodes>
        0 -1 119757 2.4890606291592121e-03</internalNodes>
      <leafValues>
        -1.1433172225952148e-01 3.7174335122108459e-01</leafValues></_>
    <_>
      <internalNodes>
        0 -1 135533 -1.2803398072719574e-02</internalNodes>
      <leafValues>
        3.4949457645416260e-01 -1.1413371562957764e-01</leafValues></_>
    <_>
      <internalNodes>
        0 -1 31220 -1.4884646236896515e-01</internalNodes>
      <leafValues>
        -1.9418466091156006e-01 2.4841327965259552e-01</leafValues></_>
    <_>
      <internalNodes>
        0 -1 149069 -1.9414259586483240e-03</internalNodes>
      <leafValues>
        2.7314338088035583e-01 -1.7098204791545868e-01</leafValues></_>
    <_>
      <internalNodes>
        0 -1 99913 2.2915415465831757e-02</internalNodes>
      <leafValues>
        -8.4246255457401276e-02 5.7970720529556274e-01</leafValues></_>
    <_>
      <internalNodes>
        0 -1 133836 3.2414938323199749e-04</internalNodes>
      <leafValues>
        1.5447120368480682e-01 -2.8160020709037781e-01</leafValues></_>
    <_>
      <internalNodes>
        0 -1 941 -4.1151016950607300e-01</internalNodes>
      <leafValues>
        -7.9401642084121704e-01 4.7343436628580093e-02</leafValues></_>
    <_>
      <internalNodes>
        0 -1 157514 1.0624012065818533e-04</internalNodes>
      <leafValues>
        1.7983113229274750e-01 -2.5066143274307251e-01</leafValues></_>
    <_>
      <internalNodes>
        0 -1 160732 8.0371163785457611e-03</internalNodes>
      <leafValues>
        -1.0247354209423065e-01 4.8285990953445435e-01</leafValues></_>
    <_>
      <internalNodes>
        0 -1 24739 -2.2120211273431778e-02</internalNodes>
      <leafValues>
        -6.3009256124496460e-01 8.1100560724735260e-02</leafValues></_>
    <_>
      <internalNodes>
        0 -1 130579 -4.2036008089780807e-03</internalNodes>
      <leafValues>
        3.9775303006172180e-01 -1.2025299668312073e-01</leafValues></_>
    <_>
      <internalNodes>
        0 -1 131245 2.5560590438544750e-03</internalNodes>
      <leafValues>
        -1.4043092727661133e-01 3.3245092630386353e-01</leafValues></_>
    <_>
      <internalNodes>
        0 -1 21106 5.0433769822120667e-02</internalNodes>
      <leafValues>
        -5.5785372853279114e-02 7.2748732566833496e-01</leafValues></_>
    <_>
      <internalNodes>
        0 -1 139556 -5.6279045529663563e-03</internalNodes>
      <leafValues>
        2.4659462273120880e-01 -1.7129512131214142e-01</leafValues></_>
    <_>
      <internalNodes>
        0 -1 149459 5.2410026546567678e-04</internalNodes>
      <leafValues>
        1.5747743844985962e-01 -2.9556280374526978e-01</leafValues></_>
    <_>
      <internalNodes>
        0 -1 101403 3.3087865449488163e-03</internalNodes>
      <leafValues>
        -1.1142048984766006e-01 4.2482319474220276e-01</leafValues></_>
    <_>
      <internalNodes>
        0 -1 101514 -2.6706387288868427e-03</internalNodes>
      <leafValues>
        3.3087202906608582e-01 -1.3267099857330322e-01</leafValues></_></weakClassifiers></stage1>
</opencv_storage>
