<?xml version="1.0"?>
<opencv_storage>
<stage7>
  <maxWeakCount>100</maxWeakCount>
  <stageThreshold>-4.9309015274047852e-01</stageThreshold>
  <weakClassifiers>
    <_>
      <internalNodes>
        0 -1 26770 -2.4600621312856674e-02</internalNodes>
      <leafValues>
        4.9920254945755005e-01 -1.0112359374761581e-01</leafValues></_>
    <_>
      <internalNodes>
        0 -1 87817 -1.8645203113555908e-01</internalNodes>
      <leafValues>
        6.2712895870208740e-01 -7.7595867216587067e-02</leafValues></_>
    <_>
      <internalNodes>
        0 -1 114362 -1.1317555618006736e-04</internalNodes>
      <leafValues>
        -2.7505666017532349e-01 1.1272624880075455e-01</leafValues></_>
    <_>
      <internalNodes>
        0 -1 114401 1.2564186181407422e-04</internalNodes>
      <leafValues>
        1.1625209450721741e-01 -2.7380707859992981e-01</leafValues></_>
    <_>
      <internalNodes>
        0 -1 104535 -3.3577404916286469e-02</internalNodes>
      <leafValues>
        -5.4886311292648315e-01 4.5416697859764099e-02</leafValues></_>
    <_>
      <internalNodes>
        0 -1 91 -1.5250827185809612e-02</internalNodes>
      <leafValues>
        -5.8088421821594238e-01 8.2195460796356201e-02</leafValues></_>
    <_>
      <internalNodes>
        0 -1 162289 -3.8606571033596992e-03</internalNodes>
      <leafValues>
        1.1034735292196274e-01 -2.4055717885494232e-01</leafValues></_>
    <_>
      <internalNodes>
        0 -1 162309 -1.5438562259078026e-03</internalNodes>
      <leafValues>
        -3.3180870115756989e-02 7.2783601284027100e-01</leafValues></_>
    <_>
      <internalNodes>
        0 -1 89904 1.7049690941348672e-03</internalNodes>
      <leafValues>
        5.3541664034128189e-02 -4.8015561699867249e-01</leafValues></_>
    <_>
      <internalNodes>
        0 -1 87706 4.6299740672111511e-02</internalNodes>
      <leafValues>
        3.4966468811035156e-02 -6.8792009353637695e-01</leafValues></_>
    <_>
      <internalNodes>
        0 -1 36097 7.3489464819431305e-02</internalNodes>
      <leafValues>
        -5.8274995535612106e-02 4.5602607727050781e-01</leafValues></_>
    <_>
      <internalNodes>
        0 -1 65916 -9.5429256558418274e-02</internalNodes>
      <leafValues>
        2.6916027069091797e-01 -1.1779048293828964e-01</leafValues></_>
    <_>
      <internalNodes>
        0 -1 90336 1.6635734587907791e-02</internalNodes>
      <leafValues>
        2.9081594198942184e-02 -5.4478174448013306e-01</leafValues></_>
    <_>
      <internalNodes>
        0 -1 133394 -2.5960418861359358e-04</internalNodes>
      <leafValues>
        -2.0163027942180634e-01 1.0463710874319077e-01</leafValues></_>
    <_>
      <internalNodes>
        0 -1 52779 -2.3192629218101501e-01</internalNodes>
      <leafValues>
        3.9896237850189209e-01 -5.3326003253459930e-02</leafValues></_>
    <_>
      <internalNodes>
        0 -1 161233 4.8711057752370834e-03</internalNodes>
      <leafValues>
        -1.0629811137914658e-01 2.0524732768535614e-01</leafValues></_>
    <_>
      <internalNodes>
        0 -1 6829 3.2202103175222874e-03</internalNodes>
      <leafValues>
        -6.3412122428417206e-02 3.4493088722229004e-01</leafValues></_>
    <_>
      <internalNodes>
        0 -1 139236 -6.0090341139584780e-04</internalNodes>
      <leafValues>
        -3.9187079668045044e-01 6.1467714607715607e-02</leafValues></_>
    <_>
      <internalNodes>
        0 -1 65319 9.7601488232612610e-03</internalNodes>
      <leafValues>
        -5.0538748502731323e-02 3.8910368084907532e-01</leafValues></_>
    <_>
      <internalNodes>
        0 -1 11526 -1.7555706202983856e-02</internalNodes>
      <leafValues>
        7.5932666659355164e-02 -2.2503425180912018e-01</leafValues></_>
    <_>
      <internalNodes>
        0 -1 13179 -8.0333501100540161e-03</internalNodes>
      <leafValues>
        -4.1264152526855469e-01 5.5634811520576477e-02</leafValues></_>
    <_>
      <internalNodes>
        0 -1 114951 -6.3375703990459442e-02</internalNodes>
      <leafValues>
        -3.9703078567981720e-02 5.5412375926971436e-01</leafValues></_>
    <_>
      <internalNodes>
        0 -1 4952 -1.5383987687528133e-02</internalNodes>
      <leafValues>
        3.6734342575073242e-01 -3.9358034729957581e-02</leafValues></_>
    <_>
      <internalNodes>
        0 -1 99385 6.3154147937893867e-03</internalNodes>
      <leafValues>
        -5.7532299309968948e-02 3.0191397666931152e-01</leafValues></_>
    <_>
      <internalNodes>
        0 -1 13368 4.2088669724762440e-03</internalNodes>
      <leafValues>
        -1.0283376276493073e-01 1.6439874470233917e-01</leafValues></_>
    <_>
      <internalNodes>
        0 -1 60420 -1.0636968363542110e-04</internalNodes>
      <leafValues>
        -1.8956232070922852e-01 1.0149058699607849e-01</leafValues></_>
    <_>
      <internalNodes>
        0 -1 98394 3.4777502878569067e-04</internalNodes>
      <leafValues>
        7.2608046233654022e-02 -2.3133517801761627e-01</leafValues></_>
    <_>
      <internalNodes>
        0 -1 88816 1.6223639249801636e-03</internalNodes>
      <leafValues>
        -7.0319354534149170e-02 2.4966119229793549e-01</leafValues></_>
    <_>
      <internalNodes>
        0 -1 155211 -1.9102814258076251e-04</internalNodes>
      <leafValues>
        -2.0221762359142303e-01 8.7523341178894043e-02</leafValues></_>
    <_>
      <internalNodes>
        0 -1 139281 3.3516820520162582e-02</internalNodes>
      <leafValues>
        2.0745238289237022e-02 -7.3337054252624512e-01</leafValues></_>
    <_>
      <internalNodes>
        0 -1 162227 6.9584855809807777e-03</internalNodes>
      <leafValues>
        6.2657400965690613e-02 -2.5354829430580139e-01</leafValues></_>
    <_>
      <internalNodes>
        0 -1 160255 1.2984415516257286e-02</internalNodes>
      <leafValues>
        -1.2119547277688980e-01 1.9969944655895233e-01</leafValues></_>
    <_>
      <internalNodes>
        0 -1 161763 -1.2376818805932999e-02</internalNodes>
      <leafValues>
        3.2459867000579834e-01 -5.5039353668689728e-02</leafValues></_>
    <_>
      <internalNodes>
        0 -1 103192 4.2779291979968548e-03</internalNodes>
      <leafValues>
        -7.2864301502704620e-02 2.6551434397697449e-01</leafValues></_>
    <_>
      <internalNodes>
        0 -1 11514 -2.2374344989657402e-03</internalNodes>
      <leafValues>
        -4.2380601167678833e-01 4.2060598731040955e-02</leafValues></_>
    <_>
      <internalNodes>
        0 -1 142712 2.2346728947013617e-03</internalNodes>
      <leafValues>
        -9.2875145375728607e-02 1.8555645644664764e-01</leafValues></_>
    <_>
      <internalNodes>
        0 -1 99553 4.1534053161740303e-03</internalNodes>
      <leafValues>
        -4.6840358525514603e-02 3.2635423541069031e-01</leafValues></_>
    <_>
      <internalNodes>
        0 -1 90073 2.1523837000131607e-02</internalNodes>
      <leafValues>
        3.0665373429656029e-02 -6.5815758705139160e-01</leafValues></_>
    <_>
      <internalNodes>
        0 -1 162106 1.2443129904568195e-02</internalNodes>
      <leafValues>
        2.3615175858139992e-02 -5.9612506628036499e-01</leafValues></_>
    <_>
      <internalNodes>
        0 -1 80688 1.7175643006339669e-04</internalNodes>
      <leafValues>
        8.3808749914169312e-02 -1.8574891984462738e-01</leafValues></_>
    <_>
      <internalNodes>
        0 -1 125482 -2.7279485017061234e-02</internalNodes>
      <leafValues>
        -5.1447969675064087e-01 3.3188637346029282e-02</leafValues></_>
    <_>
      <internalNodes>
        0 -1 112004 5.7784475386142731e-02</internalNodes>
      <leafValues>
        3.5076022148132324e-02 -4.7220855951309204e-01</leafValues></_>
    <_>
      <internalNodes>
        0 -1 65614 -7.0592095144093037e-03</internalNodes>
      <leafValues>
        4.2374160885810852e-01 -4.5886743813753128e-02</leafValues></_>
    <_>
      <internalNodes>
        0 -1 134204 -2.9299485683441162e-01</internalNodes>
      <leafValues>
        -6.9179004430770874e-01 2.7360079810023308e-02</leafValues></_>
    <_>
      <internalNodes>
        0 -1 11485 7.7272596536204219e-04</internalNodes>
      <leafValues>
        4.3067548424005508e-02 -3.7742778658866882e-01</leafValues></_>
    <_>
      <internalNodes>
        0 -1 21114 -7.5063690543174744e-02</internalNodes>
      <leafValues>
        5.7587182521820068e-01 -3.3401556313037872e-02</leafValues></_>
    <_>
      <internalNodes>
        0 -1 74930 -2.7546195313334465e-02</internalNodes>
      <leafValues>
        2.6098215952515602e-02 -8.1960505247116089e-01</leafValues></_>
    <_>
      <internalNodes>
        0 -1 16489 3.7042893469333649e-02</internalNodes>
      <leafValues>
        3.8091134279966354e-02 -3.9099004864692688e-01</leafValues></_>
    <_>
      <internalNodes>
        0 -1 120125 -1.3093112502247095e-03</internalNodes>
      <leafValues>
        4.2086899280548096e-01 -4.4776502996683121e-02</leafValues></_>
    <_>
      <internalNodes>
        0 -1 157420 1.3896524615120143e-04</internalNodes>
      <leafValues>
        1.0207279771566391e-01 -1.6615511476993561e-01</leafValues></_>
    <_>
      <internalNodes>
        0 -1 92169 4.3956907466053963e-03</internalNodes>
      <leafValues>
        -6.3095994293689728e-02 2.8476455807685852e-01</leafValues></_>
    <_>
      <internalNodes>
        0 -1 5560 -3.7074011564254761e-01</internalNodes>
      <leafValues>
        -6.3011932373046875e-01 2.7151800692081451e-02</leafValues></_>
    <_>
      <internalNodes>
        0 -1 46425 1.3849276304244995e-01</internalNodes>
      <leafValues>
        -4.0757678449153900e-02 4.3804845213890076e-01</leafValues></_>
    <_>
      <internalNodes>
        0 -1 157506 -3.3884567528730258e-05</internalNodes>
      <leafValues>
        -1.4065231382846832e-01 1.2326782196760178e-01</leafValues></_>
    <_>
      <internalNodes>
        0 -1 91914 7.6469238847494125e-03</internalNodes>
      <leafValues>
        2.2428609430789948e-02 -6.3877779245376587e-01</leafValues></_>
    <_>
      <internalNodes>
        0 -1 124678 8.9621456572785974e-04</internalNodes>
      <leafValues>
        -6.0961566865444183e-02 3.0784595012664795e-01</leafValues></_>
    <_>
      <internalNodes>
        0 -1 60451 4.1838272591121495e-04</internalNodes>
      <leafValues>
        -8.3624184131622314e-02 2.0428732037544250e-01</leafValues></_>
    <_>
      <internalNodes>
        0 -1 402 -2.9750285670161247e-02</internalNodes>
      <leafValues>
        1.3071943819522858e-01 -1.3571333885192871e-01</leafValues></_>
    <_>
      <internalNodes>
        0 -1 162143 -2.6832474395632744e-03</internalNodes>
      <leafValues>
        -3.7921652197837830e-02 5.4598307609558105e-01</leafValues></_>
    <_>
      <internalNodes>
        0 -1 4 -4.9058053264161572e-05</internalNodes>
      <leafValues>
        -1.5568019449710846e-01 1.0833933204412460e-01</leafValues></_>
    <_>
      <internalNodes>
        0 -1 161164 -9.7810616716742516e-03</internalNodes>
      <leafValues>
        -6.0887223482131958e-01 3.1631130725145340e-02</leafValues></_>
    <_>
      <internalNodes>
        0 -1 34842 2.0978506654500961e-02</internalNodes>
      <leafValues>
        -1.5273310244083405e-01 1.2052465975284576e-01</leafValues></_>
    <_>
      <internalNodes>
        0 -1 92728 1.5540901571512222e-02</internalNodes>
      <leafValues>
        -7.7567972242832184e-02 2.5270497798919678e-01</leafValues></_>
    <_>
      <internalNodes>
        0 -1 133637 2.5707360357046127e-02</internalNodes>
      <leafValues>
        -5.3957484662532806e-02 3.7446141242980957e-01</leafValues></_>
    <_>
      <internalNodes>
        0 -1 148294 8.3580811042338610e-04</internalNodes>
      <leafValues>
        5.5655490607023239e-02 -4.1775742173194885e-01</leafValues></_>
    <_>
      <internalNodes>
        0 -1 98753 -4.4989459216594696e-02</internalNodes>
      <leafValues>
        -7.8012037277221680e-01 1.7427885904908180e-02</leafValues></_>
    <_>
      <internalNodes>
        0 -1 27816 2.5670253671705723e-03</internalNodes>
      <leafValues>
        -4.1873667389154434e-02 4.4076666235923767e-01</leafValues></_>
    <_>
      <internalNodes>
        0 -1 156555 -7.0730168372392654e-03</internalNodes>
      <leafValues>
        4.4315245747566223e-01 -3.3606290817260742e-02</leafValues></_>
    <_>
      <internalNodes>
        0 -1 117687 -6.4550742506980896e-02</internalNodes>
      <leafValues>
        -7.2646212577819824e-01 2.2312970831990242e-02</leafValues></_>
    <_>
      <internalNodes>
        0 -1 131099 4.0705807507038116e-02</internalNodes>
      <leafValues>
        2.9178349301218987e-02 -5.0047206878662109e-01</leafValues></_>
    <_>
      <internalNodes>
        0 -1 149049 8.1589326262474060e-02</internalNodes>
      <leafValues>
        -2.8449459001421928e-02 6.5503358840942383e-01</leafValues></_>
    <_>
      <internalNodes>
        0 -1 143609 3.3917485270649195e-03</internalNodes>
      <leafValues>
        6.4284674823284149e-02 -2.6686966419219971e-01</leafValues></_>
    <_>
      <internalNodes>
        0 -1 96895 5.8301463723182678e-03</internalNodes>
      <leafValues>
        -4.3464746326208115e-02 4.0059027075767517e-01</leafValues></_>
    <_>
      <internalNodes>
        0 -1 114788 -9.2480704188346863e-03</internalNodes>
      <leafValues>
        -3.4468004107475281e-01 4.8634875565767288e-02</leafValues></_>
    <_>
      <internalNodes>
        0 -1 14414 6.0122454166412354e-01</internalNodes>
      <leafValues>
        1.3238683342933655e-02 -9.3063718080520630e-01</leafValues></_>
    <_>
      <internalNodes>
        0 -1 134052 4.0444843471050262e-03</internalNodes>
      <leafValues>
        5.5755663663148880e-02 -2.8287893533706665e-01</leafValues></_>
    <_>
      <internalNodes>
        0 -1 153066 8.6234547197818756e-03</internalNodes>
      <leafValues>
        -1.2694796919822693e-01 1.3079886138439178e-01</leafValues></_>
    <_>
      <internalNodes>
        0 -1 404 3.4725787118077278e-03</internalNodes>
      <leafValues>
        -6.0859575867652893e-02 2.7686420083045959e-01</leafValues></_>
    <_>
      <internalNodes>
        0 -1 49636 -4.0061967447400093e-03</internalNodes>
      <leafValues>
        -4.3352025747299194e-01 4.6188674867153168e-02</leafValues></_>
    <_>
      <internalNodes>
        0 -1 159963 -2.4708580895094201e-05</internalNodes>
      <leafValues>
        1.4751096069812775e-01 -1.1256605386734009e-01</leafValues></_>
    <_>
      <internalNodes>
        0 -1 152310 6.5789994550868869e-04</internalNodes>
      <leafValues>
        -9.4793900847434998e-02 1.8890741467475891e-01</leafValues></_>
    <_>
      <internalNodes>
        0 -1 13372 1.6850748215802014e-04</internalNodes>
      <leafValues>
        7.7456913888454437e-02 -2.3737306892871857e-01</leafValues></_>
    <_>
      <internalNodes>
        0 -1 162247 -4.5547513291239738e-03</internalNodes>
      <leafValues>
        -5.7473665475845337e-01 2.8867738321423531e-02</leafValues></_>
    <_>
      <internalNodes>
        0 -1 40035 5.7581742294132710e-04</internalNodes>
      <leafValues>
        -1.1643525958061218e-01 1.6287285089492798e-01</leafValues></_>
    <_>
      <internalNodes>
        0 -1 67379 9.5416784286499023e-02</internalNodes>
      <leafValues>
        -3.2779179513454437e-02 4.9363854527473450e-01</leafValues></_>
    <_>
      <internalNodes>
        0 -1 97686 -1.2512597022578120e-03</internalNodes>
      <leafValues>
        2.4871678650379181e-01 -6.6367603838443756e-02</leafValues></_>
    <_>
      <internalNodes>
        0 -1 158329 -3.4450134262442589e-03</internalNodes>
      <leafValues>
        1.8906368315219879e-01 -8.4469199180603027e-02</leafValues></_>
    <_>
      <internalNodes>
        0 -1 8137 9.1616107965819538e-05</internalNodes>
      <leafValues>
        9.5097243785858154e-02 -1.7681796848773956e-01</leafValues></_>
    <_>
      <internalNodes>
        0 -1 98722 -3.4968252293765545e-03</internalNodes>
      <leafValues>
        1.9794502854347229e-01 -9.3245550990104675e-02</leafValues></_>
    <_>
      <internalNodes>
        0 -1 83941 4.6961612999439240e-02</internalNodes>
      <leafValues>
        -1.0667259246110916e-01 1.6339899599552155e-01</leafValues></_>
    <_>
      <internalNodes>
        0 -1 36528 3.0811727046966553e-01</internalNodes>
      <leafValues>
        3.1132439151406288e-02 -5.7044339179992676e-01</leafValues></_>
    <_>
      <internalNodes>
        0 -1 88940 2.8272395138628781e-04</internalNodes>
      <leafValues>
        -1.3209559023380280e-01 1.3499416410923004e-01</leafValues></_>
    <_>
      <internalNodes>
        0 -1 121298 -9.6657611720729619e-05</internalNodes>
      <leafValues>
        -1.8923456966876984e-01 9.3276038765907288e-02</leafValues></_>
    <_>
      <internalNodes>
        0 -1 145350 4.9012023955583572e-03</internalNodes>
      <leafValues>
        2.9775286093354225e-02 -5.2037304639816284e-01</leafValues></_>
    <_>
      <internalNodes>
        0 -1 111120 -2.5056252256035805e-02</internalNodes>
      <leafValues>
        4.9776300787925720e-01 -3.7258312106132507e-02</leafValues></_>
    <_>
      <internalNodes>
        0 -1 64996 -1.5957899391651154e-02</internalNodes>
      <leafValues>
        -4.7288466244935989e-02 3.4880471229553223e-01</leafValues></_>
    <_>
      <internalNodes>
        0 -1 43210 -4.5968301594257355e-02</internalNodes>
      <leafValues>
        2.5804080069065094e-02 -7.0458966493606567e-01</leafValues></_>
    <_>
      <internalNodes>
        0 -1 11021 -1.5605318546295166e-01</internalNodes>
      <leafValues>
        -4.9623884260654449e-02 3.4680476784706116e-01</leafValues></_>
    <_>
      <internalNodes>
        0 -1 80266 -1.9501196220517159e-02</internalNodes>
      <leafValues>
        4.0870439261198044e-02 -6.0938954353332520e-01</leafValues></_>
    <_>
      <internalNodes>
        0 -1 150664 3.7036312278360128e-03</internalNodes>
      <leafValues>
        -3.8551185280084610e-02 4.9629232287406921e-01</leafValues></_></weakClassifiers></stage7>
</opencv_storage>
