<?xml version="1.0"?>
<opencv_storage>
<stage7>
  <maxWeakCount>67</maxWeakCount>
  <stageThreshold>-5.1414483785629272e-01</stageThreshold>
  <weakClassifiers>
    <_>
      <internalNodes>
        0 -1 10561 6.4644242229405791e-05</internalNodes>
      <leafValues>
        3.3828207850456238e-01 -2.6039388775825500e-01</leafValues></_>
    <_>
      <internalNodes>
        0 -1 26286 -3.2608002424240112e-02</internalNodes>
      <leafValues>
        2.5497364997863770e-01 -2.9519215226173401e-01</leafValues></_>
    <_>
      <internalNodes>
        0 -1 10561 -8.9249639131594449e-05</internalNodes>
      <leafValues>
        -3.0233940482139587e-01 1.7037761211395264e-01</leafValues></_>
    <_>
      <internalNodes>
        0 -1 134252 1.3175331056118011e-02</internalNodes>
      <leafValues>
        -1.4958694577217102e-01 3.2948628067970276e-01</leafValues></_>
    <_>
      <internalNodes>
        0 -1 157103 2.5057845050469041e-04</internalNodes>
      <leafValues>
        1.3823612034320831e-01 -2.9432862997055054e-01</leafValues></_>
    <_>
      <internalNodes>
        0 -1 162100 -1.2442213483154774e-04</internalNodes>
      <leafValues>
        -3.1142947077751160e-01 1.1412744969129562e-01</leafValues></_>
    <_>
      <internalNodes>
        0 -1 5926 -2.0172491669654846e-02</internalNodes>
      <leafValues>
        4.4191747903823853e-01 -6.5792165696620941e-02</leafValues></_>
    <_>
      <internalNodes>
        0 -1 27740 -1.2456539843697101e-04</internalNodes>
      <leafValues>
        -2.5312376022338867e-01 1.5618787705898285e-01</leafValues></_>
    <_>
      <internalNodes>
        0 -1 86128 7.1686387062072754e-02</internalNodes>
      <leafValues>
        7.1476690471172333e-02 -6.1633980274200439e-01</leafValues></_>
    <_>
      <internalNodes>
        0 -1 1 9.1448906459845603e-05</internalNodes>
      <leafValues>
        1.1614158749580383e-01 -2.8470999002456665e-01</leafValues></_>
    <_>
      <internalNodes>
        0 -1 128424 -1.6668519377708435e-01</internalNodes>
      <leafValues>
        -7.7716922760009766e-01 3.6834187805652618e-02</leafValues></_>
    <_>
      <internalNodes>
        0 -1 55719 -3.9506070315837860e-02</internalNodes>
      <leafValues>
        4.8275759816169739e-01 -6.7721799015998840e-02</leafValues></_>
    <_>
      <internalNodes>
        0 -1 37906 7.9456447565462440e-05</internalNodes>
      <leafValues>
        1.7976781725883484e-01 -1.8149384856224060e-01</leafValues></_>
    <_>
      <internalNodes>
        0 -1 151246 -8.3761764690279961e-03</internalNodes>
      <leafValues>
        -9.0232586860656738e-01 2.2595189511775970e-02</leafValues></_>
    <_>
      <internalNodes>
        0 -1 133678 4.6395964454859495e-04</internalNodes>
      <leafValues>
        1.0104773938655853e-01 -2.7614641189575195e-01</leafValues></_>
    <_>
      <internalNodes>
        0 -1 139236 2.8691935585811734e-04</internalNodes>
      <leafValues>
        9.5398291945457458e-02 -3.2623547315597534e-01</leafValues></_>
    <_>
      <internalNodes>
        0 -1 131213 -2.6183021254837513e-03</internalNodes>
      <leafValues>
        3.9794203639030457e-01 -7.8643850982189178e-02</leafValues></_>
    <_>
      <internalNodes>
        0 -1 2896 -1.7531438171863556e-01</internalNodes>
      <leafValues>
        -3.7750205397605896e-01 7.9290300607681274e-02</leafValues></_>
    <_>
      <internalNodes>
        0 -1 91730 1.7581790685653687e-01</internalNodes>
      <leafValues>
        -6.6094495356082916e-02 4.5259943604469299e-01</leafValues></_>
    <_>
      <internalNodes>
        0 -1 151508 -1.9097761251032352e-03</internalNodes>
      <leafValues>
        -4.6566864848136902e-01 6.9850437343120575e-02</leafValues></_>
    <_>
      <internalNodes>
        0 -1 43216 -8.8264621794223785e-02</internalNodes>
      <leafValues>
        4.8116922378540039e-02 -5.8113586902618408e-01</leafValues></_>
    <_>
      <internalNodes>
        0 -1 17480 1.5911450982093811e-01</internalNodes>
      <leafValues>
        -3.9245095103979111e-02 8.0276709794998169e-01</leafValues></_>
    <_>
      <internalNodes>
        0 -1 161308 1.1114989407360554e-02</internalNodes>
      <leafValues>
        -9.1995567083358765e-02 3.1661558151245117e-01</leafValues></_>
    <_>
      <internalNodes>
        0 -1 15518 -1.6309835482388735e-03</internalNodes>
      <leafValues>
        -3.2003358006477356e-02 8.6407721042633057e-01</leafValues></_>
    <_>
      <internalNodes>
        0 -1 146633 -1.1860765516757965e-03</internalNodes>
      <leafValues>
        -3.3773666620254517e-01 9.5472589135169983e-02</leafValues></_>
    <_>
      <internalNodes>
        0 -1 139783 8.5232523269951344e-04</internalNodes>
      <leafValues>
        -1.0418628156185150e-01 3.2137238979339600e-01</leafValues></_>
    <_>
      <internalNodes>
        0 -1 2162 2.5811404921114445e-03</internalNodes>
      <leafValues>
        -9.7590148448944092e-02 2.9258212447166443e-01</leafValues></_>
    <_>
      <internalNodes>
        0 -1 27454 -4.0137041360139847e-02</internalNodes>
      <leafValues>
        2.2502906620502472e-01 -1.4611090719699860e-01</leafValues></_>
    <_>
      <internalNodes>
        0 -1 57453 -9.5449306536465883e-04</internalNodes>
      <leafValues>
        2.4650859832763672e-01 -1.4030361175537109e-01</leafValues></_>
    <_>
      <internalNodes>
        0 -1 128813 5.4629586637020111e-02</internalNodes>
      <leafValues>
        -6.3547186553478241e-02 5.0529098510742188e-01</leafValues></_>
    <_>
      <internalNodes>
        0 -1 148300 1.3765455514658242e-04</internalNodes>
      <leafValues>
        1.1682167649269104e-01 -3.2041162252426147e-01</leafValues></_>
    <_>
      <internalNodes>
        0 -1 105113 -1.9533913582563400e-03</internalNodes>
      <leafValues>
        3.0798223614692688e-01 -1.0114908218383789e-01</leafValues></_>
    <_>
      <internalNodes>
        0 -1 107261 -1.9846564531326294e-01</internalNodes>
      <leafValues>
        -8.0918043851852417e-01 4.1809793561697006e-02</leafValues></_>
    <_>
      <internalNodes>
        0 -1 133405 -5.6742841843515635e-04</internalNodes>
      <leafValues>
        -2.4285310506820679e-01 1.2582886219024658e-01</leafValues></_>
    <_>
      <internalNodes>
        0 -1 102824 8.2387160509824753e-03</internalNodes>
      <leafValues>
        -7.3157683014869690e-02 4.1359356045722961e-01</leafValues></_>
    <_>
      <internalNodes>
        0 -1 49476 -7.0539987063966691e-05</internalNodes>
      <leafValues>
        -2.5694072246551514e-01 1.2677204608917236e-01</leafValues></_>
    <_>
      <internalNodes>
        0 -1 48901 -5.2505113184452057e-02</internalNodes>
      <leafValues>
        2.8382971882820129e-01 -1.0406506061553955e-01</leafValues></_>
    <_>
      <internalNodes>
        0 -1 159172 -4.4086866080760956e-02</internalNodes>
      <leafValues>
        8.5085445642471313e-01 -3.9683219045400620e-02</leafValues></_>
    <_>
      <internalNodes>
        0 -1 10790 1.2666614726185799e-02</internalNodes>
      <leafValues>
        1.3554644584655762e-01 -2.4084453284740448e-01</leafValues></_>
    <_>
      <internalNodes>
        0 -1 67211 -8.0345291644334793e-03</internalNodes>
      <leafValues>
        -1.3867792487144470e-01 2.4466437101364136e-01</leafValues></_>
    <_>
      <internalNodes>
        0 -1 106010 -2.7842998504638672e-01</internalNodes>
      <leafValues>
        5.3814178705215454e-01 -7.4075646698474884e-02</leafValues></_>
    <_>
      <internalNodes>
        0 -1 69455 -8.3479911088943481e-02</internalNodes>
      <leafValues>
        -7.2107481956481934e-01 5.0948027521371841e-02</leafValues></_>
    <_>
      <internalNodes>
        0 -1 55998 -1.4308574795722961e-01</internalNodes>
      <leafValues>
        3.8655182719230652e-01 -8.5539072751998901e-02</leafValues></_>
    <_>
      <internalNodes>
        0 -1 13374 1.4206828200258315e-04</internalNodes>
      <leafValues>
        1.4086459577083588e-01 -2.0884549617767334e-01</leafValues></_>
    <_>
      <internalNodes>
        0 -1 3555 1.4050444588065147e-02</internalNodes>
      <leafValues>
        -8.2468926906585693e-02 4.2111501097679138e-01</leafValues></_>
    <_>
      <internalNodes>
        0 -1 46014 -5.2796892821788788e-02</internalNodes>
      <leafValues>
        -2.8431749343872070e-01 1.1082824319601059e-01</leafValues></_>
    <_>
      <internalNodes>
        0 -1 137421 -1.3872405514121056e-02</internalNodes>
      <leafValues>
        6.5747892856597900e-01 -5.7981256395578384e-02</leafValues></_>
    <_>
      <internalNodes>
        0 -1 58953 -1.9572763703763485e-03</internalNodes>
      <leafValues>
        2.1874216198921204e-01 -1.4992555975914001e-01</leafValues></_>
    <_>
      <internalNodes>
        0 -1 162304 -1.6844758647494018e-04</internalNodes>
      <leafValues>
        -2.4464966356754303e-01 1.3095414638519287e-01</leafValues></_>
    <_>
      <internalNodes>
        0 -1 130340 -4.6499930322170258e-02</internalNodes>
      <leafValues>
        4.1519340127706528e-02 -7.5462538003921509e-01</leafValues></_>
    <_>
      <internalNodes>
        0 -1 114574 -2.3870371282100677e-02</internalNodes>
      <leafValues>
        -5.1584225893020630e-01 5.2679084241390228e-02</leafValues></_>
    <_>
      <internalNodes>
        0 -1 99496 -1.2981849908828735e-01</internalNodes>
      <leafValues>
        8.3954972028732300e-01 -3.9618957787752151e-02</leafValues></_>
    <_>
      <internalNodes>
        0 -1 148300 -2.5769619969651103e-04</internalNodes>
      <leafValues>
        -2.9844364523887634e-01 1.0217762738466263e-01</leafValues></_>
    <_>
      <internalNodes>
        0 -1 113234 -2.2473119199275970e-02</internalNodes>
      <leafValues>
        4.9299091100692749e-01 -6.0666061937808990e-02</leafValues></_>
    <_>
      <internalNodes>
        0 -1 108475 -5.0857387483119965e-02</internalNodes>
      <leafValues>
        6.6728758811950684e-01 -3.7106636911630630e-02</leafValues></_>
    <_>
      <internalNodes>
        0 -1 114944 -7.1492083370685577e-03</internalNodes>
      <leafValues>
        3.3974108099937439e-01 -8.8117897510528564e-02</leafValues></_>
    <_>
      <internalNodes>
        0 -1 1171 1.5598179772496223e-02</internalNodes>
      <leafValues>
        -4.7597605735063553e-02 6.3707882165908813e-01</leafValues></_>
    <_>
      <internalNodes>
        0 -1 121255 -6.3437651842832565e-03</internalNodes>
      <leafValues>
        -7.8973424434661865e-01 4.5126616954803467e-02</leafValues></_>
    <_>
      <internalNodes>
        0 -1 96226 -6.7752510309219360e-02</internalNodes>
      <leafValues>
        -2.2147326171398163e-01 1.1752218008041382e-01</leafValues></_>
    <_>
      <internalNodes>
        0 -1 160962 1.3679466792382300e-04</internalNodes>
      <leafValues>
        1.4085233211517334e-01 -1.9983743131160736e-01</leafValues></_>
    <_>
      <internalNodes>
        0 -1 130949 -6.7198555916547775e-03</internalNodes>
      <leafValues>
        4.7671660780906677e-01 -6.5622016787528992e-02</leafValues></_>
    <_>
      <internalNodes>
        0 -1 80116 1.5315938799176365e-04</internalNodes>
      <leafValues>
        1.2327952682971954e-01 -2.3196730017662048e-01</leafValues></_>
    <_>
      <internalNodes>
        0 -1 111021 -1.2566628865897655e-03</internalNodes>
      <leafValues>
        2.9000645875930786e-01 -9.6652105450630188e-02</leafValues></_>
    <_>
      <internalNodes>
        0 -1 10561 3.8896329351700842e-04</internalNodes>
      <leafValues>
        9.6098609268665314e-02 -3.2452958822250366e-01</leafValues></_>
    <_>
      <internalNodes>
        0 -1 126352 -6.9361980422399938e-05</internalNodes>
      <leafValues>
        1.8258485198020935e-01 -1.5657922625541687e-01</leafValues></_>
    <_>
      <internalNodes>
        0 -1 44969 -3.3679272746667266e-04</internalNodes>
      <leafValues>
        -3.0126410722732544e-01 9.9228307604789734e-02</leafValues></_>
    <_>
      <internalNodes>
        0 -1 13375 -4.3211118318140507e-03</internalNodes>
      <leafValues>
        8.9175552129745483e-02 -3.4320297837257385e-01</leafValues></_></weakClassifiers></stage7>
</opencv_storage>
