<?xml version="1.0"?>
<opencv_storage>
<stage0>
  <maxWeakCount>37</maxWeakCount>
  <stageThreshold>-7.5778090953826904e-01</stageThreshold>
  <weakClassifiers>
    <_>
      <internalNodes>
        0 -1 55465 -1.6761633753776550e-01</internalNodes>
      <leafValues>
        -4.5788964629173279e-01 7.4821609258651733e-01</leafValues></_>
    <_>
      <internalNodes>
        0 -1 14340 -3.5790957510471344e-02</internalNodes>
      <leafValues>
        6.5888434648513794e-01 -2.8108504414558411e-01</leafValues></_>
    <_>
      <internalNodes>
        0 -1 12683 -1.8921698629856110e-01</internalNodes>
      <leafValues>
        -3.4575369954109192e-01 3.3882039785385132e-01</leafValues></_>
    <_>
      <internalNodes>
        0 -1 808 -1.4427792280912399e-02</internalNodes>
      <leafValues>
        -6.1222535371780396e-01 1.6504170000553131e-01</leafValues></_>
    <_>
      <internalNodes>
        0 -1 81000 2.9027210548520088e-03</internalNodes>
      <leafValues>
        1.6109430789947510e-01 -6.1858069896697998e-01</leafValues></_>
    <_>
      <internalNodes>
        0 -1 121720 2.7785093989223242e-03</internalNodes>
      <leafValues>
        1.9936390221118927e-01 -4.9306264519691467e-01</leafValues></_>
    <_>
      <internalNodes>
        0 -1 161237 4.6907942742109299e-03</internalNodes>
      <leafValues>
        -2.2378163039684296e-01 3.7578049302101135e-01</leafValues></_>
    <_>
      <internalNodes>
        0 -1 7409 -2.2324468591250479e-04</internalNodes>
      <leafValues>
        -4.0426847338676453e-01 1.3556824624538422e-01</leafValues></_>
    <_>
      <internalNodes>
        0 -1 863 -5.3822165727615356e-01</internalNodes>
      <leafValues>
        -7.0735430717468262e-01 5.7630062103271484e-02</leafValues></_>
    <_>
      <internalNodes>
        0 -1 70716 2.0373656298033893e-04</internalNodes>
      <leafValues>
        1.5384772419929504e-01 -3.7802857160568237e-01</leafValues></_>
    <_>
      <internalNodes>
        0 -1 159708 4.7877561883069575e-04</internalNodes>
      <leafValues>
        1.7053367197513580e-01 -3.6913099884986877e-01</leafValues></_>
    <_>
      <internalNodes>
        0 -1 1103 6.3613009452819824e-01</internalNodes>
      <leafValues>
        6.2229909002780914e-02 -8.2388657331466675e-01</leafValues></_>
    <_>
      <internalNodes>
        0 -1 26825 -2.6877257972955704e-02</internalNodes>
      <leafValues>
        -2.8941601514816284e-01 1.7217954993247986e-01</leafValues></_>
    <_>
      <internalNodes>
        0 -1 38060 2.8810708317905664e-04</internalNodes>
      <leafValues>
        1.7677874863147736e-01 -3.1352722644805908e-01</leafValues></_>
    <_>
      <internalNodes>
        0 -1 144036 3.7897506263107061e-04</internalNodes>
      <leafValues>
        1.1334283649921417e-01 -4.5649963617324829e-01</leafValues></_>
    <_>
      <internalNodes>
        0 -1 127848 2.0248527289368212e-04</internalNodes>
      <leafValues>
        1.4583674073219299e-01 -3.3538377285003662e-01</leafValues></_>
    <_>
      <internalNodes>
        0 -1 99555 6.3014263287186623e-03</internalNodes>
      <leafValues>
        -1.0726649314165115e-01 4.5317256450653076e-01</leafValues></_>
    <_>
      <internalNodes>
        0 -1 162296 1.9717804389074445e-04</internalNodes>
      <leafValues>
        1.4591428637504578e-01 -3.3706039190292358e-01</leafValues></_>
    <_>
      <internalNodes>
        0 -1 499 -5.2736893296241760e-02</internalNodes>
      <leafValues>
        5.9694159030914307e-01 -8.4929764270782471e-02</leafValues></_>
    <_>
      <internalNodes>
        0 -1 89811 -2.1758154616691172e-04</internalNodes>
      <leafValues>
        -3.3201870322227478e-01 1.4848722517490387e-01</leafValues></_>
    <_>
      <internalNodes>
        0 -1 146572 2.6939015835523605e-02</internalNodes>
      <leafValues>
        -1.6617691516876221e-01 3.1963396072387695e-01</leafValues></_>
    <_>
      <internalNodes>
        0 -1 111548 2.0019415766000748e-02</internalNodes>
      <leafValues>
        -9.7115084528923035e-02 4.8777097463607788e-01</leafValues></_>
    <_>
      <internalNodes>
        0 -1 19851 -1.6507135704159737e-02</internalNodes>
      <leafValues>
        5.3234100341796875e-01 -8.3961620926856995e-02</leafValues></_>
    <_>
      <internalNodes>
        0 -1 49476 -3.1611890881322324e-04</internalNodes>
      <leafValues>
        -3.8198840618133545e-01 1.3929887115955353e-01</leafValues></_>
    <_>
      <internalNodes>
        0 -1 16601 3.5605110228061676e-02</internalNodes>
      <leafValues>
        -1.1580990999937057e-01 4.8028993606567383e-01</leafValues></_>
    <_>
      <internalNodes>
        0 -1 2187 -5.7858326472342014e-03</internalNodes>
      <leafValues>
        3.7457799911499023e-01 -1.1627850681543350e-01</leafValues></_>
    <_>
      <internalNodes>
        0 -1 25808 1.0259880218654871e-04</internalNodes>
      <leafValues>
        1.8145123124122620e-01 -2.8075435757637024e-01</leafValues></_>
    <_>
      <internalNodes>
        0 -1 22893 5.8056339621543884e-02</internalNodes>
      <leafValues>
        -9.4128280878067017e-02 5.5534189939498901e-01</leafValues></_>
    <_>
      <internalNodes>
        0 -1 10561 -7.6427828753367066e-04</internalNodes>
      <leafValues>
        -5.1464498043060303e-01 1.1403639614582062e-01</leafValues></_>
    <_>
      <internalNodes>
        0 -1 111918 -1.6067441552877426e-02</internalNodes>
      <leafValues>
        -6.2847539782524109e-02 9.2505568265914917e-01</leafValues></_>
    <_>
      <internalNodes>
        0 -1 804 4.2752492427825928e-01</internalNodes>
      <leafValues>
        9.0373724699020386e-02 -6.7009013891220093e-01</leafValues></_>
    <_>
      <internalNodes>
        0 -1 6712 -6.7484453320503235e-02</internalNodes>
      <leafValues>
        -1.4338047802448273e-01 3.8971129059791565e-01</leafValues></_>
    <_>
      <internalNodes>
        0 -1 98812 -2.1632607094943523e-03</internalNodes>
      <leafValues>
        -4.4440039992332458e-01 1.2314212322235107e-01</leafValues></_>
    <_>
      <internalNodes>
        0 -1 99283 -4.3278506398200989e-01</internalNodes>
      <leafValues>
        -9.3243217468261719e-01 4.6552516520023346e-02</leafValues></_>
    <_>
      <internalNodes>
        0 -1 14396 -1.2805704027414322e-02</internalNodes>
      <leafValues>
        4.3850043416023254e-01 -1.2613639235496521e-01</leafValues></_>
    <_>
      <internalNodes>
        0 -1 121838 1.4882664196193218e-02</internalNodes>
      <leafValues>
        -9.4582624733448029e-02 5.2753430604934692e-01</leafValues></_>
    <_>
      <internalNodes>
        0 -1 133756 -3.1824398320168257e-04</internalNodes>
      <leafValues>
        -4.0688773989677429e-01 1.3923498988151550e-01</leafValues></_></weakClassifiers></stage0>
</opencv_storage>
