<?xml version="1.0"?>
<opencv_storage>
<stage6>
  <maxWeakCount>66</maxWeakCount>
  <stageThreshold>-5.1811414957046509e-01</stageThreshold>
  <weakClassifiers>
    <_>
      <internalNodes>
        0 -1 114946 -1.5789341181516647e-02</internalNodes>
      <leafValues>
        5.2941179275512695e-01 -1.2895376980304718e-01</leafValues></_>
    <_>
      <internalNodes>
        0 -1 106233 -1.3282717764377594e-01</internalNodes>
      <leafValues>
        7.4867558479309082e-01 -5.5450808256864548e-02</leafValues></_>
    <_>
      <internalNodes>
        0 -1 90144 5.3021805360913277e-03</internalNodes>
      <leafValues>
        5.4826121777296066e-02 -5.5046898126602173e-01</leafValues></_>
    <_>
      <internalNodes>
        0 -1 50012 -2.4768800940364599e-03</internalNodes>
      <leafValues>
        -2.8808379173278809e-01 1.9223847985267639e-01</leafValues></_>
    <_>
      <internalNodes>
        0 -1 40443 1.3920629024505615e-01</internalNodes>
      <leafValues>
        -1.2074959278106689e-01 4.8488208651542664e-01</leafValues></_>
    <_>
      <internalNodes>
        0 -1 52903 2.0158672705292702e-02</internalNodes>
      <leafValues>
        -1.0084105283021927e-01 4.6290236711502075e-01</leafValues></_>
    <_>
      <internalNodes>
        0 -1 108930 -3.8871355354785919e-02</internalNodes>
      <leafValues>
        3.1269183754920959e-01 -1.2016372382640839e-01</leafValues></_>
    <_>
      <internalNodes>
        0 -1 98652 1.3425401994027197e-04</internalNodes>
      <leafValues>
        1.1705215275287628e-01 -3.1330734491348267e-01</leafValues></_>
    <_>
      <internalNodes>
        0 -1 33262 -6.7503247410058975e-03</internalNodes>
      <leafValues>
        3.9078712463378906e-01 -7.6056964695453644e-02</leafValues></_>
    <_>
      <internalNodes>
        0 -1 4156 -2.4543153122067451e-03</internalNodes>
      <leafValues>
        2.7421724796295166e-01 -1.1811083555221558e-01</leafValues></_>
    <_>
      <internalNodes>
        0 -1 98659 -1.5863239765167236e-02</internalNodes>
      <leafValues>
        -4.9027469754219055e-01 5.6021884083747864e-02</leafValues></_>
    <_>
      <internalNodes>
        0 -1 162232 -1.1869004811160266e-04</internalNodes>
      <leafValues>
        -2.3299536108970642e-01 1.3586868345737457e-01</leafValues></_>
    <_>
      <internalNodes>
        0 -1 137852 3.8753199623897672e-04</internalNodes>
      <leafValues>
        -1.2237738817930222e-01 2.6637053489685059e-01</leafValues></_>
    <_>
      <internalNodes>
        0 -1 54774 3.8601326942443848e-01</internalNodes>
      <leafValues>
        5.2878964692354202e-02 -7.1415507793426514e-01</leafValues></_>
    <_>
      <internalNodes>
        0 -1 96133 3.0581897590309381e-04</internalNodes>
      <leafValues>
        -1.6062127053737640e-01 1.9870284199714661e-01</leafValues></_>
    <_>
      <internalNodes>
        0 -1 135659 -1.2986791133880615e-01</internalNodes>
      <leafValues>
        7.3917353153228760e-01 -3.6035921424627304e-02</leafValues></_>
    <_>
      <internalNodes>
        0 -1 123694 -3.1831951346248388e-03</internalNodes>
      <leafValues>
        2.6932969689369202e-01 -1.0124129801988602e-01</leafValues></_>
    <_>
      <internalNodes>
        0 -1 10337 -4.0187545120716095e-02</internalNodes>
      <leafValues>
        -6.9860368967056274e-01 5.2649077028036118e-02</leafValues></_>
    <_>
      <internalNodes>
        0 -1 8137 -1.6545991820748895e-04</internalNodes>
      <leafValues>
        -2.9060021042823792e-01 9.4161860644817352e-02</leafValues></_>
    <_>
      <internalNodes>
        0 -1 35296 -3.9163911715149879e-03</internalNodes>
      <leafValues>
        3.4540018439292908e-01 -9.4030849635601044e-02</leafValues></_>
    <_>
      <internalNodes>
        0 -1 38732 -5.7057403028011322e-02</internalNodes>
      <leafValues>
        3.5146242380142212e-01 -8.0511577427387238e-02</leafValues></_>
    <_>
      <internalNodes>
        0 -1 132821 -5.8512939140200615e-03</internalNodes>
      <leafValues>
        7.5268620252609253e-01 -4.1742611676454544e-02</leafValues></_>
    <_>
      <internalNodes>
        0 -1 0 -5.3224654402583838e-04</internalNodes>
      <leafValues>
        -3.7017744779586792e-01 8.0629870295524597e-02</leafValues></_>
    <_>
      <internalNodes>
        0 -1 99405 4.7793082194402814e-04</internalNodes>
      <leafValues>
        -1.2632745504379272e-01 2.3409175872802734e-01</leafValues></_>
    <_>
      <internalNodes>
        0 -1 25785 3.0536297708749771e-03</internalNodes>
      <leafValues>
        -1.3349391520023346e-01 2.1664701402187347e-01</leafValues></_>
    <_>
      <internalNodes>
        0 -1 80760 -9.9430023692548275e-04</internalNodes>
      <leafValues>
        -6.4743167161941528e-01 4.3184865266084671e-02</leafValues></_>
    <_>
      <internalNodes>
        0 -1 29740 -1.7046490311622620e-01</internalNodes>
      <leafValues>
        4.5081087946891785e-01 -7.3640473186969757e-02</leafValues></_>
    <_>
      <internalNodes>
        0 -1 158668 -2.2586755454540253e-02</internalNodes>
      <leafValues>
        -8.7073945999145508e-01 3.9197359234094620e-02</leafValues></_>
    <_>
      <internalNodes>
        0 -1 50069 -4.2063873261213303e-03</internalNodes>
      <leafValues>
        2.9565244913101196e-01 -1.0512837022542953e-01</leafValues></_>
    <_>
      <internalNodes>
        0 -1 153856 -1.1789637617766857e-02</internalNodes>
      <leafValues>
        -5.5600892752408981e-02 5.5193537473678589e-01</leafValues></_>
    <_>
      <internalNodes>
        0 -1 8814 -2.1288122516125441e-03</internalNodes>
      <leafValues>
        -5.0804626941680908e-01 6.4965657889842987e-02</leafValues></_>
    <_>
      <internalNodes>
        0 -1 84325 5.3432036656886339e-04</internalNodes>
      <leafValues>
        -1.4807841181755066e-01 2.0117352902889252e-01</leafValues></_>
    <_>
      <internalNodes>
        0 -1 151001 1.2822601012885571e-02</internalNodes>
      <leafValues>
        -5.8419615030288696e-02 4.7967267036437988e-01</leafValues></_>
    <_>
      <internalNodes>
        0 -1 155005 3.6863621789962053e-04</internalNodes>
      <leafValues>
        1.6377598047256470e-01 -1.9647528231143951e-01</leafValues></_>
    <_>
      <internalNodes>
        0 -1 148172 1.9073648378252983e-02</internalNodes>
      <leafValues>
        -4.7118376940488815e-02 6.0329180955886841e-01</leafValues></_>
    <_>
      <internalNodes>
        0 -1 98737 -5.3025139495730400e-03</internalNodes>
      <leafValues>
        -5.9124386310577393e-01 5.6491393595933914e-02</leafValues></_>
    <_>
      <internalNodes>
        0 -1 154708 -8.5921231657266617e-03</internalNodes>
      <leafValues>
        7.8495436906814575e-01 -4.3469667434692383e-02</leafValues></_>
    <_>
      <internalNodes>
        0 -1 16825 -2.0028289407491684e-02</internalNodes>
      <leafValues>
        1.7802201211452484e-01 -1.6515573859214783e-01</leafValues></_>
    <_>
      <internalNodes>
        0 -1 135724 5.6650418788194656e-02</internalNodes>
      <leafValues>
        -6.9654524326324463e-02 5.4133880138397217e-01</leafValues></_>
    <_>
      <internalNodes>
        0 -1 6298 -3.0570620298385620e-01</internalNodes>
      <leafValues>
        -9.1430723667144775e-01 3.7773113697767258e-02</leafValues></_>
    <_>
      <internalNodes>
        0 -1 93673 -1.3933335430920124e-03</internalNodes>
      <leafValues>
        5.1725119352340698e-01 -6.6276177763938904e-02</leafValues></_>
    <_>
      <internalNodes>
        0 -1 89245 2.5548646226525307e-04</internalNodes>
      <leafValues>
        1.1833198368549347e-01 -2.7468505501747131e-01</leafValues></_>
    <_>
      <internalNodes>
        0 -1 16549 1.0313108563423157e-01</internalNodes>
      <leafValues>
        -4.9827668815851212e-02 6.1488145589828491e-01</leafValues></_>
    <_>
      <internalNodes>
        0 -1 118269 1.5596669167280197e-02</internalNodes>
      <leafValues>
        6.2702089548110962e-02 -5.3279203176498413e-01</leafValues></_>
    <_>
      <internalNodes>
        0 -1 105058 6.7681050859391689e-03</internalNodes>
      <leafValues>
        -9.3130417168140411e-02 3.5638311505317688e-01</leafValues></_>
    <_>
      <internalNodes>
        0 -1 144567 -1.0561820119619370e-02</internalNodes>
      <leafValues>
        1.8471929430961609e-01 -1.6805358231067657e-01</leafValues></_>
    <_>
      <internalNodes>
        0 -1 82704 9.6744045615196228e-02</internalNodes>
      <leafValues>
        -9.5566987991333008e-02 3.1493550539016724e-01</leafValues></_>
    <_>
      <internalNodes>
        0 -1 16274 2.7371066808700562e-01</internalNodes>
      <leafValues>
        -6.1509869992733002e-02 5.3745293617248535e-01</leafValues></_>
    <_>
      <internalNodes>
        0 -1 125859 -5.7756071910262108e-03</internalNodes>
      <leafValues>
        2.3916611075401306e-01 -1.3911840319633484e-01</leafValues></_>
    <_>
      <internalNodes>
        0 -1 84723 5.3712417138740420e-04</internalNodes>
      <leafValues>
        -1.3660694658756256e-01 2.2367374598979950e-01</leafValues></_>
    <_>
      <internalNodes>
        0 -1 60404 8.9004598557949066e-03</internalNodes>
      <leafValues>
        -5.4714959114789963e-02 5.2467364072799683e-01</leafValues></_>
    <_>
      <internalNodes>
        0 -1 57681 -4.5629013329744339e-03</internalNodes>
      <leafValues>
        -7.3245234787464142e-02 3.9570280909538269e-01</leafValues></_>
    <_>
      <internalNodes>
        0 -1 50285 -8.7457962334156036e-02</internalNodes>
      <leafValues>
        7.1416795253753662e-02 -4.7914865612983704e-01</leafValues></_>
    <_>
      <internalNodes>
        0 -1 70646 -1.4043092960491776e-04</internalNodes>
      <leafValues>
        -2.6152634620666504e-01 1.1371696740388870e-01</leafValues></_>
    <_>
      <internalNodes>
        0 -1 159596 -6.3176429830491543e-04</internalNodes>
      <leafValues>
        -3.6919298768043518e-01 7.9303555190563202e-02</leafValues></_>
    <_>
      <internalNodes>
        0 -1 27259 1.6519299242645502e-03</internalNodes>
      <leafValues>
        -1.0766146332025528e-01 2.8674972057342529e-01</leafValues></_>
    <_>
      <internalNodes>
        0 -1 162317 6.3381114159710705e-05</internalNodes>
      <leafValues>
        1.4387269318103790e-01 -2.0994795858860016e-01</leafValues></_>
    <_>
      <internalNodes>
        0 -1 19959 -1.7581857740879059e-02</internalNodes>
      <leafValues>
        3.3873558044433594e-01 -8.6610034108161926e-02</leafValues></_>
    <_>
      <internalNodes>
        0 -1 162100 6.6133588552474976e-04</internalNodes>
      <leafValues>
        7.2252415120601654e-02 -4.0870442986488342e-01</leafValues></_>
    <_>
      <internalNodes>
        0 -1 160149 -9.9796131253242493e-03</internalNodes>
      <leafValues>
        2.7046117186546326e-01 -1.1483776569366455e-01</leafValues></_>
    <_>
      <internalNodes>
        0 -1 8142 2.0132347708567977e-04</internalNodes>
      <leafValues>
        1.5370465815067291e-01 -2.0733252167701721e-01</leafValues></_>
    <_>
      <internalNodes>
        0 -1 129861 -2.9016584157943726e-02</internalNodes>
      <leafValues>
        -2.3965395987033844e-01 1.2568086385726929e-01</leafValues></_>
    <_>
      <internalNodes>
        0 -1 111725 -5.5926278233528137e-02</internalNodes>
      <leafValues>
        5.5444365739822388e-01 -6.1274737119674683e-02</leafValues></_>
    <_>
      <internalNodes>
        0 -1 8894 -9.6196047961711884e-03</internalNodes>
      <leafValues>
        2.3496478796005249e-01 -1.3378897309303284e-01</leafValues></_>
    <_>
      <internalNodes>
        0 -1 8139 -1.0308332741260529e-02</internalNodes>
      <leafValues>
        -8.1694537401199341e-01 4.1914016008377075e-02</leafValues></_>
    <_>
      <internalNodes>
        0 -1 154038 1.6087241470813751e-02</internalNodes>
      <leafValues>
        -9.9448904395103455e-02 3.7692648172378540e-01</leafValues></_></weakClassifiers></stage6>
</opencv_storage>
