<?xml version="1.0"?>
<opencv_storage>
<stage3>
  <maxWeakCount>77</maxWeakCount>
  <stageThreshold>-6.2608093023300171e-01</stageThreshold>
  <weakClassifiers>
    <_>
      <internalNodes>
        0 -1 81468 -7.6540056616067886e-03</internalNodes>
      <leafValues>
        6.0243409872055054e-01 -6.2087185680866241e-02</leafValues></_>
    <_>
      <internalNodes>
        0 -1 161376 9.0466775000095367e-03</internalNodes>
      <leafValues>
        -1.3920879364013672e-01 4.7368797659873962e-01</leafValues></_>
    <_>
      <internalNodes>
        0 -1 93930 2.3876268416643143e-02</internalNodes>
      <leafValues>
        -1.6330644488334656e-01 3.5765206813812256e-01</leafValues></_>
    <_>
      <internalNodes>
        0 -1 4121 -4.8118457198143005e-03</internalNodes>
      <leafValues>
        3.5703545808792114e-01 -1.6226869821548462e-01</leafValues></_>
    <_>
      <internalNodes>
        0 -1 151964 -9.7311451099812984e-04</internalNodes>
      <leafValues>
        -4.3603485822677612e-01 1.2204059958457947e-01</leafValues></_>
    <_>
      <internalNodes>
        0 -1 121390 -1.5002115629613400e-02</internalNodes>
      <leafValues>
        8.8703446090221405e-02 -6.6549867391586304e-01</leafValues></_>
    <_>
      <internalNodes>
        0 -1 155232 2.4723337264731526e-04</internalNodes>
      <leafValues>
        9.8754703998565674e-02 -4.2872136831283569e-01</leafValues></_>
    <_>
      <internalNodes>
        0 -1 26284 6.8905609659850597e-03</internalNodes>
      <leafValues>
        1.0965282469987869e-01 -4.2530900239944458e-01</leafValues></_>
    <_>
      <internalNodes>
        0 -1 60756 -6.7333970218896866e-04</internalNodes>
      <leafValues>
        -2.9694953560829163e-01 1.6754138469696045e-01</leafValues></_>
    <_>
      <internalNodes>
        0 -1 88117 3.5267353057861328e-02</internalNodes>
      <leafValues>
        -1.1476892232894897e-01 3.8119402527809143e-01</leafValues></_>
    <_>
      <internalNodes>
        0 -1 48054 -1.6504449769854546e-02</internalNodes>
      <leafValues>
        2.8310841321945190e-01 -1.7168350517749786e-01</leafValues></_>
    <_>
      <internalNodes>
        0 -1 98652 1.1913213529624045e-04</internalNodes>
      <leafValues>
        1.1863891035318375e-01 -3.1872585415840149e-01</leafValues></_>
    <_>
      <internalNodes>
        0 -1 141510 4.7484664246439934e-03</internalNodes>
      <leafValues>
        -7.7909328043460846e-02 5.3898894786834717e-01</leafValues></_>
    <_>
      <internalNodes>
        0 -1 125416 -6.1244529206305742e-04</internalNodes>
      <leafValues>
        3.9884677529335022e-01 -8.3714842796325684e-02</leafValues></_>
    <_>
      <internalNodes>
        0 -1 118678 1.2932387180626392e-03</internalNodes>
      <leafValues>
        -8.8685341179370880e-02 3.8359373807907104e-01</leafValues></_>
    <_>
      <internalNodes>
        0 -1 121344 4.9999591283267364e-05</internalNodes>
      <leafValues>
        1.4841811358928680e-01 -2.3862756788730621e-01</leafValues></_>
    <_>
      <internalNodes>
        0 -1 36576 -2.9945763945579529e-01</internalNodes>
      <leafValues>
        -3.0154696106910706e-01 1.0102796554565430e-01</leafValues></_>
    <_>
      <internalNodes>
        0 -1 133903 -4.4956244528293610e-02</internalNodes>
      <leafValues>
        4.2617671191692352e-02 -8.4304261207580566e-01</leafValues></_>
    <_>
      <internalNodes>
        0 -1 141241 -1.1185915023088455e-01</internalNodes>
      <leafValues>
        7.6718461513519287e-01 -4.4869940727949142e-02</leafValues></_>
    <_>
      <internalNodes>
        0 -1 112813 2.8134044259786606e-03</internalNodes>
      <leafValues>
        -4.8475403338670731e-02 5.9844934940338135e-01</leafValues></_>
    <_>
      <internalNodes>
        0 -1 10561 5.5348813475575298e-05</internalNodes>
      <leafValues>
        1.4708368480205536e-01 -2.1298260986804962e-01</leafValues></_>
    <_>
      <internalNodes>
        0 -1 112169 1.0701315477490425e-03</internalNodes>
      <leafValues>
        -8.4600068628787994e-02 4.7757774591445923e-01</leafValues></_>
    <_>
      <internalNodes>
        0 -1 106971 -1.2857771478593349e-02</internalNodes>
      <leafValues>
        2.9063639044761658e-01 -9.5731109380722046e-02</leafValues></_>
    <_>
      <internalNodes>
        0 -1 27667 4.8976829275488853e-03</internalNodes>
      <leafValues>
        -1.1397241055965424e-01 3.6922907829284668e-01</leafValues></_>
    <_>
      <internalNodes>
        0 -1 127902 7.0410571061074734e-04</internalNodes>
      <leafValues>
        1.5891444683074951e-01 -2.2275094687938690e-01</leafValues></_>
    <_>
      <internalNodes>
        0 -1 151876 2.0363461226224899e-03</internalNodes>
      <leafValues>
        -9.1197445988655090e-02 3.1297364830970764e-01</leafValues></_>
    <_>
      <internalNodes>
        0 -1 34435 -3.5617877729237080e-03</internalNodes>
      <leafValues>
        3.9575287699699402e-01 -7.5949534773826599e-02</leafValues></_>
    <_>
      <internalNodes>
        0 -1 1165 -3.2412516884505749e-03</internalNodes>
      <leafValues>
        2.2040531039237976e-01 -1.4251591265201569e-01</leafValues></_>
    <_>
      <internalNodes>
        0 -1 18 -4.6897284686565399e-02</internalNodes>
      <leafValues>
        -8.6947798728942871e-01 3.5040985792875290e-02</leafValues></_>
    <_>
      <internalNodes>
        0 -1 75159 -1.0047536343336105e-02</internalNodes>
      <leafValues>
        7.1337270736694336e-01 -4.9994397908449173e-02</leafValues></_>
    <_>
      <internalNodes>
        0 -1 101337 2.9848860576748848e-03</internalNodes>
      <leafValues>
        -7.9522550106048584e-02 3.4583246707916260e-01</leafValues></_>
    <_>
      <internalNodes>
        0 -1 11509 4.0696850046515465e-03</internalNodes>
      <leafValues>
        -5.9188343584537506e-02 4.3559864163398743e-01</leafValues></_>
    <_>
      <internalNodes>
        0 -1 103622 -4.2029516771435738e-03</internalNodes>
      <leafValues>
        4.6989893913269043e-01 -5.5554375052452087e-02</leafValues></_>
    <_>
      <internalNodes>
        0 -1 3138 -3.0649191467091441e-04</internalNodes>
      <leafValues>
        -2.2545562684535980e-01 1.2857449054718018e-01</leafValues></_>
    <_>
      <internalNodes>
        0 -1 16 1.7509183089714497e-04</internalNodes>
      <leafValues>
        1.4807586371898651e-01 -2.2432264685630798e-01</leafValues></_>
    <_>
      <internalNodes>
        0 -1 159317 5.0306087359786034e-03</internalNodes>
      <leafValues>
        -5.5212277919054031e-02 4.9661126732826233e-01</leafValues></_>
    <_>
      <internalNodes>
        0 -1 159596 4.8891066398937255e-05</internalNodes>
      <leafValues>
        1.4100489020347595e-01 -2.0085120201110840e-01</leafValues></_>
    <_>
      <internalNodes>
        0 -1 126638 4.2921835556626320e-03</internalNodes>
      <leafValues>
        -6.0782238841056824e-02 5.4952371120452881e-01</leafValues></_>
    <_>
      <internalNodes>
        0 -1 121344 -3.6674676812253892e-04</internalNodes>
      <leafValues>
        -3.3478674292564392e-01 9.6760816872119904e-02</leafValues></_>
    <_>
      <internalNodes>
        0 -1 76664 2.4148054420948029e-02</internalNodes>
      <leafValues>
        -7.5480252504348755e-02 4.6477413177490234e-01</leafValues></_>
    <_>
      <internalNodes>
        0 -1 100029 -2.4934520479291677e-03</internalNodes>
      <leafValues>
        3.0943465232849121e-01 -9.6841618418693542e-02</leafValues></_>
    <_>
      <internalNodes>
        0 -1 161184 1.2223659723531455e-04</internalNodes>
      <leafValues>
        1.2766654789447784e-01 -2.4426898360252380e-01</leafValues></_>
    <_>
      <internalNodes>
        0 -1 100170 4.7599445097148418e-03</internalNodes>
      <leafValues>
        -7.5756482779979706e-02 4.5889082551002502e-01</leafValues></_>
    <_>
      <internalNodes>
        0 -1 124399 2.9265510383993387e-03</internalNodes>
      <leafValues>
        -1.4503371715545654e-01 2.1005989611148834e-01</leafValues></_>
    <_>
      <internalNodes>
        0 -1 114904 -1.4764916151762009e-02</internalNodes>
      <leafValues>
        5.7854038476943970e-01 -4.1086573153734207e-02</leafValues></_>
    <_>
      <internalNodes>
        0 -1 23703 1.5209168195724487e-02</internalNodes>
      <leafValues>
        -7.2013057768344879e-02 3.7308940291404724e-01</leafValues></_>
    <_>
      <internalNodes>
        0 -1 60404 -5.6344410404562950e-03</internalNodes>
      <leafValues>
        3.8338047266006470e-01 -7.5372472405433655e-02</leafValues></_>
    <_>
      <internalNodes>
        0 -1 65949 -3.3716212958097458e-02</internalNodes>
      <leafValues>
        2.2715872526168823e-01 -1.4622440934181213e-01</leafValues></_>
    <_>
      <internalNodes>
        0 -1 5644 -3.2429677248001099e-01</internalNodes>
      <leafValues>
        -6.1025512218475342e-01 4.6822018921375275e-02</leafValues></_>
    <_>
      <internalNodes>
        0 -1 148130 -2.2216711658984423e-04</internalNodes>
      <leafValues>
        -2.3377811908721924e-01 1.2335271388292313e-01</leafValues></_>
    <_>
      <internalNodes>
        0 -1 137105 3.5277404822409153e-03</internalNodes>
      <leafValues>
        -8.1764854490756989e-02 3.7974271178245544e-01</leafValues></_>
    <_>
      <internalNodes>
        0 -1 77101 -8.4050565958023071e-02</internalNodes>
      <leafValues>
        4.7521088272333145e-02 -6.2035596370697021e-01</leafValues></_>
    <_>
      <internalNodes>
        0 -1 125463 -4.4808741658926010e-03</internalNodes>
      <leafValues>
        -1.2018247693777084e-01 2.4435712397098541e-01</leafValues></_>
    <_>
      <internalNodes>
        0 -1 72049 2.9266658239066601e-03</internalNodes>
      <leafValues>
        -1.1447980999946594e-01 2.4219238758087158e-01</leafValues></_>
    <_>
      <internalNodes>
        0 -1 148300 7.9939712304621935e-04</internalNodes>
      <leafValues>
        5.4770868271589279e-02 -5.2988088130950928e-01</leafValues></_>
    <_>
      <internalNodes>
        0 -1 6 -1.0958102939184755e-04</internalNodes>
      <leafValues>
        -1.8022961914539337e-01 1.5203404426574707e-01</leafValues></_>
    <_>
      <internalNodes>
        0 -1 125421 2.7805971913039684e-03</internalNodes>
      <leafValues>
        -5.7632111012935638e-02 4.7384724020957947e-01</leafValues></_>
    <_>
      <internalNodes>
        0 -1 121584 -5.2052140235900879e-03</internalNodes>
      <leafValues>
        -4.2704594135284424e-01 6.7593574523925781e-02</leafValues></_>
    <_>
      <internalNodes>
        0 -1 133836 3.2447226112708449e-04</internalNodes>
      <leafValues>
        1.0815302282571793e-01 -2.4679218232631683e-01</leafValues></_>
    <_>
      <internalNodes>
        0 -1 37924 -5.2185417152941227e-03</internalNodes>
      <leafValues>
        5.7026845216751099e-01 -5.0923243165016174e-02</leafValues></_>
    <_>
      <internalNodes>
        0 -1 19620 -2.3370403796434402e-03</internalNodes>
      <leafValues>
        1.9422245025634766e-01 -1.4588122069835663e-01</leafValues></_>
    <_>
      <internalNodes>
        0 -1 8818 -1.3693691289518028e-04</internalNodes>
      <leafValues>
        -2.1008393168449402e-01 1.7846596240997314e-01</leafValues></_>
    <_>
      <internalNodes>
        0 -1 161806 8.0471467226743698e-03</internalNodes>
      <leafValues>
        -4.5794647186994553e-02 6.9563072919845581e-01</leafValues></_>
    <_>
      <internalNodes>
        0 -1 106788 2.5266449665650725e-04</internalNodes>
      <leafValues>
        1.1931581050157547e-01 -2.8663620352745056e-01</leafValues></_>
    <_>
      <internalNodes>
        0 -1 136593 1.9862013868987560e-03</internalNodes>
      <leafValues>
        -8.0638371407985687e-02 3.4944257140159607e-01</leafValues></_>
    <_>
      <internalNodes>
        0 -1 148040 6.3702771440148354e-03</internalNodes>
      <leafValues>
        -2.7923949062824249e-02 8.4934270381927490e-01</leafValues></_>
    <_>
      <internalNodes>
        0 -1 138082 -1.1657505529001355e-03</internalNodes>
      <leafValues>
        4.9466598033905029e-01 -4.6112984418869019e-02</leafValues></_>
    <_>
      <internalNodes>
        0 -1 114412 -2.6634271489456296e-04</internalNodes>
      <leafValues>
        -3.3632615208625793e-01 8.6068078875541687e-02</leafValues></_>
    <_>
      <internalNodes>
        0 -1 49490 -3.9112307131290436e-03</internalNodes>
      <leafValues>
        -5.4182386398315430e-01 4.4572673738002777e-02</leafValues></_>
    <_>
      <internalNodes>
        0 -1 156845 -5.5199200287461281e-03</internalNodes>
      <leafValues>
        4.0737897157669067e-01 -6.7552298307418823e-02</leafValues></_>
    <_>
      <internalNodes>
        0 -1 14404 2.2927126288414001e-01</internalNodes>
      <leafValues>
        3.5657450556755066e-02 -8.0771744251251221e-01</leafValues></_>
    <_>
      <internalNodes>
        0 -1 162327 1.4482875121757388e-04</internalNodes>
      <leafValues>
        1.0525259375572205e-01 -2.3806200921535492e-01</leafValues></_>
    <_>
      <internalNodes>
        0 -1 162322 -3.3748301211744547e-04</internalNodes>
      <leafValues>
        -2.8271755576133728e-01 8.9547559618949890e-02</leafValues></_>
    <_>
      <internalNodes>
        0 -1 158385 -1.1237168684601784e-02</internalNodes>
      <leafValues>
        2.8116015717387199e-02 -7.5780683755874634e-01</leafValues></_>
    <_>
      <internalNodes>
        0 -1 29556 -9.1550424695014954e-03</internalNodes>
      <leafValues>
        5.3382325172424316e-01 -4.8743277788162231e-02</leafValues></_>
    <_>
      <internalNodes>
        0 -1 60436 -7.7239144593477249e-04</internalNodes>
      <leafValues>
        -5.5377793312072754e-01 5.1617253571748734e-02</leafValues></_>
    <_>
      <internalNodes>
        0 -1 161625 4.6869544312357903e-03</internalNodes>
      <leafValues>
        -1.2792380154132843e-01 2.2903361916542053e-01</leafValues></_></weakClassifiers></stage3>
</opencv_storage>
